{"feature_names": ["h (mm)", "b (mm)", "tw (mm)", "tf (mm)", "fy (MPa)", "2L/h", "M0.04/Mp", "M0.06/M0.06,FS", "Ed/Ed,FS", "\u03c3vm,CF/fy", "PEEQCF", "Lph/h", "\u03b8u,LB (rad)"], "base_score": 0.52470946, "trees": [{"nodeid": 0, "depth": 0, "split": "f11", "split_condition": 0.673570275, "yes": 1, "no": 2, "missing": 2, "children": [{"nodeid": 1, "depth": 1, "split": "f8", "split_condition": 0.99000001, "yes": 3, "no": 4, "missing": 4, "children": [{"nodeid": 3, "depth": 2, "split": "f7", "split_condition": 0.779999971, "yes": 7, "no": 8, "missing": 8, "children": [{"nodeid": 7, "depth": 3, "split": "f9", "split_condition": 0.957396388, "yes": 15, "no": 16, "missing": 16, "children": [{"nodeid": 15, "depth": 4, "split": "f8", "split_condition": 0.670000017, "yes": 31, "no": 32, "missing": 32, "children": [{"nodeid": 31, "leaf": 0.0142209185}, {"nodeid": 32, "leaf": 0.00708349701}]}, {"nodeid": 16, "depth": 4, "split": "f9", "split_condition": 1.16569769, "yes": 33, "no": 34, "missing": 34, "children": [{"nodeid": 33, "leaf": 0.00240756106}, {"nodeid": 34, "leaf": -0.00283456384}]}]}, {"nodeid": 8, "depth": 3, "split": "f10", "split_condition": 0.232142851, "yes": 17, "no": 18, "missing": 18, "children": [{"nodeid": 17, "depth": 4, "split": "f11", "split_condition": 0.634405136, "yes": 35, "no": 36, "missing": 36, "children": [{"nodeid": 35, "leaf": -0.00300776446}, {"nodeid": 36, "leaf": 0.00312480982}]}, {"nodeid": 18, "depth": 4, "split": "f7", "split_condition": 1, "yes": 37, "no": 38, "missing": 38, "children": [{"nodeid": 37, "leaf": -0.0070686331}, {"nodeid": 38, "leaf": -0.00209011044}]}]}]}, {"nodeid": 4, "depth": 2, "split": "f7", "split_condition": 1.01999998, "yes": 9, "no": 10, "missing": 10, "children": [{"nodeid": 9, "depth": 3, "split": "f8", "split_condition": 1, "yes": 19, "no": 20, "missing": 20, "children": [{"nodeid": 19, "depth": 4, "split": "f10", "split_condition": 1.39285719, "yes": 39, "no": 40, "missing": 40, "children": [{"nodeid": 39, "leaf": -0.00785559136}, {"nodeid": 40, "leaf": -0.0130899213}]}, {"nodeid": 20, "depth": 4, "split": "f10", "split_condition": 0.285714298, "yes": 41, "no": 42, "missing": 42, "children": [{"nodeid": 41, "leaf": -0.0046840068}, {"nodeid": 42, "leaf": -0.0138022825}]}]}, {"nodeid": 10, "depth": 3, "split": "f8", "split_condition": 1, "yes": 21, "no": 22, "missing": 22, "children": [{"nodeid": 21, "depth": 4, "split": "f7", "split_condition": 1.04999995, "yes": 43, "no": 44, "missing": 44, "children": [{"nodeid": 43, "leaf": -0.00211406127}, {"nodeid": 44, "leaf": 0.00727033708}]}, {"nodeid": 22, "depth": 4, "split": "f10", "split_condition": 0.178571433, "yes": 45, "no": 46, "missing": 46, "children": [{"nodeid": 45, "leaf": 0.00224288297}, {"nodeid": 46, "leaf": -0.00882073678}]}]}]}]}, {"nodeid": 2, "depth": 1, "split": "f10", "split_condition": 0.0535714291, "yes": 5, "no": 6, "missing": 6, "children": [{"nodeid": 5, "depth": 2, "split": "f10", "split_condition": 0.0178571437, "yes": 11, "no": 12, "missing": 12, "children": [{"nodeid": 11, "depth": 3, "split": "f12", "split_condition": 0.0406999998, "yes": 23, "no": 24, "missing": 24, "children": [{"nodeid": 23, "depth": 4, "split": "f11", "split_condition": 0.950635672, "yes": 47, "no": 48, "missing": 48, "children": [{"nodeid": 47, "leaf": 0.00301162247}, {"nodeid": 48, "leaf": 0.0111577483}]}, {"nodeid": 24, "depth": 4, "split": "f8", "split_condition": 0.620000005, "yes": 49, "no": 50, "missing": 50, "children": [{"nodeid": 49, "leaf": 0.0172022991}, {"nodeid": 50, "leaf": 0.015265299}]}]}, {"nodeid": 12, "depth": 3, "split": "f5", "split_condition": 9, "yes": 25, "no": 26, "missing": 26, "children": [{"nodeid": 25, "depth": 4, "split": "f11", "split_condition": 1.73700261, "yes": 51, "no": 52, "missing": 52, "children": [{"nodeid": 51, "leaf": 0.00746106775}, {"nodeid": 52, "leaf": 0.0105313212}]}, {"nodeid": 26, "depth": 4, "split": "f11", "split_condition": 1.60000014, "yes": 53, "no": 54, "missing": 54, "children": [{"nodeid": 53, "leaf": 0.0117056584}, {"nodeid": 54, "leaf": 0.015920965}]}]}]}, {"nodeid": 6, "depth": 2, "split": "f11", "split_condition": 1.42891014, "yes": 13, "no": 14, "missing": 14, "children": [{"nodeid": 13, "depth": 3, "split": "f10", "split_condition": 0.214285716, "yes": 27, "no": 28, "missing": 28, "children": [{"nodeid": 27, "depth": 4, "split": "f5", "split_condition": 9, "yes": 55, "no": 56, "missing": 56, "children": [{"nodeid": 55, "leaf": 0.00123403966}, {"nodeid": 56, "leaf": 0.00576613005}]}, {"nodeid": 28, "depth": 4, "split": "f5", "split_condition": 9, "yes": 57, "no": 58, "missing": 58, "children": [{"nodeid": 57, "leaf": -0.00501085259}, {"nodeid": 58, "leaf": 0.000641560589}]}]}, {"nodeid": 14, "depth": 3, "split": "f5", "split_condition": 9, "yes": 29, "no": 30, "missing": 30, "children": [{"nodeid": 29, "depth": 4, "split": "f5", "split_condition": 7, "yes": 59, "no": 60, "missing": 60, "children": [{"nodeid": 59, "leaf": 0.003012473}, {"nodeid": 60, "leaf": 0.00679944037}]}, {"nodeid": 30, "depth": 4, "split": "f11", "split_condition": 1.83333433, "yes": 61, "no": 62, "missing": 62, "children": [{"nodeid": 61, "leaf": 0.00793374982}, {"nodeid": 62, "leaf": 0.0127025796}]}]}]}]}]}, {"nodeid": 0, "depth": 0, "split": "f11", "split_condition": 0.673570275, "yes": 1, "no": 2, "missing": 2, "children": [{"nodeid": 1, "depth": 1, "split": "f7", "split_condition": 0.790000021, "yes": 3, "no": 4, "missing": 4, "children": [{"nodeid": 3, "depth": 2, "split": "f9", "split_condition": 1.01075947, "yes": 7, "no": 8, "missing": 8, "children": [{"nodeid": 7, "depth": 3, "split": "f10", "split_condition": 0.0178571437, "yes": 15, "no": 16, "missing": 16, "children": [{"nodeid": 15, "leaf": 0.0147748757}, {"nodeid": 16, "depth": 4, "split": "f11", "split_condition": 0.28125, "yes": 31, "no": 32, "missing": 32, "children": [{"nodeid": 31, "leaf": 0.00170270598}, {"nodeid": 32, "leaf": 0.00677423412}]}]}, {"nodeid": 8, "depth": 3, "split": "f7", "split_condition": 0.730000019, "yes": 17, "no": 18, "missing": 18, "children": [{"nodeid": 17, "depth": 4, "split": "f1", "split_condition": 180, "yes": 33, "no": 34, "missing": 34, "children": [{"nodeid": 33, "leaf": 0.00393927796}, {"nodeid": 34, "leaf": -0.000341737148}]}, {"nodeid": 18, "depth": 4, "split": "f10", "split_condition": 0.267857134, "yes": 35, "no": 36, "missing": 36, "children": [{"nodeid": 35, "leaf": 0.00129424094}, {"nodeid": 36, "leaf": -0.00390258012}]}]}]}, {"nodeid": 4, "depth": 2, "split": "f10", "split_condition": 0.285714298, "yes": 9, "no": 10, "missing": 10, "children": [{"nodeid": 9, "depth": 3, "split": "f11", "split_condition": 0.572728276, "yes": 19, "no": 20, "missing": 20, "children": [{"nodeid": 19, "depth": 4, "split": "f12", "split_condition": 0.0359999985, "yes": 37, "no": 38, "missing": 38, "children": [{"nodeid": 37, "leaf": 0.00231886189}, {"nodeid": 38, "leaf": -0.00505205803}]}, {"nodeid": 20, "depth": 4, "split": "f5", "split_condition": 12, "yes": 39, "no": 40, "missing": 40, "children": [{"nodeid": 39, "leaf": -0.000982791535}, {"nodeid": 40, "leaf": 0.00354195409}]}]}, {"nodeid": 10, "depth": 3, "split": "f7", "split_condition": 1.01999998, "yes": 21, "no": 22, "missing": 22, "children": [{"nodeid": 21, "depth": 4, "split": "f10", "split_condition": 1.375, "yes": 41, "no": 42, "missing": 42, "children": [{"nodeid": 41, "leaf": -0.0082582077}, {"nodeid": 42, "leaf": -0.0109675499}]}, {"nodeid": 22, "depth": 4, "split": "f9", "split_condition": 1.36105835, "yes": 43, "no": 44, "missing": 44, "children": [{"nodeid": 43, "leaf": -0.00972867012}, {"nodeid": 44, "leaf": -0.00383525365}]}]}]}]}, {"nodeid": 2, "depth": 1, "split": "f10", "split_condition": 0.0535714291, "yes": 5, "no": 6, "missing": 6, "children": [{"nodeid": 5, "depth": 2, "split": "f10", "split_condition": 0.0178571437, "yes": 11, "no": 12, "missing": 12, "children": [{"nodeid": 11, "depth": 3, "split": "f5", "split_condition": 7, "yes": 23, "no": 24, "missing": 24, "children": [{"nodeid": 23, "depth": 4, "split": "f12", "split_condition": 0.0500000007, "yes": 45, "no": 46, "missing": 46, "children": [{"nodeid": 45, "leaf": 0.0116591379}, {"nodeid": 46, "leaf": 0.014557777}]}, {"nodeid": 24, "depth": 4, "split": "f11", "split_condition": 1.62152016, "yes": 47, "no": 48, "missing": 48, "children": [{"nodeid": 47, "leaf": 0.014419442}, {"nodeid": 48, "leaf": 0.016050227}]}]}, {"nodeid": 12, "depth": 3, "split": "f5", "split_condition": 9, "yes": 25, "no": 26, "missing": 26, "children": [{"nodeid": 25, "depth": 4, "split": "f11", "split_condition": 1.53372085, "yes": 49, "no": 50, "missing": 50, "children": [{"nodeid": 49, "leaf": 0.00668405509}, {"nodeid": 50, "leaf": 0.00948483963}]}, {"nodeid": 26, "depth": 4, "split": "f11", "split_condition": 2.04131055, "yes": 51, "no": 52, "missing": 52, "children": [{"nodeid": 51, "leaf": 0.0112439394}, {"nodeid": 52, "leaf": 0.0157904848}]}]}]}, {"nodeid": 6, "depth": 2, "split": "f11", "split_condition": 1.42891014, "yes": 13, "no": 14, "missing": 14, "children": [{"nodeid": 13, "depth": 3, "split": "f10", "split_condition": 0.160714284, "yes": 27, "no": 28, "missing": 28, "children": [{"nodeid": 27, "depth": 4, "split": "f11", "split_condition": 0.737350464, "yes": 53, "no": 54, "missing": 54, "children": [{"nodeid": 53, "leaf": 0.00824322645}, {"nodeid": 54, "leaf": 0.00315339956}]}, {"nodeid": 28, "depth": 4, "split": "f5", "split_condition": 9, "yes": 55, "no": 56, "missing": 56, "children": [{"nodeid": 55, "leaf": -0.00401279191}, {"nodeid": 56, "leaf": 0.000993968104}]}]}, {"nodeid": 14, "depth": 3, "split": "f5", "split_condition": 9, "yes": 29, "no": 30, "missing": 30, "children": [{"nodeid": 29, "depth": 4, "split": "f10", "split_condition": 0.428571433, "yes": 57, "no": 58, "missing": 58, "children": [{"nodeid": 57, "leaf": 0.00580972014}, {"nodeid": 58, "leaf": 0.00187808496}]}, {"nodeid": 30, "depth": 4, "split": "f11", "split_condition": 1.83333433, "yes": 59, "no": 60, "missing": 60, "children": [{"nodeid": 59, "leaf": 0.00718156574}, {"nodeid": 60, "leaf": 0.0116596874}]}]}]}]}]}, {"nodeid": 0, "depth": 0, "split": "f11", "split_condition": 0.673570275, "yes": 1, "no": 2, "missing": 2, "children": [{"nodeid": 1, "depth": 1, "split": "f8", "split_condition": 0.99000001, "yes": 3, "no": 4, "missing": 4, "children": [{"nodeid": 3, "depth": 2, "split": "f7", "split_condition": 0.779999971, "yes": 7, "no": 8, "missing": 8, "children": [{"nodeid": 7, "depth": 3, "split": "f9", "split_condition": 0.97680831, "yes": 15, "no": 16, "missing": 16, "children": [{"nodeid": 15, "depth": 4, "split": "f8", "split_condition": 0.680000007, "yes": 31, "no": 32, "missing": 32, "children": [{"nodeid": 31, "leaf": 0.0124128256}, {"nodeid": 32, "leaf": 0.00542715006}]}, {"nodeid": 16, "depth": 4, "split": "f8", "split_condition": 0.860000014, "yes": 33, "no": 34, "missing": 34, "children": [{"nodeid": 33, "leaf": 0.00189896848}, {"nodeid": 34, "leaf": -0.00238151406}]}]}, {"nodeid": 8, "depth": 3, "split": "f10", "split_condition": 0.232142851, "yes": 17, "no": 18, "missing": 18, "children": [{"nodeid": 17, "depth": 4, "split": "f11", "split_condition": 0.634405136, "yes": 35, "no": 36, "missing": 36, "children": [{"nodeid": 35, "leaf": -0.00237934059}, {"nodeid": 36, "leaf": 0.00272197509}]}, {"nodeid": 18, "depth": 4, "split": "f7", "split_condition": 1, "yes": 37, "no": 38, "missing": 38, "children": [{"nodeid": 37, "leaf": -0.00610712077}, {"nodeid": 38, "leaf": -0.00151508208}]}]}]}, {"nodeid": 4, "depth": 2, "split": "f7", "split_condition": 1.01999998, "yes": 9, "no": 10, "missing": 10, "children": [{"nodeid": 9, "depth": 3, "split": "f8", "split_condition": 1, "yes": 19, "no": 20, "missing": 20, "children": [{"nodeid": 19, "depth": 4, "split": "f10", "split_condition": 1.375, "yes": 39, "no": 40, "missing": 40, "children": [{"nodeid": 39, "leaf": -0.00651950762}, {"nodeid": 40, "leaf": -0.0109194443}]}, {"nodeid": 20, "depth": 4, "split": "f10", "split_condition": 0.285714298, "yes": 41, "no": 42, "missing": 42, "children": [{"nodeid": 41, "leaf": -0.0023893835}, {"nodeid": 42, "leaf": -0.0120159341}]}]}, {"nodeid": 10, "depth": 3, "split": "f8", "split_condition": 1, "yes": 21, "no": 22, "missing": 22, "children": [{"nodeid": 21, "depth": 4, "split": "f7", "split_condition": 1.04999995, "yes": 43, "no": 44, "missing": 44, "children": [{"nodeid": 43, "leaf": -0.00198461371}, {"nodeid": 44, "leaf": 0.00682192435}]}, {"nodeid": 22, "depth": 4, "split": "f10", "split_condition": 1.58928573, "yes": 45, "no": 46, "missing": 46, "children": [{"nodeid": 45, "leaf": -0.00656880904}, {"nodeid": 46, "leaf": -0.0121987164}]}]}]}]}, {"nodeid": 2, "depth": 1, "split": "f10", "split_condition": 0.0535714291, "yes": 5, "no": 6, "missing": 6, "children": [{"nodeid": 5, "depth": 2, "split": "f10", "split_condition": 0.0178571437, "yes": 11, "no": 12, "missing": 12, "children": [{"nodeid": 11, "depth": 3, "split": "f12", "split_condition": 0.0401000008, "yes": 23, "no": 24, "missing": 24, "children": [{"nodeid": 23, "depth": 4, "split": "f0", "split_condition": 500, "yes": 47, "no": 48, "missing": 48, "children": [{"nodeid": 47, "leaf": 0.00700202817}, {"nodeid": 48, "leaf": 0.0103979856}]}, {"nodeid": 24, "depth": 4, "split": "f11", "split_condition": 1.14444423, "yes": 49, "no": 50, "missing": 50, "children": [{"nodeid": 49, "leaf": 0.0122895204}, {"nodeid": 50, "leaf": 0.0140471971}]}]}, {"nodeid": 12, "depth": 3, "split": "f11", "split_condition": 1.66363561, "yes": 25, "no": 26, "missing": 26, "children": [{"nodeid": 25, "depth": 4, "split": "f11", "split_condition": 0.75454551, "yes": 51, "no": 52, "missing": 52, "children": [{"nodeid": 51, "leaf": 0.0126679223}, {"nodeid": 52, "leaf": 0.00741243409}]}, {"nodeid": 26, "depth": 4, "split": "f8", "split_condition": 0.709999979, "yes": 53, "no": 54, "missing": 54, "children": [{"nodeid": 53, "leaf": 0.00898108259}, {"nodeid": 54, "leaf": 0.0130236316}]}]}]}, {"nodeid": 6, "depth": 2, "split": "f11", "split_condition": 1.42891014, "yes": 13, "no": 14, "missing": 14, "children": [{"nodeid": 13, "depth": 3, "split": "f10", "split_condition": 0.214285716, "yes": 27, "no": 28, "missing": 28, "children": [{"nodeid": 27, "depth": 4, "split": "f10", "split_condition": 0.0892857164, "yes": 55, "no": 56, "missing": 56, "children": [{"nodeid": 55, "leaf": 0.00530381501}, {"nodeid": 56, "leaf": 0.00209034653}]}, {"nodeid": 28, "depth": 4, "split": "f12", "split_condition": 0.0496999994, "yes": 57, "no": 58, "missing": 58, "children": [{"nodeid": 57, "leaf": -4.33208652e-06}, {"nodeid": 58, "leaf": -0.00462022237}]}]}, {"nodeid": 14, "depth": 3, "split": "f10", "split_condition": 0.321428567, "yes": 29, "no": 30, "missing": 30, "children": [{"nodeid": 29, "depth": 4, "split": "f11", "split_condition": 1.83333433, "yes": 59, "no": 60, "missing": 60, "children": [{"nodeid": 59, "leaf": 0.00633047428}, {"nodeid": 60, "leaf": 0.0097516682}]}, {"nodeid": 30, "depth": 4, "split": "f8", "split_condition": 0.829999983, "yes": 61, "no": 62, "missing": 62, "children": [{"nodeid": 61, "leaf": 0.00613226509}, {"nodeid": 62, "leaf": 0.00266572554}]}]}]}]}]}, {"nodeid": 0, "depth": 0, "split": "f11", "split_condition": 0.673570275, "yes": 1, "no": 2, "missing": 2, "children": [{"nodeid": 1, "depth": 1, "split": "f8", "split_condition": 0.99000001, "yes": 3, "no": 4, "missing": 4, "children": [{"nodeid": 3, "depth": 2, "split": "f7", "split_condition": 0.769999981, "yes": 7, "no": 8, "missing": 8, "children": [{"nodeid": 7, "depth": 3, "split": "f9", "split_condition": 0.982730567, "yes": 15, "no": 16, "missing": 16, "children": [{"nodeid": 15, "depth": 4, "split": "f8", "split_condition": 0.680000007, "yes": 31, "no": 32, "missing": 32, "children": [{"nodeid": 31, "leaf": 0.0128482468}, {"nodeid": 32, "leaf": 0.00525618438}]}, {"nodeid": 16, "depth": 4, "split": "f0", "split_condition": 400, "yes": 33, "no": 34, "missing": 34, "children": [{"nodeid": 33, "leaf": 0.00375443115}, {"nodeid": 34, "leaf": -0.000737377442}]}]}, {"nodeid": 8, "depth": 3, "split": "f7", "split_condition": 1, "yes": 17, "no": 18, "missing": 18, "children": [{"nodeid": 17, "depth": 4, "split": "f8", "split_condition": 0.970000029, "yes": 35, "no": 36, "missing": 36, "children": [{"nodeid": 35, "leaf": -0.00351781212}, {"nodeid": 36, "leaf": -0.00663549965}]}, {"nodeid": 18, "depth": 4, "split": "f9", "split_condition": 1.23737872, "yes": 37, "no": 38, "missing": 38, "children": [{"nodeid": 37, "leaf": -0.00903416891}, {"nodeid": 38, "leaf": -0.000639226811}]}]}]}, {"nodeid": 4, "depth": 2, "split": "f7", "split_condition": 1.01999998, "yes": 9, "no": 10, "missing": 10, "children": [{"nodeid": 9, "depth": 3, "split": "f8", "split_condition": 1, "yes": 19, "no": 20, "missing": 20, "children": [{"nodeid": 19, "depth": 4, "split": "f5", "split_condition": 9, "yes": 39, "no": 40, "missing": 40, "children": [{"nodeid": 39, "leaf": -0.0101335766}, {"nodeid": 40, "leaf": -0.005730181}]}, {"nodeid": 20, "depth": 4, "split": "f9", "split_condition": 1.19141054, "yes": 41, "no": 42, "missing": 42, "children": [{"nodeid": 41, "leaf": -0.006084227}, {"nodeid": 42, "leaf": -0.0112005593}]}]}, {"nodeid": 10, "depth": 3, "split": "f8", "split_condition": 1, "yes": 21, "no": 22, "missing": 22, "children": [{"nodeid": 21, "depth": 4, "split": "f11", "split_condition": 0.178946942, "yes": 43, "no": 44, "missing": 44, "children": [{"nodeid": 43, "leaf": -0.0111183701}, {"nodeid": 44, "leaf": -0.000391103007}]}, {"nodeid": 22, "depth": 4, "split": "f11", "split_condition": 0.411111444, "yes": 45, "no": 46, "missing": 46, "children": [{"nodeid": 45, "leaf": -0.007299216}, {"nodeid": 46, "leaf": 0.00393653009}]}]}]}]}, {"nodeid": 2, "depth": 1, "split": "f8", "split_condition": 0.819999993, "yes": 5, "no": 6, "missing": 6, "children": [{"nodeid": 5, "depth": 2, "split": "f8", "split_condition": 0.670000017, "yes": 11, "no": 12, "missing": 12, "children": [{"nodeid": 11, "depth": 3, "split": "f12", "split_condition": 0.0443000011, "yes": 23, "no": 24, "missing": 24, "children": [{"nodeid": 23, "depth": 4, "split": "f0", "split_condition": 500, "yes": 47, "no": 48, "missing": 48, "children": [{"nodeid": 47, "leaf": 0.00698517542}, {"nodeid": 48, "leaf": 0.0106074121}]}, {"nodeid": 24, "depth": 4, "split": "f9", "split_condition": 0.886904776, "yes": 49, "no": 50, "missing": 50, "children": [{"nodeid": 49, "leaf": 0.0130091012}, {"nodeid": 50, "leaf": 0.00689342385}]}]}, {"nodeid": 12, "depth": 3, "split": "f5", "split_condition": 9, "yes": 25, "no": 26, "missing": 26, "children": [{"nodeid": 25, "depth": 4, "split": "f8", "split_condition": 0.720000029, "yes": 51, "no": 52, "missing": 52, "children": [{"nodeid": 51, "leaf": 0.007207599}, {"nodeid": 52, "leaf": 0.00326014147}]}, {"nodeid": 26, "depth": 4, "split": "f8", "split_condition": 0.75, "yes": 53, "no": 54, "missing": 54, "children": [{"nodeid": 53, "leaf": 0.0123238573}, {"nodeid": 54, "leaf": 0.00990754366}]}]}]}, {"nodeid": 6, "depth": 2, "split": "f5", "split_condition": 12, "yes": 13, "no": 14, "missing": 14, "children": [{"nodeid": 13, "depth": 3, "split": "f11", "split_condition": 1.59999955, "yes": 27, "no": 28, "missing": 28, "children": [{"nodeid": 27, "depth": 4, "split": "f8", "split_condition": 0.899999976, "yes": 55, "no": 56, "missing": 56, "children": [{"nodeid": 55, "leaf": -0.000387913344}, {"nodeid": 56, "leaf": -0.00493244268}]}, {"nodeid": 28, "depth": 4, "split": "f5", "split_condition": 7, "yes": 57, "no": 58, "missing": 58, "children": [{"nodeid": 57, "leaf": 0.000274571881}, {"nodeid": 58, "leaf": 0.00459692301}]}]}, {"nodeid": 14, "depth": 3, "split": "f9", "split_condition": 0.843584657, "yes": 29, "no": 30, "missing": 30, "children": [{"nodeid": 29, "depth": 4, "split": "f0", "split_condition": 500, "yes": 59, "no": 60, "missing": 60, "children": [{"nodeid": 59, "leaf": 0.00643201871}, {"nodeid": 60, "leaf": 0.0110159991}]}, {"nodeid": 30, "depth": 4, "split": "f11", "split_condition": 1.23333371, "yes": 61, "no": 62, "missing": 62, "children": [{"nodeid": 61, "leaf": 0.00149970467}, {"nodeid": 62, "leaf": 0.00577474246}]}]}]}]}]}, {"nodeid": 0, "depth": 0, "split": "f10", "split_condition": 0.285714298, "yes": 1, "no": 2, "missing": 2, "children": [{"nodeid": 1, "depth": 1, "split": "f10", "split_condition": 0.0357142873, "yes": 3, "no": 4, "missing": 4, "children": [{"nodeid": 3, "depth": 2, "split": "f10", "split_condition": 0.0178571437, "yes": 7, "no": 8, "missing": 8, "children": [{"nodeid": 7, "depth": 3, "split": "f5", "split_condition": 7, "yes": 15, "no": 16, "missing": 16, "children": [{"nodeid": 15, "depth": 4, "split": "f12", "split_condition": 0.0489999987, "yes": 31, "no": 32, "missing": 32, "children": [{"nodeid": 31, "leaf": 0.00863135513}, {"nodeid": 32, "leaf": 0.0113391923}]}, {"nodeid": 16, "depth": 4, "split": "f11", "split_condition": 1.62152016, "yes": 33, "no": 34, "missing": 34, "children": [{"nodeid": 33, "leaf": 0.0113895535}, {"nodeid": 34, "leaf": 0.0127554433}]}]}, {"nodeid": 8, "depth": 3, "split": "f5", "split_condition": 9, "yes": 17, "no": 18, "missing": 18, "children": [{"nodeid": 17, "depth": 4, "split": "f5", "split_condition": 7, "yes": 35, "no": 36, "missing": 36, "children": [{"nodeid": 35, "leaf": 0.00569648948}, {"nodeid": 36, "leaf": 0.00801509619}]}, {"nodeid": 18, "depth": 4, "split": "f9", "split_condition": 0.557870388, "yes": 37, "no": 38, "missing": 38, "children": [{"nodeid": 37, "leaf": 0.00355573581}, {"nodeid": 38, "leaf": 0.0105298245}]}]}]}, {"nodeid": 4, "depth": 2, "split": "f11", "split_condition": 1.23333371, "yes": 9, "no": 10, "missing": 10, "children": [{"nodeid": 9, "depth": 3, "split": "f10", "split_condition": 0.125, "yes": 19, "no": 20, "missing": 20, "children": [{"nodeid": 19, "depth": 4, "split": "f11", "split_condition": 0.737350464, "yes": 39, "no": 40, "missing": 40, "children": [{"nodeid": 39, "leaf": 0.00766684813}, {"nodeid": 40, "leaf": 0.00229188474}]}, {"nodeid": 20, "depth": 4, "split": "f9", "split_condition": 1.19141054, "yes": 41, "no": 42, "missing": 42, "children": [{"nodeid": 41, "leaf": 0.00061166042}, {"nodeid": 42, "leaf": -0.003261904}]}]}, {"nodeid": 10, "depth": 3, "split": "f5", "split_condition": 7, "yes": 21, "no": 22, "missing": 22, "children": [{"nodeid": 21, "depth": 4, "split": "f11", "split_condition": 1.93211758, "yes": 43, "no": 44, "missing": 44, "children": [{"nodeid": 43, "leaf": 0.0019730397}, {"nodeid": 44, "leaf": 0.00422188407}]}, {"nodeid": 22, "depth": 4, "split": "f11", "split_condition": 1.83333433, "yes": 45, "no": 46, "missing": 46, "children": [{"nodeid": 45, "leaf": 0.00630115019}, {"nodeid": 46, "leaf": 0.00952268206}]}]}]}]}, {"nodeid": 2, "depth": 1, "split": "f11", "split_condition": 1.10140526, "yes": 5, "no": 6, "missing": 6, "children": [{"nodeid": 5, "depth": 2, "split": "f5", "split_condition": 7, "yes": 11, "no": 12, "missing": 12, "children": [{"nodeid": 11, "depth": 3, "split": "f10", "split_condition": 1.57142854, "yes": 23, "no": 24, "missing": 24, "children": [{"nodeid": 23, "depth": 4, "split": "f9", "split_condition": 1.34264767, "yes": 47, "no": 48, "missing": 48, "children": [{"nodeid": 47, "leaf": -0.00923362933}, {"nodeid": 48, "leaf": -0.00487396168}]}, {"nodeid": 24, "depth": 4, "split": "f11", "split_condition": 0.199999392, "yes": 49, "no": 50, "missing": 50, "children": [{"nodeid": 49, "leaf": -0.0079278117}, {"nodeid": 50, "leaf": -0.011141208}]}]}, {"nodeid": 12, "depth": 3, "split": "f9", "split_condition": 1.17993593, "yes": 25, "no": 26, "missing": 26, "children": [{"nodeid": 25, "depth": 4, "split": "f9", "split_condition": 0.864195287, "yes": 51, "no": 52, "missing": 52, "children": [{"nodeid": 51, "leaf": -0.00867418945}, {"nodeid": 52, "leaf": -0.00257730181}]}, {"nodeid": 26, "depth": 4, "split": "f12", "split_condition": 0.0487999991, "yes": 53, "no": 54, "missing": 54, "children": [{"nodeid": 53, "leaf": -0.00747590465}, {"nodeid": 54, "leaf": -0.00595920533}]}]}]}, {"nodeid": 6, "depth": 2, "split": "f5", "split_condition": 7, "yes": 13, "no": 14, "missing": 14, "children": [{"nodeid": 13, "depth": 3, "split": "f9", "split_condition": 0.855778337, "yes": 27, "no": 28, "missing": 28, "children": [{"nodeid": 27, "depth": 4, "split": "f11", "split_condition": 1.42891014, "yes": 55, "no": 56, "missing": 56, "children": [{"nodeid": 55, "leaf": -0.000917615893}, {"nodeid": 56, "leaf": 0.00109687331}]}, {"nodeid": 28, "depth": 4, "split": "f9", "split_condition": 0.87935406, "yes": 57, "no": 58, "missing": 58, "children": [{"nodeid": 57, "leaf": -0.000863914494}, {"nodeid": 58, "leaf": -0.00286702276}]}]}, {"nodeid": 14, "depth": 3, "split": "f11", "split_condition": 1.73700261, "yes": 29, "no": 30, "missing": 30, "children": [{"nodeid": 29, "depth": 4, "split": "f0", "split_condition": 600, "yes": 59, "no": 60, "missing": 60, "children": [{"nodeid": 59, "leaf": 0.00147362228}, {"nodeid": 60, "leaf": 0.00472361222}]}, {"nodeid": 30, "depth": 4, "split": "f11", "split_condition": 2.25453544, "yes": 61, "no": 62, "missing": 62, "children": [{"nodeid": 61, "leaf": 0.00541113503}, {"nodeid": 62, "leaf": 0.00792559143}]}]}]}]}]}, {"nodeid": 0, "depth": 0, "split": "f10", "split_condition": 0.285714298, "yes": 1, "no": 2, "missing": 2, "children": [{"nodeid": 1, "depth": 1, "split": "f10", "split_condition": 0.0357142873, "yes": 3, "no": 4, "missing": 4, "children": [{"nodeid": 3, "depth": 2, "split": "f10", "split_condition": 0.0178571437, "yes": 7, "no": 8, "missing": 8, "children": [{"nodeid": 7, "depth": 3, "split": "f8", "split_condition": 0.610000014, "yes": 15, "no": 16, "missing": 16, "children": [{"nodeid": 15, "leaf": 0.0119811511}, {"nodeid": 16, "depth": 4, "split": "f5", "split_condition": 7, "yes": 31, "no": 32, "missing": 32, "children": [{"nodeid": 31, "leaf": 0.00703058578}, {"nodeid": 32, "leaf": 0.0107558537}]}]}, {"nodeid": 8, "depth": 3, "split": "f5", "split_condition": 7, "yes": 17, "no": 18, "missing": 18, "children": [{"nodeid": 17, "depth": 4, "split": "f8", "split_condition": 0.660000026, "yes": 33, "no": 34, "missing": 34, "children": [{"nodeid": 33, "leaf": 0.00688675046}, {"nodeid": 34, "leaf": 0.00410261936}]}, {"nodeid": 18, "depth": 4, "split": "f11", "split_condition": 1.99999952, "yes": 35, "no": 36, "missing": 36, "children": [{"nodeid": 35, "leaf": 0.0082961563}, {"nodeid": 36, "leaf": 0.0114816735}]}]}]}, {"nodeid": 4, "depth": 2, "split": "f11", "split_condition": 1.34444427, "yes": 9, "no": 10, "missing": 10, "children": [{"nodeid": 9, "depth": 3, "split": "f10", "split_condition": 0.125, "yes": 19, "no": 20, "missing": 20, "children": [{"nodeid": 19, "depth": 4, "split": "f11", "split_condition": 0.737350464, "yes": 37, "no": 38, "missing": 38, "children": [{"nodeid": 37, "leaf": 0.00713444268}, {"nodeid": 38, "leaf": 0.00283735059}]}, {"nodeid": 20, "depth": 4, "split": "f9", "split_condition": 1.19141054, "yes": 39, "no": 40, "missing": 40, "children": [{"nodeid": 39, "leaf": 0.000863736728}, {"nodeid": 40, "leaf": -0.0023789634}]}]}, {"nodeid": 10, "depth": 3, "split": "f5", "split_condition": 9, "yes": 21, "no": 22, "missing": 22, "children": [{"nodeid": 21, "depth": 4, "split": "f5", "split_condition": 7, "yes": 41, "no": 42, "missing": 42, "children": [{"nodeid": 41, "leaf": 0.00294656027}, {"nodeid": 42, "leaf": 0.00563846296}]}, {"nodeid": 22, "depth": 4, "split": "f11", "split_condition": 2.08022499, "yes": 43, "no": 44, "missing": 44, "children": [{"nodeid": 43, "leaf": 0.00703598838}, {"nodeid": 44, "leaf": 0.0102218529}]}]}]}]}, {"nodeid": 2, "depth": 1, "split": "f11", "split_condition": 1.20000017, "yes": 5, "no": 6, "missing": 6, "children": [{"nodeid": 5, "depth": 2, "split": "f8", "split_condition": 0.99000001, "yes": 11, "no": 12, "missing": 12, "children": [{"nodeid": 11, "depth": 3, "split": "f7", "split_condition": 0.730000019, "yes": 23, "no": 24, "missing": 24, "children": [{"nodeid": 23, "depth": 4, "split": "f1", "split_condition": 220, "yes": 45, "no": 46, "missing": 46, "children": [{"nodeid": 45, "leaf": 0.00261787442}, {"nodeid": 46, "leaf": -0.000615836994}]}, {"nodeid": 24, "depth": 4, "split": "f7", "split_condition": 0.970000029, "yes": 47, "no": 48, "missing": 48, "children": [{"nodeid": 47, "leaf": -0.00511551369}, {"nodeid": 48, "leaf": -0.00185600622}]}]}, {"nodeid": 12, "depth": 3, "split": "f8", "split_condition": 1, "yes": 25, "no": 26, "missing": 26, "children": [{"nodeid": 25, "depth": 4, "split": "f10", "split_condition": 1.39285719, "yes": 49, "no": 50, "missing": 50, "children": [{"nodeid": 49, "leaf": -0.00447984319}, {"nodeid": 50, "leaf": -0.00868220627}]}, {"nodeid": 26, "depth": 4, "split": "f7", "split_condition": 1.03999996, "yes": 51, "no": 52, "missing": 52, "children": [{"nodeid": 51, "leaf": -0.00944223907}, {"nodeid": 52, "leaf": -0.00495127263}]}]}]}, {"nodeid": 6, "depth": 2, "split": "f5", "split_condition": 9, "yes": 13, "no": 14, "missing": 14, "children": [{"nodeid": 13, "depth": 3, "split": "f11", "split_condition": 1.71740353, "yes": 27, "no": 28, "missing": 28, "children": [{"nodeid": 27, "depth": 4, "split": "f12", "split_condition": 0.0507000014, "yes": 53, "no": 54, "missing": 54, "children": [{"nodeid": 53, "leaf": -4.42961464e-05}, {"nodeid": 54, "leaf": -0.0027235474}]}, {"nodeid": 28, "depth": 4, "split": "f5", "split_condition": 7, "yes": 55, "no": 56, "missing": 56, "children": [{"nodeid": 55, "leaf": 0.000461738644}, {"nodeid": 56, "leaf": 0.00419387128}]}]}, {"nodeid": 14, "depth": 3, "split": "f11", "split_condition": 1.90433168, "yes": 29, "no": 30, "missing": 30, "children": [{"nodeid": 29, "depth": 4, "split": "f12", "split_condition": 0.0430999994, "yes": 57, "no": 58, "missing": 58, "children": [{"nodeid": 57, "leaf": 0.00461617764}, {"nodeid": 58, "leaf": 0.00244226982}]}, {"nodeid": 30, "leaf": 0.00746876933}]}]}]}]}, {"nodeid": 0, "depth": 0, "split": "f11", "split_condition": 0.673570275, "yes": 1, "no": 2, "missing": 2, "children": [{"nodeid": 1, "depth": 1, "split": "f7", "split_condition": 0.829999983, "yes": 3, "no": 4, "missing": 4, "children": [{"nodeid": 3, "depth": 2, "split": "f9", "split_condition": 1.09806597, "yes": 7, "no": 8, "missing": 8, "children": [{"nodeid": 7, "depth": 3, "split": "f6", "split_condition": 0.931021035, "yes": 15, "no": 16, "missing": 16, "children": [{"nodeid": 15, "depth": 4, "split": "f12", "split_condition": 0.0599999987, "yes": 31, "no": 32, "missing": 32, "children": [{"nodeid": 31, "leaf": 0.00520316185}, {"nodeid": 32, "leaf": 0.0103399344}]}, {"nodeid": 16, "depth": 4, "split": "f5", "split_condition": 7, "yes": 33, "no": 34, "missing": 34, "children": [{"nodeid": 33, "leaf": -0.00377143105}, {"nodeid": 34, "leaf": 0.00271786982}]}]}, {"nodeid": 8, "depth": 3, "split": "f0", "split_condition": 400, "yes": 17, "no": 18, "missing": 18, "children": [{"nodeid": 17, "depth": 4, "split": "f9", "split_condition": 1.20645463, "yes": 35, "no": 36, "missing": 36, "children": [{"nodeid": 35, "leaf": 0.00352562265}, {"nodeid": 36, "leaf": 0.000485134893}]}, {"nodeid": 18, "depth": 4, "split": "f11", "split_condition": 0.269999593, "yes": 37, "no": 38, "missing": 38, "children": [{"nodeid": 37, "leaf": -0.00141101389}, {"nodeid": 38, "leaf": -0.00415912829}]}]}]}, {"nodeid": 4, "depth": 2, "split": "f7", "split_condition": 1.01999998, "yes": 9, "no": 10, "missing": 10, "children": [{"nodeid": 9, "depth": 3, "split": "f5", "split_condition": 9, "yes": 19, "no": 20, "missing": 20, "children": [{"nodeid": 19, "depth": 4, "split": "f7", "split_condition": 1.00999999, "yes": 39, "no": 40, "missing": 40, "children": [{"nodeid": 39, "leaf": -0.00835345313}, {"nodeid": 40, "leaf": -0.00521306461}]}, {"nodeid": 20, "depth": 4, "split": "f11", "split_condition": 0.572728276, "yes": 41, "no": 42, "missing": 42, "children": [{"nodeid": 41, "leaf": -0.0055671297}, {"nodeid": 42, "leaf": 0.000125425999}]}]}, {"nodeid": 10, "depth": 3, "split": "f9", "split_condition": 1.3696655, "yes": 21, "no": 22, "missing": 22, "children": [{"nodeid": 21, "depth": 4, "split": "f9", "split_condition": 1.22219706, "yes": 43, "no": 44, "missing": 44, "children": [{"nodeid": 43, "leaf": -0.000275239203}, {"nodeid": 44, "leaf": -0.00661917496}]}, {"nodeid": 22, "depth": 4, "split": "f5", "split_condition": 12, "yes": 45, "no": 46, "missing": 46, "children": [{"nodeid": 45, "leaf": -0.000944152242}, {"nodeid": 46, "leaf": -0.00979198702}]}]}]}]}, {"nodeid": 2, "depth": 1, "split": "f6", "split_condition": 0.95110327, "yes": 5, "no": 6, "missing": 6, "children": [{"nodeid": 5, "depth": 2, "split": "f12", "split_condition": 0.0428000018, "yes": 11, "no": 12, "missing": 12, "children": [{"nodeid": 11, "depth": 3, "split": "f11", "split_condition": 1.75063562, "yes": 23, "no": 24, "missing": 24, "children": [{"nodeid": 23, "depth": 4, "split": "f9", "split_condition": 0.615596771, "yes": 47, "no": 48, "missing": 48, "children": [{"nodeid": 47, "leaf": 0.00646065176}, {"nodeid": 48, "leaf": 0.00321365381}]}, {"nodeid": 24, "depth": 4, "split": "f5", "split_condition": 7, "yes": 49, "no": 50, "missing": 50, "children": [{"nodeid": 49, "leaf": 0.00605148403}, {"nodeid": 50, "leaf": 0.00865175482}]}]}, {"nodeid": 12, "depth": 3, "split": "f9", "split_condition": 0.886904776, "yes": 25, "no": 26, "missing": 26, "children": [{"nodeid": 25, "depth": 4, "split": "f6", "split_condition": 0.83492589, "yes": 51, "no": 52, "missing": 52, "children": [{"nodeid": 51, "leaf": 0.0103191277}, {"nodeid": 52, "leaf": 0.00830921344}]}, {"nodeid": 26, "depth": 4, "split": "f9", "split_condition": 0.964873433, "yes": 53, "no": 54, "missing": 54, "children": [{"nodeid": 53, "leaf": 0.00458890991}, {"nodeid": 54, "leaf": -9.22019099e-05}]}]}]}, {"nodeid": 6, "depth": 2, "split": "f11", "split_condition": 1.23333371, "yes": 13, "no": 14, "missing": 14, "children": [{"nodeid": 13, "depth": 3, "split": "f5", "split_condition": 9, "yes": 27, "no": 28, "missing": 28, "children": [{"nodeid": 27, "depth": 4, "split": "f7", "split_condition": 0.819999993, "yes": 55, "no": 56, "missing": 56, "children": [{"nodeid": 55, "leaf": -0.000716479903}, {"nodeid": 56, "leaf": -0.00566741917}]}, {"nodeid": 28, "depth": 4, "split": "f6", "split_condition": 1.16401851, "yes": 57, "no": 58, "missing": 58, "children": [{"nodeid": 57, "leaf": 0.00361873698}, {"nodeid": 58, "leaf": -0.00077321229}]}]}, {"nodeid": 14, "depth": 3, "split": "f5", "split_condition": 9, "yes": 29, "no": 30, "missing": 30, "children": [{"nodeid": 29, "depth": 4, "split": "f9", "split_condition": 0.709005713, "yes": 59, "no": 60, "missing": 60, "children": [{"nodeid": 59, "leaf": 0.0051642186}, {"nodeid": 60, "leaf": 0.0010357342}]}, {"nodeid": 30, "depth": 4, "split": "f9", "split_condition": 0.757007241, "yes": 61, "no": 62, "missing": 62, "children": [{"nodeid": 61, "leaf": 0.0085877534}, {"nodeid": 62, "leaf": 0.00490065617}]}]}]}]}]}, {"nodeid": 0, "depth": 0, "split": "f8", "split_condition": 0.910000026, "yes": 1, "no": 2, "missing": 2, "children": [{"nodeid": 1, "depth": 1, "split": "f8", "split_condition": 0.779999971, "yes": 3, "no": 4, "missing": 4, "children": [{"nodeid": 3, "depth": 2, "split": "f7", "split_condition": 0.899999976, "yes": 7, "no": 8, "missing": 8, "children": [{"nodeid": 7, "depth": 3, "split": "f12", "split_condition": 0.0456999987, "yes": 15, "no": 16, "missing": 16, "children": [{"nodeid": 15, "depth": 4, "split": "f11", "split_condition": 1.73700261, "yes": 31, "no": 32, "missing": 32, "children": [{"nodeid": 31, "leaf": 0.00463117613}, {"nodeid": 32, "leaf": 0.00718505774}]}, {"nodeid": 16, "depth": 4, "split": "f8", "split_condition": 0.670000017, "yes": 33, "no": 34, "missing": 34, "children": [{"nodeid": 33, "leaf": 0.00950843375}, {"nodeid": 34, "leaf": 0.00728470972}]}]}, {"nodeid": 8, "depth": 3, "split": "f11", "split_condition": 0.645263255, "yes": 17, "no": 18, "missing": 18, "children": [{"nodeid": 17, "depth": 4, "split": "f6", "split_condition": 0.93483597, "yes": 35, "no": 36, "missing": 36, "children": [{"nodeid": 35, "leaf": -0.000893970835}, {"nodeid": 36, "leaf": -0.0094636688}]}, {"nodeid": 18, "depth": 4, "split": "f0", "split_condition": 330, "yes": 37, "no": 38, "missing": 38, "children": [{"nodeid": 37, "leaf": -0.000130650995}, {"nodeid": 38, "leaf": 0.00376962777}]}]}]}, {"nodeid": 4, "depth": 2, "split": "f5", "split_condition": 9, "yes": 9, "no": 10, "missing": 10, "children": [{"nodeid": 9, "depth": 3, "split": "f11", "split_condition": 1.72202075, "yes": 19, "no": 20, "missing": 20, "children": [{"nodeid": 19, "depth": 4, "split": "f5", "split_condition": 7, "yes": 39, "no": 40, "missing": 40, "children": [{"nodeid": 39, "leaf": -0.00246967096}, {"nodeid": 40, "leaf": 0.000106888496}]}, {"nodeid": 20, "depth": 4, "split": "f5", "split_condition": 7, "yes": 41, "no": 42, "missing": 42, "children": [{"nodeid": 41, "leaf": 0.0010725247}, {"nodeid": 42, "leaf": 0.00451779878}]}]}, {"nodeid": 10, "depth": 3, "split": "f11", "split_condition": 0.654077888, "yes": 21, "no": 22, "missing": 22, "children": [{"nodeid": 21, "depth": 4, "split": "f7", "split_condition": 0.870000005, "yes": 43, "no": 44, "missing": 44, "children": [{"nodeid": 43, "leaf": 0.000614124059}, {"nodeid": 44, "leaf": -0.00608433364}]}, {"nodeid": 22, "depth": 4, "split": "f5", "split_condition": 12, "yes": 45, "no": 46, "missing": 46, "children": [{"nodeid": 45, "leaf": 0.00313770166}, {"nodeid": 46, "leaf": 0.00662239455}]}]}]}]}, {"nodeid": 2, "depth": 1, "split": "f11", "split_condition": 0.661193371, "yes": 5, "no": 6, "missing": 6, "children": [{"nodeid": 5, "depth": 2, "split": "f8", "split_condition": 0.99000001, "yes": 11, "no": 12, "missing": 12, "children": [{"nodeid": 11, "depth": 3, "split": "f7", "split_condition": 0.959999979, "yes": 23, "no": 24, "missing": 24, "children": [{"nodeid": 23, "depth": 4, "split": "f8", "split_condition": 0.970000029, "yes": 47, "no": 48, "missing": 48, "children": [{"nodeid": 47, "leaf": -0.00318320841}, {"nodeid": 48, "leaf": -0.00682987459}]}, {"nodeid": 24, "depth": 4, "split": "f6", "split_condition": 1.23486793, "yes": 49, "no": 50, "missing": 50, "children": [{"nodeid": 49, "leaf": -0.0025854311}, {"nodeid": 50, "leaf": 0.000456943584}]}]}, {"nodeid": 12, "depth": 3, "split": "f7", "split_condition": 1.00999999, "yes": 25, "no": 26, "missing": 26, "children": [{"nodeid": 25, "depth": 4, "split": "f5", "split_condition": 9, "yes": 51, "no": 52, "missing": 52, "children": [{"nodeid": 51, "leaf": -0.00864256639}, {"nodeid": 52, "leaf": -0.00616236543}]}, {"nodeid": 26, "depth": 4, "split": "f8", "split_condition": 1, "yes": 53, "no": 54, "missing": 54, "children": [{"nodeid": 53, "leaf": -0.00264499895}, {"nodeid": 54, "leaf": -0.00592702907}]}]}]}, {"nodeid": 6, "depth": 2, "split": "f0", "split_condition": 600, "yes": 13, "no": 14, "missing": 14, "children": [{"nodeid": 13, "depth": 3, "split": "f5", "split_condition": 12, "yes": 27, "no": 28, "missing": 28, "children": [{"nodeid": 27, "depth": 4, "split": "f11", "split_condition": 1.3083725, "yes": 55, "no": 56, "missing": 56, "children": [{"nodeid": 55, "leaf": -0.00466689328}, {"nodeid": 56, "leaf": 0.000796874345}]}, {"nodeid": 28, "depth": 4, "split": "f8", "split_condition": 0.939999998, "yes": 57, "no": 58, "missing": 58, "children": [{"nodeid": 57, "leaf": 0.002846319}, {"nodeid": 58, "leaf": -0.000102125538}]}]}, {"nodeid": 14, "depth": 3, "split": "f6", "split_condition": 0.986598492, "yes": 29, "no": 30, "missing": 30, "children": [{"nodeid": 29, "depth": 4, "split": "f12", "split_condition": 0.0392999984, "yes": 59, "no": 60, "missing": 60, "children": [{"nodeid": 59, "leaf": 0.00539182592}, {"nodeid": 60, "leaf": 0.00943713821}]}, {"nodeid": 30, "depth": 4, "split": "f6", "split_condition": 1.16204584, "yes": 61, "no": 62, "missing": 62, "children": [{"nodeid": 61, "leaf": 0.00530356355}, {"nodeid": 62, "leaf": 0.00155353139}]}]}]}]}]}, {"nodeid": 0, "depth": 0, "split": "f8", "split_condition": 0.889999986, "yes": 1, "no": 2, "missing": 2, "children": [{"nodeid": 1, "depth": 1, "split": "f9", "split_condition": 0.738370836, "yes": 3, "no": 4, "missing": 4, "children": [{"nodeid": 3, "depth": 2, "split": "f5", "split_condition": 9, "yes": 7, "no": 8, "missing": 8, "children": [{"nodeid": 7, "depth": 3, "split": "f8", "split_condition": 0.670000017, "yes": 15, "no": 16, "missing": 16, "children": [{"nodeid": 15, "depth": 4, "split": "f8", "split_condition": 0.620000005, "yes": 31, "no": 32, "missing": 32, "children": [{"nodeid": 31, "leaf": 0.00923629664}, {"nodeid": 32, "leaf": 0.00669570686}]}, {"nodeid": 16, "depth": 4, "split": "f5", "split_condition": 7, "yes": 33, "no": 34, "missing": 34, "children": [{"nodeid": 33, "leaf": 0.00202505453}, {"nodeid": 34, "leaf": 0.00457305601}]}]}, {"nodeid": 8, "depth": 3, "split": "f8", "split_condition": 0.75, "yes": 17, "no": 18, "missing": 18, "children": [{"nodeid": 17, "depth": 4, "split": "f8", "split_condition": 0.699999988, "yes": 35, "no": 36, "missing": 36, "children": [{"nodeid": 35, "leaf": 0.0100960527}, {"nodeid": 36, "leaf": 0.00859453436}]}, {"nodeid": 18, "depth": 4, "split": "f5", "split_condition": 12, "yes": 37, "no": 38, "missing": 38, "children": [{"nodeid": 37, "leaf": 0.00455414364}, {"nodeid": 38, "leaf": 0.00814782735}]}]}]}, {"nodeid": 4, "depth": 2, "split": "f7", "split_condition": 0.870000005, "yes": 9, "no": 10, "missing": 10, "children": [{"nodeid": 9, "depth": 3, "split": "f8", "split_condition": 0.74000001, "yes": 19, "no": 20, "missing": 20, "children": [{"nodeid": 19, "depth": 4, "split": "f5", "split_condition": 7, "yes": 39, "no": 40, "missing": 40, "children": [{"nodeid": 39, "leaf": 0.00365983206}, {"nodeid": 40, "leaf": 0.00750575168}]}, {"nodeid": 20, "depth": 4, "split": "f5", "split_condition": 9, "yes": 41, "no": 42, "missing": 42, "children": [{"nodeid": 41, "leaf": -0.000290381868}, {"nodeid": 42, "leaf": 0.00340389134}]}]}, {"nodeid": 10, "depth": 3, "split": "f11", "split_condition": 0.645263255, "yes": 21, "no": 22, "missing": 22, "children": [{"nodeid": 21, "depth": 4, "split": "f12", "split_condition": 0.0359999985, "yes": 43, "no": 44, "missing": 44, "children": [{"nodeid": 43, "leaf": 0.000982962665}, {"nodeid": 44, "leaf": -0.00718301814}]}, {"nodeid": 22, "depth": 4, "split": "f5", "split_condition": 9, "yes": 45, "no": 46, "missing": 46, "children": [{"nodeid": 45, "leaf": 0.000297813531}, {"nodeid": 46, "leaf": 0.00658672815}]}]}]}]}, {"nodeid": 2, "depth": 1, "split": "f11", "split_condition": 0.661193371, "yes": 5, "no": 6, "missing": 6, "children": [{"nodeid": 5, "depth": 2, "split": "f8", "split_condition": 0.99000001, "yes": 11, "no": 12, "missing": 12, "children": [{"nodeid": 11, "depth": 3, "split": "f7", "split_condition": 1, "yes": 23, "no": 24, "missing": 24, "children": [{"nodeid": 23, "depth": 4, "split": "f8", "split_condition": 0.980000019, "yes": 47, "no": 48, "missing": 48, "children": [{"nodeid": 47, "leaf": -0.00248199678}, {"nodeid": 48, "leaf": -0.00612957822}]}, {"nodeid": 24, "depth": 4, "split": "f9", "split_condition": 1.23737872, "yes": 49, "no": 50, "missing": 50, "children": [{"nodeid": 49, "leaf": -0.00879743882}, {"nodeid": 50, "leaf": 0.000705019222}]}]}, {"nodeid": 12, "depth": 3, "split": "f7", "split_condition": 1.01999998, "yes": 25, "no": 26, "missing": 26, "children": [{"nodeid": 25, "depth": 4, "split": "f8", "split_condition": 1, "yes": 51, "no": 52, "missing": 52, "children": [{"nodeid": 51, "leaf": -0.00508888904}, {"nodeid": 52, "leaf": -0.00789262075}]}, {"nodeid": 26, "depth": 4, "split": "f8", "split_condition": 1, "yes": 53, "no": 54, "missing": 54, "children": [{"nodeid": 53, "leaf": 0.000560563582}, {"nodeid": 54, "leaf": -0.00450030668}]}]}]}, {"nodeid": 6, "depth": 2, "split": "f1", "split_condition": 220, "yes": 13, "no": 14, "missing": 14, "children": [{"nodeid": 13, "depth": 3, "split": "f5", "split_condition": 7, "yes": 27, "no": 28, "missing": 28, "children": [{"nodeid": 27, "depth": 4, "split": "f11", "split_condition": 1.09550905, "yes": 55, "no": 56, "missing": 56, "children": [{"nodeid": 55, "leaf": -0.00652198168}, {"nodeid": 56, "leaf": -0.00197886606}]}, {"nodeid": 28, "depth": 4, "split": "f11", "split_condition": 1.08256984, "yes": 57, "no": 58, "missing": 58, "children": [{"nodeid": 57, "leaf": -0.00113780261}, {"nodeid": 58, "leaf": 0.00197396055}]}]}, {"nodeid": 14, "depth": 3, "split": "f6", "split_condition": 1.07453215, "yes": 29, "no": 30, "missing": 30, "children": [{"nodeid": 29, "depth": 4, "split": "f9", "split_condition": 1.01981485, "yes": 59, "no": 60, "missing": 60, "children": [{"nodeid": 59, "leaf": 0.00790498592}, {"nodeid": 60, "leaf": 0.00442821486}]}, {"nodeid": 30, "depth": 4, "split": "f5", "split_condition": 7, "yes": 61, "no": 62, "missing": 62, "children": [{"nodeid": 61, "leaf": -0.00253225653}, {"nodeid": 62, "leaf": 0.00326509727}]}]}]}]}]}, {"nodeid": 0, "depth": 0, "split": "f10", "split_condition": 0.25, "yes": 1, "no": 2, "missing": 2, "children": [{"nodeid": 1, "depth": 1, "split": "f10", "split_condition": 0.0357142873, "yes": 3, "no": 4, "missing": 4, "children": [{"nodeid": 3, "depth": 2, "split": "f5", "split_condition": 9, "yes": 7, "no": 8, "missing": 8, "children": [{"nodeid": 7, "depth": 3, "split": "f8", "split_condition": 0.620000005, "yes": 15, "no": 16, "missing": 16, "children": [{"nodeid": 15, "depth": 4, "split": "f10", "split_condition": 0.0178571437, "yes": 31, "no": 32, "missing": 32, "children": [{"nodeid": 31, "leaf": 0.00858671218}, {"nodeid": 32, "leaf": 0.00411744602}]}, {"nodeid": 16, "depth": 4, "split": "f5", "split_condition": 7, "yes": 33, "no": 34, "missing": 34, "children": [{"nodeid": 33, "leaf": 0.00403503655}, {"nodeid": 34, "leaf": 0.00636748457}]}]}, {"nodeid": 8, "depth": 3, "split": "f11", "split_condition": 1.49860668, "yes": 17, "no": 18, "missing": 18, "children": [{"nodeid": 17, "depth": 4, "split": "f6", "split_condition": 0.903625727, "yes": 35, "no": 36, "missing": 36, "children": [{"nodeid": 35, "leaf": 0.00831476506}, {"nodeid": 36, "leaf": 0.00536386343}]}, {"nodeid": 18, "leaf": 0.00884655118}]}]}, {"nodeid": 4, "depth": 2, "split": "f11", "split_condition": 1.5506357, "yes": 9, "no": 10, "missing": 10, "children": [{"nodeid": 9, "depth": 3, "split": "f10", "split_condition": 0.125, "yes": 19, "no": 20, "missing": 20, "children": [{"nodeid": 19, "depth": 4, "split": "f11", "split_condition": 0.737350464, "yes": 37, "no": 38, "missing": 38, "children": [{"nodeid": 37, "leaf": 0.00535365567}, {"nodeid": 38, "leaf": 0.00208674907}]}, {"nodeid": 20, "depth": 4, "split": "f0", "split_condition": 500, "yes": 39, "no": 40, "missing": 40, "children": [{"nodeid": 39, "leaf": -0.000714249793}, {"nodeid": 40, "leaf": 0.00182381982}]}]}, {"nodeid": 10, "depth": 3, "split": "f5", "split_condition": 7, "yes": 21, "no": 22, "missing": 22, "children": [{"nodeid": 21, "depth": 4, "split": "f4", "split_condition": 395, "yes": 41, "no": 42, "missing": 42, "children": [{"nodeid": 41, "leaf": 0.00269275717}, {"nodeid": 42, "leaf": 0.000903629174}]}, {"nodeid": 22, "depth": 4, "split": "f5", "split_condition": 12, "yes": 43, "no": 44, "missing": 44, "children": [{"nodeid": 43, "leaf": 0.00519029144}, {"nodeid": 44, "leaf": 0.00717125041}]}]}]}]}, {"nodeid": 2, "depth": 1, "split": "f11", "split_condition": 1.10140526, "yes": 5, "no": 6, "missing": 6, "children": [{"nodeid": 5, "depth": 2, "split": "f8", "split_condition": 1, "yes": 11, "no": 12, "missing": 12, "children": [{"nodeid": 11, "depth": 3, "split": "f5", "split_condition": 9, "yes": 23, "no": 24, "missing": 24, "children": [{"nodeid": 23, "depth": 4, "split": "f8", "split_condition": 0.99000001, "yes": 45, "no": 46, "missing": 46, "children": [{"nodeid": 45, "leaf": -0.00359183573}, {"nodeid": 46, "leaf": -0.00610754499}]}, {"nodeid": 24, "depth": 4, "split": "f9", "split_condition": 1.40383244, "yes": 47, "no": 48, "missing": 48, "children": [{"nodeid": 47, "leaf": -0.00211570226}, {"nodeid": 48, "leaf": -0.00767093757}]}]}, {"nodeid": 12, "depth": 3, "split": "f6", "split_condition": 1.4930104, "yes": 25, "no": 26, "missing": 26, "children": [{"nodeid": 25, "depth": 4, "split": "f11", "split_condition": 0.244443953, "yes": 49, "no": 50, "missing": 50, "children": [{"nodeid": 49, "leaf": -0.00543620344}, {"nodeid": 50, "leaf": -0.00751555013}]}, {"nodeid": 26, "depth": 4, "split": "f11", "split_condition": 0.242856115, "yes": 51, "no": 52, "missing": 52, "children": [{"nodeid": 51, "leaf": 0.00577539671}, {"nodeid": 52, "leaf": -0.00191493146}]}]}]}, {"nodeid": 6, "depth": 2, "split": "f5", "split_condition": 9, "yes": 13, "no": 14, "missing": 14, "children": [{"nodeid": 13, "depth": 3, "split": "f11", "split_condition": 1.72202075, "yes": 27, "no": 28, "missing": 28, "children": [{"nodeid": 27, "depth": 4, "split": "f0", "split_condition": 500, "yes": 53, "no": 54, "missing": 54, "children": [{"nodeid": 53, "leaf": -0.0014165187}, {"nodeid": 54, "leaf": 0.000644404674}]}, {"nodeid": 28, "depth": 4, "split": "f5", "split_condition": 7, "yes": 55, "no": 56, "missing": 56, "children": [{"nodeid": 55, "leaf": 0.000361894578}, {"nodeid": 56, "leaf": 0.00339537486}]}]}, {"nodeid": 14, "depth": 3, "split": "f11", "split_condition": 1.90433168, "yes": 29, "no": 30, "missing": 30, "children": [{"nodeid": 29, "depth": 4, "split": "f0", "split_condition": 400, "yes": 57, "no": 58, "missing": 58, "children": [{"nodeid": 57, "leaf": 0.00119844824}, {"nodeid": 58, "leaf": 0.00282197795}]}, {"nodeid": 30, "depth": 4, "split": "f11", "split_condition": 2.10629749, "yes": 59, "no": 60, "missing": 60, "children": [{"nodeid": 59, "leaf": 0.00449143536}, {"nodeid": 60, "leaf": 0.00651251618}]}]}]}]}]}, {"nodeid": 0, "depth": 0, "split": "f10", "split_condition": 0.285714298, "yes": 1, "no": 2, "missing": 2, "children": [{"nodeid": 1, "depth": 1, "split": "f10", "split_condition": 0.0357142873, "yes": 3, "no": 4, "missing": 4, "children": [{"nodeid": 3, "depth": 2, "split": "f10", "split_condition": 0.0178571437, "yes": 7, "no": 8, "missing": 8, "children": [{"nodeid": 7, "depth": 3, "split": "f11", "split_condition": 1.14444423, "yes": 15, "no": 16, "missing": 16, "children": [{"nodeid": 15, "depth": 4, "split": "f6", "split_condition": 0.818279862, "yes": 31, "no": 32, "missing": 32, "children": [{"nodeid": 31, "leaf": 0.00706116669}, {"nodeid": 32, "leaf": 0.00467509404}]}, {"nodeid": 16, "depth": 4, "split": "f12", "split_condition": 0.0401000008, "yes": 33, "no": 34, "missing": 34, "children": [{"nodeid": 33, "leaf": 0.00506121758}, {"nodeid": 34, "leaf": 0.00763751986}]}]}, {"nodeid": 8, "depth": 3, "split": "f11", "split_condition": 2.2701354, "yes": 17, "no": 18, "missing": 18, "children": [{"nodeid": 17, "depth": 4, "split": "f11", "split_condition": 0.737350464, "yes": 35, "no": 36, "missing": 36, "children": [{"nodeid": 35, "leaf": 0.00784503948}, {"nodeid": 36, "leaf": 0.00447445828}]}, {"nodeid": 18, "depth": 4, "split": "f8", "split_condition": 0.680000007, "yes": 37, "no": 38, "missing": 38, "children": [{"nodeid": 37, "leaf": 0.00452538254}, {"nodeid": 38, "leaf": 0.008424595}]}]}]}, {"nodeid": 4, "depth": 2, "split": "f11", "split_condition": 1.23333371, "yes": 9, "no": 10, "missing": 10, "children": [{"nodeid": 9, "depth": 3, "split": "f10", "split_condition": 0.160714284, "yes": 19, "no": 20, "missing": 20, "children": [{"nodeid": 19, "depth": 4, "split": "f11", "split_condition": 0.737350464, "yes": 39, "no": 40, "missing": 40, "children": [{"nodeid": 39, "leaf": 0.00436556339}, {"nodeid": 40, "leaf": 0.00103119377}]}, {"nodeid": 20, "depth": 4, "split": "f12", "split_condition": 0.0366000012, "yes": 41, "no": 42, "missing": 42, "children": [{"nodeid": 41, "leaf": 0.00431700144}, {"nodeid": 42, "leaf": -0.000688219792}]}]}, {"nodeid": 10, "depth": 3, "split": "f11", "split_condition": 2.2701354, "yes": 21, "no": 22, "missing": 22, "children": [{"nodeid": 21, "depth": 4, "split": "f0", "split_condition": 500, "yes": 43, "no": 44, "missing": 44, "children": [{"nodeid": 43, "leaf": 0.00282225362}, {"nodeid": 44, "leaf": 0.00478496822}]}, {"nodeid": 22, "depth": 4, "split": "f0", "split_condition": 600, "yes": 45, "no": 46, "missing": 46, "children": [{"nodeid": 45, "leaf": 0.00610420201}, {"nodeid": 46, "leaf": 0.00805944297}]}]}]}]}, {"nodeid": 2, "depth": 1, "split": "f11", "split_condition": 1.11053312, "yes": 5, "no": 6, "missing": 6, "children": [{"nodeid": 5, "depth": 2, "split": "f8", "split_condition": 1, "yes": 11, "no": 12, "missing": 12, "children": [{"nodeid": 11, "depth": 3, "split": "f7", "split_condition": 1.01999998, "yes": 23, "no": 24, "missing": 24, "children": [{"nodeid": 23, "depth": 4, "split": "f10", "split_condition": 1.42857146, "yes": 47, "no": 48, "missing": 48, "children": [{"nodeid": 47, "leaf": -0.00283710798}, {"nodeid": 48, "leaf": -0.00583120389}]}, {"nodeid": 24, "depth": 4, "split": "f11", "split_condition": 0.178946942, "yes": 49, "no": 50, "missing": 50, "children": [{"nodeid": 49, "leaf": -0.00898027606}, {"nodeid": 50, "leaf": 0.00141420634}]}]}, {"nodeid": 12, "depth": 3, "split": "f7", "split_condition": 1.01999998, "yes": 25, "no": 26, "missing": 26, "children": [{"nodeid": 25, "depth": 4, "split": "f9", "split_condition": 1.35720217, "yes": 51, "no": 52, "missing": 52, "children": [{"nodeid": 51, "leaf": -0.00586680556}, {"nodeid": 52, "leaf": -0.00766411051}]}, {"nodeid": 26, "depth": 4, "split": "f6", "split_condition": 1.36686063, "yes": 53, "no": 54, "missing": 54, "children": [{"nodeid": 53, "leaf": -0.00501550408}, {"nodeid": 54, "leaf": -0.000486207544}]}]}]}, {"nodeid": 6, "depth": 2, "split": "f11", "split_condition": 1.72202075, "yes": 13, "no": 14, "missing": 14, "children": [{"nodeid": 13, "depth": 3, "split": "f10", "split_condition": 0.375, "yes": 27, "no": 28, "missing": 28, "children": [{"nodeid": 27, "depth": 4, "split": "f0", "split_condition": 600, "yes": 55, "no": 56, "missing": 56, "children": [{"nodeid": 55, "leaf": 0.00128615811}, {"nodeid": 56, "leaf": 0.00348234316}]}, {"nodeid": 28, "depth": 4, "split": "f12", "split_condition": 0.0474000014, "yes": 57, "no": 58, "missing": 58, "children": [{"nodeid": 57, "leaf": 0.000706710736}, {"nodeid": 58, "leaf": -0.00144320296}]}]}, {"nodeid": 14, "depth": 3, "split": "f10", "split_condition": 1.26785719, "yes": 29, "no": 30, "missing": 30, "children": [{"nodeid": 29, "depth": 4, "split": "f9", "split_condition": 0.87935406, "yes": 59, "no": 60, "missing": 60, "children": [{"nodeid": 59, "leaf": 0.00206588465}, {"nodeid": 60, "leaf": 0.00437523052}]}, {"nodeid": 30, "leaf": -0.00202337909}]}]}]}]}, {"nodeid": 0, "depth": 0, "split": "f10", "split_condition": 0.232142851, "yes": 1, "no": 2, "missing": 2, "children": [{"nodeid": 1, "depth": 1, "split": "f10", "split_condition": 0.0357142873, "yes": 3, "no": 4, "missing": 4, "children": [{"nodeid": 3, "depth": 2, "split": "f5", "split_condition": 7, "yes": 7, "no": 8, "missing": 8, "children": [{"nodeid": 7, "depth": 3, "split": "f8", "split_condition": 0.639999986, "yes": 15, "no": 16, "missing": 16, "children": [{"nodeid": 15, "depth": 4, "split": "f8", "split_condition": 0.610000014, "yes": 31, "no": 32, "missing": 32, "children": [{"nodeid": 31, "leaf": 0.0072663906}, {"nodeid": 32, "leaf": 0.00487663643}]}, {"nodeid": 16, "depth": 4, "split": "f7", "split_condition": 0.709999979, "yes": 33, "no": 34, "missing": 34, "children": [{"nodeid": 33, "leaf": 0.00178418006}, {"nodeid": 34, "leaf": 0.00392748369}]}]}, {"nodeid": 8, "depth": 3, "split": "f10", "split_condition": 0.0178571437, "yes": 17, "no": 18, "missing": 18, "children": [{"nodeid": 17, "depth": 4, "split": "f1", "split_condition": 200, "yes": 35, "no": 36, "missing": 36, "children": [{"nodeid": 35, "leaf": 0.00655469159}, {"nodeid": 36, "leaf": 0.00773379207}]}, {"nodeid": 18, "depth": 4, "split": "f5", "split_condition": 12, "yes": 37, "no": 38, "missing": 38, "children": [{"nodeid": 37, "leaf": 0.00452202652}, {"nodeid": 38, "leaf": 0.00654823752}]}]}]}, {"nodeid": 4, "depth": 2, "split": "f5", "split_condition": 7, "yes": 9, "no": 10, "missing": 10, "children": [{"nodeid": 9, "depth": 3, "split": "f8", "split_condition": 0.75999999, "yes": 19, "no": 20, "missing": 20, "children": [{"nodeid": 19, "depth": 4, "split": "f1", "split_condition": 200, "yes": 39, "no": 40, "missing": 40, "children": [{"nodeid": 39, "leaf": 0.00035493559}, {"nodeid": 40, "leaf": 0.00218353211}]}, {"nodeid": 20, "depth": 4, "split": "f1", "split_condition": 200, "yes": 41, "no": 42, "missing": 42, "children": [{"nodeid": 41, "leaf": -0.00327940937}, {"nodeid": 42, "leaf": -0.000244457711}]}]}, {"nodeid": 10, "depth": 3, "split": "f8", "split_condition": 0.829999983, "yes": 21, "no": 22, "missing": 22, "children": [{"nodeid": 21, "depth": 4, "split": "f5", "split_condition": 12, "yes": 43, "no": 44, "missing": 44, "children": [{"nodeid": 43, "leaf": 0.00333415461}, {"nodeid": 44, "leaf": 0.00632443931}]}, {"nodeid": 22, "depth": 4, "split": "f1", "split_condition": 200, "yes": 45, "no": 46, "missing": 46, "children": [{"nodeid": 45, "leaf": 0.000777229958}, {"nodeid": 46, "leaf": 0.00367187848}]}]}]}]}, {"nodeid": 2, "depth": 1, "split": "f7", "split_condition": 0.819999993, "yes": 5, "no": 6, "missing": 6, "children": [{"nodeid": 5, "depth": 2, "split": "f8", "split_condition": 0.850000024, "yes": 11, "no": 12, "missing": 12, "children": [{"nodeid": 11, "depth": 3, "split": "f5", "split_condition": 7, "yes": 23, "no": 24, "missing": 24, "children": [{"nodeid": 23, "depth": 4, "split": "f1", "split_condition": 200, "yes": 47, "no": 48, "missing": 48, "children": [{"nodeid": 47, "leaf": -0.00226368173}, {"nodeid": 48, "leaf": 0.00037038239}]}, {"nodeid": 24, "depth": 4, "split": "f8", "split_condition": 0.730000019, "yes": 49, "no": 50, "missing": 50, "children": [{"nodeid": 49, "leaf": 0.00466875033}, {"nodeid": 50, "leaf": 0.00254510972}]}]}, {"nodeid": 12, "depth": 3, "split": "f9", "split_condition": 1.1199367, "yes": 25, "no": 26, "missing": 26, "children": [{"nodeid": 25, "depth": 4, "split": "f5", "split_condition": 12, "yes": 51, "no": 52, "missing": 52, "children": [{"nodeid": 51, "leaf": -0.00119410339}, {"nodeid": 52, "leaf": 0.00237533543}]}, {"nodeid": 26, "depth": 4, "split": "f12", "split_condition": 0.0436000004, "yes": 53, "no": 54, "missing": 54, "children": [{"nodeid": 53, "leaf": -0.0045022578}, {"nodeid": 54, "leaf": -0.000513438077}]}]}]}, {"nodeid": 6, "depth": 2, "split": "f8", "split_condition": 1, "yes": 13, "no": 14, "missing": 14, "children": [{"nodeid": 13, "depth": 3, "split": "f7", "split_condition": 1.01999998, "yes": 27, "no": 28, "missing": 28, "children": [{"nodeid": 27, "depth": 4, "split": "f10", "split_condition": 1.375, "yes": 55, "no": 56, "missing": 56, "children": [{"nodeid": 55, "leaf": -0.00251943315}, {"nodeid": 56, "leaf": -0.00518661132}]}, {"nodeid": 28, "depth": 4, "split": "f7", "split_condition": 1.03999996, "yes": 57, "no": 58, "missing": 58, "children": [{"nodeid": 57, "leaf": -0.000383369013}, {"nodeid": 58, "leaf": 0.00492992811}]}]}, {"nodeid": 14, "depth": 3, "split": "f7", "split_condition": 1.01999998, "yes": 29, "no": 30, "missing": 30, "children": [{"nodeid": 29, "depth": 4, "split": "f7", "split_condition": 0.920000017, "yes": 59, "no": 60, "missing": 60, "children": [{"nodeid": 59, "leaf": -0.000389881287}, {"nodeid": 60, "leaf": -0.00627124496}]}, {"nodeid": 30, "depth": 4, "split": "f6", "split_condition": 1.35023129, "yes": 61, "no": 62, "missing": 62, "children": [{"nodeid": 61, "leaf": -0.00451508537}, {"nodeid": 62, "leaf": -0.000982013647}]}]}]}]}]}, {"nodeid": 0, "depth": 0, "split": "f10", "split_condition": 0.232142851, "yes": 1, "no": 2, "missing": 2, "children": [{"nodeid": 1, "depth": 1, "split": "f10", "split_condition": 0.0357142873, "yes": 3, "no": 4, "missing": 4, "children": [{"nodeid": 3, "depth": 2, "split": "f5", "split_condition": 9, "yes": 7, "no": 8, "missing": 8, "children": [{"nodeid": 7, "depth": 3, "split": "f8", "split_condition": 0.639999986, "yes": 15, "no": 16, "missing": 16, "children": [{"nodeid": 15, "depth": 4, "split": "f8", "split_condition": 0.610000014, "yes": 31, "no": 32, "missing": 32, "children": [{"nodeid": 31, "leaf": 0.00692894822}, {"nodeid": 32, "leaf": 0.00536510441}]}, {"nodeid": 16, "depth": 4, "split": "f5", "split_condition": 7, "yes": 33, "no": 34, "missing": 34, "children": [{"nodeid": 33, "leaf": 0.00228136592}, {"nodeid": 34, "leaf": 0.00450441847}]}]}, {"nodeid": 8, "depth": 3, "split": "f8", "split_condition": 0.699999988, "yes": 17, "no": 18, "missing": 18, "children": [{"nodeid": 17, "leaf": 0.00762637286}, {"nodeid": 18, "depth": 4, "split": "f9", "split_condition": 0.537197411, "yes": 35, "no": 36, "missing": 36, "children": [{"nodeid": 35, "leaf": 0.00199373555}, {"nodeid": 36, "leaf": 0.00608970877}]}]}]}, {"nodeid": 4, "depth": 2, "split": "f5", "split_condition": 9, "yes": 9, "no": 10, "missing": 10, "children": [{"nodeid": 9, "depth": 3, "split": "f8", "split_condition": 0.819999993, "yes": 19, "no": 20, "missing": 20, "children": [{"nodeid": 19, "depth": 4, "split": "f5", "split_condition": 7, "yes": 37, "no": 38, "missing": 38, "children": [{"nodeid": 37, "leaf": 0.000401674013}, {"nodeid": 38, "leaf": 0.00244676252}]}, {"nodeid": 20, "depth": 4, "split": "f0", "split_condition": 500, "yes": 39, "no": 40, "missing": 40, "children": [{"nodeid": 39, "leaf": -0.00334395212}, {"nodeid": 40, "leaf": -5.37689521e-05}]}]}, {"nodeid": 10, "depth": 3, "split": "f8", "split_condition": 0.889999986, "yes": 21, "no": 22, "missing": 22, "children": [{"nodeid": 21, "depth": 4, "split": "f5", "split_condition": 12, "yes": 41, "no": 42, "missing": 42, "children": [{"nodeid": 41, "leaf": 0.00330242538}, {"nodeid": 42, "leaf": 0.00520726666}]}, {"nodeid": 22, "depth": 4, "split": "f10", "split_condition": 0.160714284, "yes": 43, "no": 44, "missing": 44, "children": [{"nodeid": 43, "leaf": 0.00279977405}, {"nodeid": 44, "leaf": -5.48733151e-05}]}]}]}]}, {"nodeid": 2, "depth": 1, "split": "f7", "split_condition": 0.819999993, "yes": 5, "no": 6, "missing": 6, "children": [{"nodeid": 5, "depth": 2, "split": "f8", "split_condition": 0.829999983, "yes": 11, "no": 12, "missing": 12, "children": [{"nodeid": 11, "depth": 3, "split": "f5", "split_condition": 7, "yes": 23, "no": 24, "missing": 24, "children": [{"nodeid": 23, "depth": 4, "split": "f8", "split_condition": 0.779999971, "yes": 45, "no": 46, "missing": 46, "children": [{"nodeid": 45, "leaf": 0.00160637929}, {"nodeid": 46, "leaf": -0.00108624424}]}, {"nodeid": 24, "depth": 4, "split": "f9", "split_condition": 1.02459311, "yes": 47, "no": 48, "missing": 48, "children": [{"nodeid": 47, "leaf": 0.00364309177}, {"nodeid": 48, "leaf": 0.00192220358}]}]}, {"nodeid": 12, "depth": 3, "split": "f9", "split_condition": 1.12814426, "yes": 25, "no": 26, "missing": 26, "children": [{"nodeid": 25, "depth": 4, "split": "f5", "split_condition": 7, "yes": 49, "no": 50, "missing": 50, "children": [{"nodeid": 49, "leaf": -0.00278729899}, {"nodeid": 50, "leaf": 0.00157039997}]}, {"nodeid": 26, "depth": 4, "split": "f12", "split_condition": 0.0436000004, "yes": 51, "no": 52, "missing": 52, "children": [{"nodeid": 51, "leaf": -0.00380687555}, {"nodeid": 52, "leaf": -0.00043598967}]}]}]}, {"nodeid": 6, "depth": 2, "split": "f8", "split_condition": 0.99000001, "yes": 13, "no": 14, "missing": 14, "children": [{"nodeid": 13, "depth": 3, "split": "f10", "split_condition": 0.517857134, "yes": 27, "no": 28, "missing": 28, "children": [{"nodeid": 27, "depth": 4, "split": "f8", "split_condition": 0.959999979, "yes": 53, "no": 54, "missing": 54, "children": [{"nodeid": 53, "leaf": -0.0021521172}, {"nodeid": 54, "leaf": -0.00525119761}]}, {"nodeid": 28, "depth": 4, "split": "f7", "split_condition": 0.939999998, "yes": 55, "no": 56, "missing": 56, "children": [{"nodeid": 55, "leaf": -0.00324347569}, {"nodeid": 56, "leaf": -0.000307093171}]}]}, {"nodeid": 14, "depth": 3, "split": "f7", "split_condition": 1.00999999, "yes": 29, "no": 30, "missing": 30, "children": [{"nodeid": 29, "depth": 4, "split": "f5", "split_condition": 12, "yes": 57, "no": 58, "missing": 58, "children": [{"nodeid": 57, "leaf": -0.00567570562}, {"nodeid": 58, "leaf": -0.003677045}]}, {"nodeid": 30, "depth": 4, "split": "f6", "split_condition": 1.35023129, "yes": 59, "no": 60, "missing": 60, "children": [{"nodeid": 59, "leaf": -0.00344304647}, {"nodeid": 60, "leaf": -0.000953329494}]}]}]}]}]}, {"nodeid": 0, "depth": 0, "split": "f10", "split_condition": 0.285714298, "yes": 1, "no": 2, "missing": 2, "children": [{"nodeid": 1, "depth": 1, "split": "f10", "split_condition": 0.0535714291, "yes": 3, "no": 4, "missing": 4, "children": [{"nodeid": 3, "depth": 2, "split": "f10", "split_condition": 0.0178571437, "yes": 7, "no": 8, "missing": 8, "children": [{"nodeid": 7, "depth": 3, "split": "f5", "split_condition": 7, "yes": 15, "no": 16, "missing": 16, "children": [{"nodeid": 15, "depth": 4, "split": "f8", "split_condition": 0.610000014, "yes": 31, "no": 32, "missing": 32, "children": [{"nodeid": 31, "leaf": 0.0061756582}, {"nodeid": 32, "leaf": 0.00323459343}]}, {"nodeid": 16, "depth": 4, "split": "f11", "split_condition": 1.5506357, "yes": 33, "no": 34, "missing": 34, "children": [{"nodeid": 33, "leaf": 0.00540334638}, {"nodeid": 34, "leaf": 0.00678331591}]}]}, {"nodeid": 8, "depth": 3, "split": "f5", "split_condition": 12, "yes": 17, "no": 18, "missing": 18, "children": [{"nodeid": 17, "depth": 4, "split": "f0", "split_condition": 500, "yes": 35, "no": 36, "missing": 36, "children": [{"nodeid": 35, "leaf": 0.0023838128}, {"nodeid": 36, "leaf": 0.00426987186}]}, {"nodeid": 18, "depth": 4, "split": "f6", "split_condition": 0.893365085, "yes": 37, "no": 38, "missing": 38, "children": [{"nodeid": 37, "leaf": 0.007548742}, {"nodeid": 38, "leaf": 0.0047981781}]}]}]}, {"nodeid": 4, "depth": 2, "split": "f11", "split_condition": 1.59999955, "yes": 9, "no": 10, "missing": 10, "children": [{"nodeid": 9, "depth": 3, "split": "f5", "split_condition": 7, "yes": 19, "no": 20, "missing": 20, "children": [{"nodeid": 19, "depth": 4, "split": "f0", "split_condition": 500, "yes": 39, "no": 40, "missing": 40, "children": [{"nodeid": 39, "leaf": -0.00242291368}, {"nodeid": 40, "leaf": 3.24211505e-05}]}, {"nodeid": 20, "depth": 4, "split": "f11", "split_condition": 0.572728276, "yes": 41, "no": 42, "missing": 42, "children": [{"nodeid": 41, "leaf": -0.000697360665}, {"nodeid": 42, "leaf": 0.00181204104}]}]}, {"nodeid": 10, "depth": 3, "split": "f5", "split_condition": 7, "yes": 21, "no": 22, "missing": 22, "children": [{"nodeid": 21, "depth": 4, "split": "f8", "split_condition": 0.75999999, "yes": 43, "no": 44, "missing": 44, "children": [{"nodeid": 43, "leaf": 0.00175818079}, {"nodeid": 44, "leaf": 0.000308039744}]}, {"nodeid": 22, "depth": 4, "split": "f11", "split_condition": 2.08022499, "yes": 45, "no": 46, "missing": 46, "children": [{"nodeid": 45, "leaf": 0.00366144674}, {"nodeid": 46, "leaf": 0.00535888085}]}]}]}]}, {"nodeid": 2, "depth": 1, "split": "f11", "split_condition": 1.20000017, "yes": 5, "no": 6, "missing": 6, "children": [{"nodeid": 5, "depth": 2, "split": "f8", "split_condition": 1, "yes": 11, "no": 12, "missing": 12, "children": [{"nodeid": 11, "depth": 3, "split": "f5", "split_condition": 9, "yes": 23, "no": 24, "missing": 24, "children": [{"nodeid": 23, "depth": 4, "split": "f7", "split_condition": 1.00999999, "yes": 47, "no": 48, "missing": 48, "children": [{"nodeid": 47, "leaf": -0.00483532855}, {"nodeid": 48, "leaf": -0.00165830983}]}, {"nodeid": 24, "depth": 4, "split": "f7", "split_condition": 1, "yes": 49, "no": 50, "missing": 50, "children": [{"nodeid": 49, "leaf": -0.00252454751}, {"nodeid": 50, "leaf": -0.000434999762}]}]}, {"nodeid": 12, "depth": 3, "split": "f7", "split_condition": 1.03999996, "yes": 25, "no": 26, "missing": 26, "children": [{"nodeid": 25, "depth": 4, "split": "f8", "split_condition": 1.11000001, "yes": 51, "no": 52, "missing": 52, "children": [{"nodeid": 51, "leaf": -0.00524650561}, {"nodeid": 52, "leaf": 0.00435685366}]}, {"nodeid": 26, "depth": 4, "split": "f10", "split_condition": 1.58928573, "yes": 53, "no": 54, "missing": 54, "children": [{"nodeid": 53, "leaf": -0.00156934292}, {"nodeid": 54, "leaf": -0.00647233194}]}]}]}, {"nodeid": 6, "depth": 2, "split": "f5", "split_condition": 7, "yes": 13, "no": 14, "missing": 14, "children": [{"nodeid": 13, "depth": 3, "split": "f11", "split_condition": 1.53372085, "yes": 27, "no": 28, "missing": 28, "children": [{"nodeid": 27, "depth": 4, "split": "f0", "split_condition": 500, "yes": 55, "no": 56, "missing": 56, "children": [{"nodeid": 55, "leaf": -0.00192652666}, {"nodeid": 56, "leaf": -0.000215181106}]}, {"nodeid": 28, "depth": 4, "split": "f8", "split_condition": 0.959999979, "yes": 57, "no": 58, "missing": 58, "children": [{"nodeid": 57, "leaf": 0.00101266452}, {"nodeid": 58, "leaf": -0.00162291701}]}]}, {"nodeid": 14, "depth": 3, "split": "f11", "split_condition": 1.87439799, "yes": 29, "no": 30, "missing": 30, "children": [{"nodeid": 29, "depth": 4, "split": "f0", "split_condition": 600, "yes": 59, "no": 60, "missing": 60, "children": [{"nodeid": 59, "leaf": 0.000909443304}, {"nodeid": 60, "leaf": 0.00261866301}]}, {"nodeid": 30, "depth": 4, "split": "f11", "split_condition": 2.13297653, "yes": 61, "no": 62, "missing": 62, "children": [{"nodeid": 61, "leaf": 0.0028306311}, {"nodeid": 62, "leaf": 0.00467863493}]}]}]}]}]}, {"nodeid": 0, "depth": 0, "split": "f9", "split_condition": 1.0854882, "yes": 1, "no": 2, "missing": 2, "children": [{"nodeid": 1, "depth": 1, "split": "f10", "split_condition": 0.0535714291, "yes": 3, "no": 4, "missing": 4, "children": [{"nodeid": 3, "depth": 2, "split": "f11", "split_condition": 1.46363723, "yes": 7, "no": 8, "missing": 8, "children": [{"nodeid": 7, "depth": 3, "split": "f6", "split_condition": 0.841329277, "yes": 15, "no": 16, "missing": 16, "children": [{"nodeid": 15, "depth": 4, "split": "f5", "split_condition": 7, "yes": 31, "no": 32, "missing": 32, "children": [{"nodeid": 31, "leaf": 0.0037917092}, {"nodeid": 32, "leaf": 0.00557316653}]}, {"nodeid": 16, "depth": 4, "split": "f5", "split_condition": 12, "yes": 33, "no": 34, "missing": 34, "children": [{"nodeid": 33, "leaf": 0.00185369502}, {"nodeid": 34, "leaf": 0.00402467046}]}]}, {"nodeid": 8, "depth": 3, "split": "f5", "split_condition": 7, "yes": 17, "no": 18, "missing": 18, "children": [{"nodeid": 17, "depth": 4, "split": "f8", "split_condition": 0.610000014, "yes": 35, "no": 36, "missing": 36, "children": [{"nodeid": 35, "leaf": 0.00584281422}, {"nodeid": 36, "leaf": 0.00324626081}]}, {"nodeid": 18, "depth": 4, "split": "f11", "split_condition": 1.95063567, "yes": 37, "no": 38, "missing": 38, "children": [{"nodeid": 37, "leaf": 0.00521512236}, {"nodeid": 38, "leaf": 0.00639515324}]}]}]}, {"nodeid": 4, "depth": 2, "split": "f7", "split_condition": 0.889999986, "yes": 9, "no": 10, "missing": 10, "children": [{"nodeid": 9, "depth": 3, "split": "f5", "split_condition": 9, "yes": 19, "no": 20, "missing": 20, "children": [{"nodeid": 19, "depth": 4, "split": "f11", "split_condition": 1.53372085, "yes": 39, "no": 40, "missing": 40, "children": [{"nodeid": 39, "leaf": -0.000821786642}, {"nodeid": 40, "leaf": 0.00189718453}]}, {"nodeid": 20, "depth": 4, "split": "f11", "split_condition": 1.66363561, "yes": 41, "no": 42, "missing": 42, "children": [{"nodeid": 41, "leaf": 0.00236567692}, {"nodeid": 42, "leaf": 0.00438920129}]}]}, {"nodeid": 10, "depth": 3, "split": "f11", "split_condition": 0.400000006, "yes": 21, "no": 22, "missing": 22, "children": [{"nodeid": 21, "depth": 4, "split": "f6", "split_condition": 0.908926129, "yes": 43, "no": 44, "missing": 44, "children": [{"nodeid": 43, "leaf": -0.00114325609}, {"nodeid": 44, "leaf": -0.005747966}]}, {"nodeid": 22, "depth": 4, "split": "f0", "split_condition": 600, "yes": 45, "no": 46, "missing": 46, "children": [{"nodeid": 45, "leaf": -0.000132452784}, {"nodeid": 46, "leaf": 0.00475790631}]}]}]}]}, {"nodeid": 2, "depth": 1, "split": "f8", "split_condition": 0.99000001, "yes": 5, "no": 6, "missing": 6, "children": [{"nodeid": 5, "depth": 2, "split": "f7", "split_condition": 1, "yes": 11, "no": 12, "missing": 12, "children": [{"nodeid": 11, "depth": 3, "split": "f8", "split_condition": 0.970000029, "yes": 23, "no": 24, "missing": 24, "children": [{"nodeid": 23, "depth": 4, "split": "f7", "split_condition": 0.939999998, "yes": 47, "no": 48, "missing": 48, "children": [{"nodeid": 47, "leaf": -0.00110835209}, {"nodeid": 48, "leaf": 0.00216774642}]}, {"nodeid": 24, "depth": 4, "split": "f7", "split_condition": 0.959999979, "yes": 49, "no": 50, "missing": 50, "children": [{"nodeid": 49, "leaf": -0.0048196041}, {"nodeid": 50, "leaf": -0.00154532772}]}]}, {"nodeid": 12, "depth": 3, "split": "f5", "split_condition": 9, "yes": 25, "no": 26, "missing": 26, "children": [{"nodeid": 25, "depth": 4, "split": "f9", "split_condition": 1.35907185, "yes": 51, "no": 52, "missing": 52, "children": [{"nodeid": 51, "leaf": -0.00665584253}, {"nodeid": 52, "leaf": -7.86677701e-05}]}, {"nodeid": 26, "depth": 4, "split": "f9", "split_condition": 1.40383244, "yes": 53, "no": 54, "missing": 54, "children": [{"nodeid": 53, "leaf": 0.00416857982}, {"nodeid": 54, "leaf": -0.00505351415}]}]}]}, {"nodeid": 6, "depth": 2, "split": "f7", "split_condition": 1.00999999, "yes": 13, "no": 14, "missing": 14, "children": [{"nodeid": 13, "depth": 3, "split": "f5", "split_condition": 12, "yes": 27, "no": 28, "missing": 28, "children": [{"nodeid": 27, "depth": 4, "split": "f9", "split_condition": 1.39412475, "yes": 55, "no": 56, "missing": 56, "children": [{"nodeid": 55, "leaf": -0.00428353436}, {"nodeid": 56, "leaf": -0.00634417171}]}, {"nodeid": 28, "depth": 4, "split": "f8", "split_condition": 1, "yes": 57, "no": 58, "missing": 58, "children": [{"nodeid": 57, "leaf": -0.00176162459}, {"nodeid": 58, "leaf": -0.00450165523}]}]}, {"nodeid": 14, "depth": 3, "split": "f11", "split_condition": 0.233332217, "yes": 29, "no": 30, "missing": 30, "children": [{"nodeid": 29, "depth": 4, "split": "f10", "split_condition": 1.58928573, "yes": 59, "no": 60, "missing": 60, "children": [{"nodeid": 59, "leaf": 1.48694071e-05}, {"nodeid": 60, "leaf": -0.00415569684}]}, {"nodeid": 30, "depth": 4, "split": "f11", "split_condition": 0.236362532, "yes": 61, "no": 62, "missing": 62, "children": [{"nodeid": 61, "leaf": -0.00726142665}, {"nodeid": 62, "leaf": -0.00256267027}]}]}]}]}]}, {"nodeid": 0, "depth": 0, "split": "f10", "split_condition": 0.285714298, "yes": 1, "no": 2, "missing": 2, "children": [{"nodeid": 1, "depth": 1, "split": "f10", "split_condition": 0.0535714291, "yes": 3, "no": 4, "missing": 4, "children": [{"nodeid": 3, "depth": 2, "split": "f10", "split_condition": 0.0178571437, "yes": 7, "no": 8, "missing": 8, "children": [{"nodeid": 7, "depth": 3, "split": "f11", "split_condition": 1.14444423, "yes": 15, "no": 16, "missing": 16, "children": [{"nodeid": 15, "depth": 4, "split": "f8", "split_condition": 0.600000024, "yes": 31, "no": 32, "missing": 32, "children": [{"nodeid": 31, "leaf": 0.00557281403}, {"nodeid": 32, "leaf": 0.00358418957}]}, {"nodeid": 16, "depth": 4, "split": "f12", "split_condition": 0.0401000008, "yes": 33, "no": 34, "missing": 34, "children": [{"nodeid": 33, "leaf": 0.00317483884}, {"nodeid": 34, "leaf": 0.00519853039}]}]}, {"nodeid": 8, "depth": 3, "split": "f11", "split_condition": 2.2701354, "yes": 17, "no": 18, "missing": 18, "children": [{"nodeid": 17, "depth": 4, "split": "f11", "split_condition": 0.737350464, "yes": 35, "no": 36, "missing": 36, "children": [{"nodeid": 35, "leaf": 0.00513651129}, {"nodeid": 36, "leaf": 0.00262477761}]}, {"nodeid": 18, "depth": 4, "split": "f8", "split_condition": 0.649999976, "yes": 37, "no": 38, "missing": 38, "children": [{"nodeid": 37, "leaf": 0.00168654439}, {"nodeid": 38, "leaf": 0.00594083453}]}]}]}, {"nodeid": 4, "depth": 2, "split": "f11", "split_condition": 1.62152016, "yes": 9, "no": 10, "missing": 10, "children": [{"nodeid": 9, "depth": 3, "split": "f0", "split_condition": 500, "yes": 19, "no": 20, "missing": 20, "children": [{"nodeid": 19, "depth": 4, "split": "f8", "split_condition": 0.930000007, "yes": 39, "no": 40, "missing": 40, "children": [{"nodeid": 39, "leaf": 0.000348640635}, {"nodeid": 40, "leaf": -0.00214346289}]}, {"nodeid": 20, "depth": 4, "split": "f11", "split_condition": 0.485714614, "yes": 41, "no": 42, "missing": 42, "children": [{"nodeid": 41, "leaf": -0.000241028116}, {"nodeid": 42, "leaf": 0.00255191093}]}]}, {"nodeid": 10, "depth": 3, "split": "f11", "split_condition": 2.2701354, "yes": 21, "no": 22, "missing": 22, "children": [{"nodeid": 21, "depth": 4, "split": "f9", "split_condition": 0.946704149, "yes": 43, "no": 44, "missing": 44, "children": [{"nodeid": 43, "leaf": 0.00244521396}, {"nodeid": 44, "leaf": 0.00386890559}]}, {"nodeid": 22, "depth": 4, "split": "f12", "split_condition": 0.0355999991, "yes": 45, "no": 46, "missing": 46, "children": [{"nodeid": 45, "leaf": 0.00612352183}, {"nodeid": 46, "leaf": 0.00431227451}]}]}]}]}, {"nodeid": 2, "depth": 1, "split": "f8", "split_condition": 0.99000001, "yes": 5, "no": 6, "missing": 6, "children": [{"nodeid": 5, "depth": 2, "split": "f11", "split_condition": 1.32176197, "yes": 11, "no": 12, "missing": 12, "children": [{"nodeid": 11, "depth": 3, "split": "f11", "split_condition": 0.262499988, "yes": 23, "no": 24, "missing": 24, "children": [{"nodeid": 23, "depth": 4, "split": "f11", "split_condition": 0.253332973, "yes": 47, "no": 48, "missing": 48, "children": [{"nodeid": 47, "leaf": -0.000234179432}, {"nodeid": 48, "leaf": 0.00613992196}]}, {"nodeid": 24, "depth": 4, "split": "f7", "split_condition": 0.779999971, "yes": 49, "no": 50, "missing": 50, "children": [{"nodeid": 49, "leaf": 0.000641534745}, {"nodeid": 50, "leaf": -0.00265412335}]}]}, {"nodeid": 12, "depth": 3, "split": "f11", "split_condition": 2.25453544, "yes": 25, "no": 26, "missing": 26, "children": [{"nodeid": 25, "depth": 4, "split": "f11", "split_condition": 1.72202075, "yes": 51, "no": 52, "missing": 52, "children": [{"nodeid": 51, "leaf": 0.000804364565}, {"nodeid": 52, "leaf": 0.00188756478}]}, {"nodeid": 26, "depth": 4, "split": "f9", "split_condition": 0.786618471, "yes": 53, "no": 54, "missing": 54, "children": [{"nodeid": 53, "leaf": 0.00168323284}, {"nodeid": 54, "leaf": 0.00456520729}]}]}]}, {"nodeid": 6, "depth": 2, "split": "f10", "split_condition": 1.58928573, "yes": 13, "no": 14, "missing": 14, "children": [{"nodeid": 13, "depth": 3, "split": "f8", "split_condition": 1, "yes": 27, "no": 28, "missing": 28, "children": [{"nodeid": 27, "depth": 4, "split": "f7", "split_condition": 0.99000001, "yes": 55, "no": 56, "missing": 56, "children": [{"nodeid": 55, "leaf": -0.00576889934}, {"nodeid": 56, "leaf": -0.00161325047}]}, {"nodeid": 28, "depth": 4, "split": "f9", "split_condition": 1.39290237, "yes": 57, "no": 58, "missing": 58, "children": [{"nodeid": 57, "leaf": -0.004105011}, {"nodeid": 58, "leaf": 0.000153817673}]}]}, {"nodeid": 14, "depth": 3, "split": "f7", "split_condition": 1.00999999, "yes": 29, "no": 30, "missing": 30, "children": [{"nodeid": 29, "depth": 4, "split": "f12", "split_condition": 0.0489000008, "yes": 59, "no": 60, "missing": 60, "children": [{"nodeid": 59, "leaf": -0.00731825875}, {"nodeid": 60, "leaf": -0.00540206674}]}, {"nodeid": 30, "depth": 4, "split": "f8", "split_condition": 1, "yes": 61, "no": 62, "missing": 62, "children": [{"nodeid": 61, "leaf": -0.00282241893}, {"nodeid": 62, "leaf": -0.00624378212}]}]}]}]}]}, {"nodeid": 0, "depth": 0, "split": "f9", "split_condition": 1.09806597, "yes": 1, "no": 2, "missing": 2, "children": [{"nodeid": 1, "depth": 1, "split": "f9", "split_condition": 0.691468239, "yes": 3, "no": 4, "missing": 4, "children": [{"nodeid": 3, "depth": 2, "split": "f5", "split_condition": 12, "yes": 7, "no": 8, "missing": 8, "children": [{"nodeid": 7, "depth": 3, "split": "f12", "split_condition": 0.0548, "yes": 15, "no": 16, "missing": 16, "children": [{"nodeid": 15, "depth": 4, "split": "f0", "split_condition": 500, "yes": 31, "no": 32, "missing": 32, "children": [{"nodeid": 31, "leaf": 0.00187789544}, {"nodeid": 32, "leaf": 0.00398557726}]}, {"nodeid": 16, "depth": 4, "split": "f6", "split_condition": 1.12084782, "yes": 33, "no": 34, "missing": 34, "children": [{"nodeid": 33, "leaf": 0.00503620598}, {"nodeid": 34, "leaf": -0.00142277475}]}]}, {"nodeid": 8, "depth": 3, "split": "f11", "split_condition": 0.879494607, "yes": 17, "no": 18, "missing": 18, "children": [{"nodeid": 17, "depth": 4, "split": "f0", "split_condition": 400, "yes": 35, "no": 36, "missing": 36, "children": [{"nodeid": 35, "leaf": -0.00113259279}, {"nodeid": 36, "leaf": 0.0031074381}]}, {"nodeid": 18, "depth": 4, "split": "f9", "split_condition": 0.625361681, "yes": 37, "no": 38, "missing": 38, "children": [{"nodeid": 37, "leaf": 0.00588481594}, {"nodeid": 38, "leaf": 0.00471438188}]}]}]}, {"nodeid": 4, "depth": 2, "split": "f7", "split_condition": 0.889999986, "yes": 9, "no": 10, "missing": 10, "children": [{"nodeid": 9, "depth": 3, "split": "f5", "split_condition": 9, "yes": 19, "no": 20, "missing": 20, "children": [{"nodeid": 19, "depth": 4, "split": "f7", "split_condition": 0.629999995, "yes": 39, "no": 40, "missing": 40, "children": [{"nodeid": 39, "leaf": 0.00341848168}, {"nodeid": 40, "leaf": -0.000111334972}]}, {"nodeid": 20, "depth": 4, "split": "f6", "split_condition": 0.931021035, "yes": 41, "no": 42, "missing": 42, "children": [{"nodeid": 41, "leaf": 0.00411327882}, {"nodeid": 42, "leaf": 0.0023255907}]}]}, {"nodeid": 10, "depth": 3, "split": "f11", "split_condition": 0.349999994, "yes": 21, "no": 22, "missing": 22, "children": [{"nodeid": 21, "depth": 4, "split": "f12", "split_condition": 0.0366000012, "yes": 43, "no": 44, "missing": 44, "children": [{"nodeid": 43, "leaf": -0.000245743286}, {"nodeid": 44, "leaf": -0.00651529944}]}, {"nodeid": 22, "depth": 4, "split": "f6", "split_condition": 0.906361282, "yes": 45, "no": 46, "missing": 46, "children": [{"nodeid": 45, "leaf": 0.00467942841}, {"nodeid": 46, "leaf": -0.000180016665}]}]}]}]}, {"nodeid": 2, "depth": 1, "split": "f11", "split_condition": 0.861803293, "yes": 5, "no": 6, "missing": 6, "children": [{"nodeid": 5, "depth": 2, "split": "f7", "split_condition": 1.00999999, "yes": 11, "no": 12, "missing": 12, "children": [{"nodeid": 11, "depth": 3, "split": "f5", "split_condition": 12, "yes": 23, "no": 24, "missing": 24, "children": [{"nodeid": 23, "depth": 4, "split": "f7", "split_condition": 0.819999993, "yes": 47, "no": 48, "missing": 48, "children": [{"nodeid": 47, "leaf": -0.00077773293}, {"nodeid": 48, "leaf": -0.00387178524}]}, {"nodeid": 24, "depth": 4, "split": "f12", "split_condition": 0.0463000014, "yes": 49, "no": 50, "missing": 50, "children": [{"nodeid": 49, "leaf": -0.00350926211}, {"nodeid": 50, "leaf": -0.00146804075}]}]}, {"nodeid": 12, "depth": 3, "split": "f11", "split_condition": 0.233332217, "yes": 25, "no": 26, "missing": 26, "children": [{"nodeid": 25, "depth": 4, "split": "f6", "split_condition": 1.06579089, "yes": 51, "no": 52, "missing": 52, "children": [{"nodeid": 51, "leaf": -0.00352621125}, {"nodeid": 52, "leaf": 0.000535987376}]}, {"nodeid": 26, "depth": 4, "split": "f6", "split_condition": 1.23486793, "yes": 53, "no": 54, "missing": 54, "children": [{"nodeid": 53, "leaf": -0.00485535013}, {"nodeid": 54, "leaf": -0.00187587738}]}]}]}, {"nodeid": 6, "depth": 2, "split": "f5", "split_condition": 7, "yes": 13, "no": 14, "missing": 14, "children": [{"nodeid": 13, "depth": 3, "split": "f11", "split_condition": 1.50629699, "yes": 27, "no": 28, "missing": 28, "children": [{"nodeid": 27, "leaf": -0.00306246919}, {"nodeid": 28, "leaf": -0.00104614976}]}, {"nodeid": 14, "depth": 3, "split": "f0", "split_condition": 500, "yes": 29, "no": 30, "missing": 30, "children": [{"nodeid": 29, "depth": 4, "split": "f11", "split_condition": 1.91970694, "yes": 55, "no": 56, "missing": 56, "children": [{"nodeid": 55, "leaf": 0.000190342806}, {"nodeid": 56, "leaf": 0.00337139214}]}, {"nodeid": 30, "depth": 4, "split": "f5", "split_condition": 12, "yes": 57, "no": 58, "missing": 58, "children": [{"nodeid": 57, "leaf": 0.00110435917}, {"nodeid": 58, "leaf": 0.0037069323}]}]}]}]}]}, {"nodeid": 0, "depth": 0, "split": "f10", "split_condition": 0.285714298, "yes": 1, "no": 2, "missing": 2, "children": [{"nodeid": 1, "depth": 1, "split": "f10", "split_condition": 0.0714285746, "yes": 3, "no": 4, "missing": 4, "children": [{"nodeid": 3, "depth": 2, "split": "f11", "split_condition": 1.5506357, "yes": 7, "no": 8, "missing": 8, "children": [{"nodeid": 7, "depth": 3, "split": "f6", "split_condition": 0.83492589, "yes": 15, "no": 16, "missing": 16, "children": [{"nodeid": 15, "depth": 4, "split": "f12", "split_condition": 0.0421999991, "yes": 31, "no": 32, "missing": 32, "children": [{"nodeid": 31, "leaf": 0.00152993284}, {"nodeid": 32, "leaf": 0.00422047777}]}, {"nodeid": 16, "depth": 4, "split": "f5", "split_condition": 12, "yes": 33, "no": 34, "missing": 34, "children": [{"nodeid": 33, "leaf": 0.00140922493}, {"nodeid": 34, "leaf": 0.00338691054}]}]}, {"nodeid": 8, "depth": 3, "split": "f5", "split_condition": 7, "yes": 17, "no": 18, "missing": 18, "children": [{"nodeid": 17, "depth": 4, "split": "f8", "split_condition": 0.620000005, "yes": 35, "no": 36, "missing": 36, "children": [{"nodeid": 35, "leaf": 0.00455770595}, {"nodeid": 36, "leaf": 0.00244130311}]}, {"nodeid": 18, "depth": 4, "split": "f12", "split_condition": 0.0403999984, "yes": 37, "no": 38, "missing": 38, "children": [{"nodeid": 37, "leaf": 0.00342746219}, {"nodeid": 38, "leaf": 0.00485402299}]}]}]}, {"nodeid": 4, "depth": 2, "split": "f11", "split_condition": 1.62152016, "yes": 9, "no": 10, "missing": 10, "children": [{"nodeid": 9, "depth": 3, "split": "f5", "split_condition": 9, "yes": 19, "no": 20, "missing": 20, "children": [{"nodeid": 19, "depth": 4, "split": "f0", "split_condition": 500, "yes": 39, "no": 40, "missing": 40, "children": [{"nodeid": 39, "leaf": -0.00191286637}, {"nodeid": 40, "leaf": 0.000139190743}]}, {"nodeid": 20, "depth": 4, "split": "f8", "split_condition": 0.930000007, "yes": 41, "no": 42, "missing": 42, "children": [{"nodeid": 41, "leaf": 0.00181917509}, {"nodeid": 42, "leaf": -0.000443862518}]}]}, {"nodeid": 10, "depth": 3, "split": "f5", "split_condition": 7, "yes": 21, "no": 22, "missing": 22, "children": [{"nodeid": 21, "depth": 4, "split": "f11", "split_condition": 2.13297653, "yes": 43, "no": 44, "missing": 44, "children": [{"nodeid": 43, "leaf": -0.000236221094}, {"nodeid": 44, "leaf": 0.00144313299}]}, {"nodeid": 22, "depth": 4, "split": "f11", "split_condition": 2.08022499, "yes": 45, "no": 46, "missing": 46, "children": [{"nodeid": 45, "leaf": 0.00250880187}, {"nodeid": 46, "leaf": 0.00407629181}]}]}]}]}, {"nodeid": 2, "depth": 1, "split": "f11", "split_condition": 1.11053312, "yes": 5, "no": 6, "missing": 6, "children": [{"nodeid": 5, "depth": 2, "split": "f8", "split_condition": 1, "yes": 11, "no": 12, "missing": 12, "children": [{"nodeid": 11, "depth": 3, "split": "f7", "split_condition": 1.01999998, "yes": 23, "no": 24, "missing": 24, "children": [{"nodeid": 23, "depth": 4, "split": "f5", "split_condition": 9, "yes": 47, "no": 48, "missing": 48, "children": [{"nodeid": 47, "leaf": -0.00325339171}, {"nodeid": 48, "leaf": -0.00138143718}]}, {"nodeid": 24, "depth": 4, "split": "f11", "split_condition": 0.178946942, "yes": 49, "no": 50, "missing": 50, "children": [{"nodeid": 49, "leaf": -0.00886921957}, {"nodeid": 50, "leaf": 0.00147331844}]}]}, {"nodeid": 12, "depth": 3, "split": "f7", "split_condition": 1.16999996, "yes": 25, "no": 26, "missing": 26, "children": [{"nodeid": 25, "depth": 4, "split": "f6", "split_condition": 1.4930104, "yes": 51, "no": 52, "missing": 52, "children": [{"nodeid": 51, "leaf": -0.00386343803}, {"nodeid": 52, "leaf": 0.00172345212}]}, {"nodeid": 26, "depth": 4, "split": "f6", "split_condition": 1.23836541, "yes": 53, "no": 54, "missing": 54, "children": [{"nodeid": 53, "leaf": -0.0025386971}, {"nodeid": 54, "leaf": 0.00326263648}]}]}]}, {"nodeid": 6, "depth": 2, "split": "f11", "split_condition": 2.37109017, "yes": 13, "no": 14, "missing": 14, "children": [{"nodeid": 13, "depth": 3, "split": "f5", "split_condition": 7, "yes": 27, "no": 28, "missing": 28, "children": [{"nodeid": 27, "depth": 4, "split": "f8", "split_condition": 0.879999995, "yes": 55, "no": 56, "missing": 56, "children": [{"nodeid": 55, "leaf": 0.000422817917}, {"nodeid": 56, "leaf": -0.000982198399}]}, {"nodeid": 28, "depth": 4, "split": "f11", "split_condition": 1.73700261, "yes": 57, "no": 58, "missing": 58, "children": [{"nodeid": 57, "leaf": 0.000857840816}, {"nodeid": 58, "leaf": 0.00235904055}]}]}, {"nodeid": 14, "depth": 3, "split": "f10", "split_condition": 1.03571427, "yes": 29, "no": 30, "missing": 30, "children": [{"nodeid": 29, "leaf": 0.00488752732}, {"nodeid": 30, "leaf": 0.00216924539}]}]}]}]}, {"nodeid": 0, "depth": 0, "split": "f10", "split_condition": 0.232142851, "yes": 1, "no": 2, "missing": 2, "children": [{"nodeid": 1, "depth": 1, "split": "f10", "split_condition": 0.0535714291, "yes": 3, "no": 4, "missing": 4, "children": [{"nodeid": 3, "depth": 2, "split": "f5", "split_condition": 9, "yes": 7, "no": 8, "missing": 8, "children": [{"nodeid": 7, "depth": 3, "split": "f8", "split_condition": 0.660000026, "yes": 15, "no": 16, "missing": 16, "children": [{"nodeid": 15, "depth": 4, "split": "f8", "split_condition": 0.620000005, "yes": 31, "no": 32, "missing": 32, "children": [{"nodeid": 31, "leaf": 0.00431416091}, {"nodeid": 32, "leaf": 0.00295900018}]}, {"nodeid": 16, "depth": 4, "split": "f0", "split_condition": 500, "yes": 33, "no": 34, "missing": 34, "children": [{"nodeid": 33, "leaf": 0.000755762449}, {"nodeid": 34, "leaf": 0.00281511713}]}]}, {"nodeid": 8, "depth": 3, "split": "f8", "split_condition": 0.75, "yes": 17, "no": 18, "missing": 18, "children": [{"nodeid": 17, "depth": 4, "split": "f5", "split_condition": 12, "yes": 35, "no": 36, "missing": 36, "children": [{"nodeid": 35, "leaf": 0.00424668612}, {"nodeid": 36, "leaf": 0.00545310974}]}, {"nodeid": 18, "depth": 4, "split": "f5", "split_condition": 12, "yes": 37, "no": 38, "missing": 38, "children": [{"nodeid": 37, "leaf": 0.00115356408}, {"nodeid": 38, "leaf": 0.00370375556}]}]}]}, {"nodeid": 4, "depth": 2, "split": "f5", "split_condition": 9, "yes": 9, "no": 10, "missing": 10, "children": [{"nodeid": 9, "depth": 3, "split": "f8", "split_condition": 0.819999993, "yes": 19, "no": 20, "missing": 20, "children": [{"nodeid": 19, "depth": 4, "split": "f5", "split_condition": 7, "yes": 39, "no": 40, "missing": 40, "children": [{"nodeid": 39, "leaf": -0.000125689956}, {"nodeid": 40, "leaf": 0.00126336084}]}, {"nodeid": 20, "depth": 4, "split": "f0", "split_condition": 500, "yes": 41, "no": 42, "missing": 42, "children": [{"nodeid": 41, "leaf": -0.00276390347}, {"nodeid": 42, "leaf": -0.000426634884}]}]}, {"nodeid": 10, "depth": 3, "split": "f8", "split_condition": 0.889999986, "yes": 21, "no": 22, "missing": 22, "children": [{"nodeid": 21, "depth": 4, "split": "f5", "split_condition": 12, "yes": 43, "no": 44, "missing": 44, "children": [{"nodeid": 43, "leaf": 0.00191142422}, {"nodeid": 44, "leaf": 0.00360367028}]}, {"nodeid": 22, "depth": 4, "split": "f0", "split_condition": 400, "yes": 45, "no": 46, "missing": 46, "children": [{"nodeid": 45, "leaf": -0.000823180715}, {"nodeid": 46, "leaf": 0.00147853384}]}]}]}]}, {"nodeid": 2, "depth": 1, "split": "f7", "split_condition": 0.819999993, "yes": 5, "no": 6, "missing": 6, "children": [{"nodeid": 5, "depth": 2, "split": "f8", "split_condition": 0.829999983, "yes": 11, "no": 12, "missing": 12, "children": [{"nodeid": 11, "depth": 3, "split": "f5", "split_condition": 9, "yes": 23, "no": 24, "missing": 24, "children": [{"nodeid": 23, "depth": 4, "split": "f10", "split_condition": 0.285714298, "yes": 47, "no": 48, "missing": 48, "children": [{"nodeid": 47, "leaf": -0.000617558486}, {"nodeid": 48, "leaf": 0.00150290772}]}, {"nodeid": 24, "depth": 4, "split": "f10", "split_condition": 0.339285702, "yes": 49, "no": 50, "missing": 50, "children": [{"nodeid": 49, "leaf": 0.00262222672}, {"nodeid": 50, "leaf": 0.00102926337}]}]}, {"nodeid": 12, "depth": 3, "split": "f10", "split_condition": 1.71428573, "yes": 25, "no": 26, "missing": 26, "children": [{"nodeid": 25, "depth": 4, "split": "f5", "split_condition": 14, "yes": 51, "no": 52, "missing": 52, "children": [{"nodeid": 51, "leaf": -0.000444771315}, {"nodeid": 52, "leaf": 0.00154728012}]}, {"nodeid": 26, "leaf": -0.00720431888}]}]}, {"nodeid": 6, "depth": 2, "split": "f8", "split_condition": 1, "yes": 13, "no": 14, "missing": 14, "children": [{"nodeid": 13, "depth": 3, "split": "f7", "split_condition": 1.02999997, "yes": 27, "no": 28, "missing": 28, "children": [{"nodeid": 27, "depth": 4, "split": "f9", "split_condition": 1.39954793, "yes": 53, "no": 54, "missing": 54, "children": [{"nodeid": 53, "leaf": -0.00143411162}, {"nodeid": 54, "leaf": -0.00345718605}]}, {"nodeid": 28, "depth": 4, "split": "f8", "split_condition": 0.930000007, "yes": 55, "no": 56, "missing": 56, "children": [{"nodeid": 55, "leaf": -0.00540974084}, {"nodeid": 56, "leaf": 0.00325450511}]}]}, {"nodeid": 14, "depth": 3, "split": "f7", "split_condition": 1.01999998, "yes": 29, "no": 30, "missing": 30, "children": [{"nodeid": 29, "depth": 4, "split": "f7", "split_condition": 0.939999998, "yes": 57, "no": 58, "missing": 58, "children": [{"nodeid": 57, "leaf": -0.000263414375}, {"nodeid": 58, "leaf": -0.00406095013}]}, {"nodeid": 30, "depth": 4, "split": "f10", "split_condition": 1.60714281, "yes": 59, "no": 60, "missing": 60, "children": [{"nodeid": 59, "leaf": -0.00126800092}, {"nodeid": 60, "leaf": -0.00596300093}]}]}]}]}]}, {"nodeid": 0, "depth": 0, "split": "f8", "split_condition": 0.930000007, "yes": 1, "no": 2, "missing": 2, "children": [{"nodeid": 1, "depth": 1, "split": "f8", "split_condition": 0.779999971, "yes": 3, "no": 4, "missing": 4, "children": [{"nodeid": 3, "depth": 2, "split": "f5", "split_condition": 7, "yes": 7, "no": 8, "missing": 8, "children": [{"nodeid": 7, "depth": 3, "split": "f8", "split_condition": 0.639999986, "yes": 15, "no": 16, "missing": 16, "children": [{"nodeid": 15, "depth": 4, "split": "f6", "split_condition": 1.02666378, "yes": 31, "no": 32, "missing": 32, "children": [{"nodeid": 31, "leaf": 0.00329303113}, {"nodeid": 32, "leaf": -0.00665475009}]}, {"nodeid": 16, "depth": 4, "split": "f11", "split_condition": 1.73700261, "yes": 33, "no": 34, "missing": 34, "children": [{"nodeid": 33, "leaf": 6.18681952e-05}, {"nodeid": 34, "leaf": 0.00156518864}]}]}, {"nodeid": 8, "depth": 3, "split": "f11", "split_condition": 0.28125, "yes": 17, "no": 18, "missing": 18, "children": [{"nodeid": 17, "depth": 4, "split": "f8", "split_condition": 0.74000001, "yes": 35, "no": 36, "missing": 36, "children": [{"nodeid": 35, "leaf": 0.0017944118}, {"nodeid": 36, "leaf": -0.00262265163}]}, {"nodeid": 18, "depth": 4, "split": "f8", "split_condition": 0.670000017, "yes": 37, "no": 38, "missing": 38, "children": [{"nodeid": 37, "leaf": 0.00432011066}, {"nodeid": 38, "leaf": 0.00301554473}]}]}]}, {"nodeid": 4, "depth": 2, "split": "f11", "split_condition": 0.322221369, "yes": 9, "no": 10, "missing": 10, "children": [{"nodeid": 9, "depth": 3, "split": "f12", "split_condition": 0.0436000004, "yes": 19, "no": 20, "missing": 20, "children": [{"nodeid": 19, "depth": 4, "split": "f0", "split_condition": 600, "yes": 39, "no": 40, "missing": 40, "children": [{"nodeid": 39, "leaf": -0.000704516482}, {"nodeid": 40, "leaf": -0.00379052036}]}, {"nodeid": 20, "depth": 4, "split": "f8", "split_condition": 0.870000005, "yes": 41, "no": 42, "missing": 42, "children": [{"nodeid": 41, "leaf": 0.00736842537}, {"nodeid": 42, "leaf": 0.00165662589}]}]}, {"nodeid": 10, "depth": 3, "split": "f5", "split_condition": 12, "yes": 21, "no": 22, "missing": 22, "children": [{"nodeid": 21, "depth": 4, "split": "f11", "split_condition": 1.93755829, "yes": 43, "no": 44, "missing": 44, "children": [{"nodeid": 43, "leaf": -0.000326951675}, {"nodeid": 44, "leaf": 0.00232472178}]}, {"nodeid": 22, "depth": 4, "split": "f0", "split_condition": 500, "yes": 45, "no": 46, "missing": 46, "children": [{"nodeid": 45, "leaf": 0.0019633146}, {"nodeid": 46, "leaf": 0.00333826407}]}]}]}]}, {"nodeid": 2, "depth": 1, "split": "f11", "split_condition": 0.892704964, "yes": 5, "no": 6, "missing": 6, "children": [{"nodeid": 5, "depth": 2, "split": "f8", "split_condition": 1, "yes": 11, "no": 12, "missing": 12, "children": [{"nodeid": 11, "depth": 3, "split": "f12", "split_condition": 0.0485000014, "yes": 23, "no": 24, "missing": 24, "children": [{"nodeid": 23, "depth": 4, "split": "f6", "split_condition": 1.35471821, "yes": 47, "no": 48, "missing": 48, "children": [{"nodeid": 47, "leaf": -0.00319254817}, {"nodeid": 48, "leaf": 0.00514266407}]}, {"nodeid": 24, "depth": 4, "split": "f5", "split_condition": 9, "yes": 49, "no": 50, "missing": 50, "children": [{"nodeid": 49, "leaf": -0.00242796773}, {"nodeid": 50, "leaf": -0.00034708521}]}]}, {"nodeid": 12, "depth": 3, "split": "f9", "split_condition": 1.17993593, "yes": 25, "no": 26, "missing": 26, "children": [{"nodeid": 25, "depth": 4, "split": "f0", "split_condition": 500, "yes": 51, "no": 52, "missing": 52, "children": [{"nodeid": 51, "leaf": -0.00548361754}, {"nodeid": 52, "leaf": 0.00134334632}]}, {"nodeid": 26, "depth": 4, "split": "f11", "split_condition": 0.244443953, "yes": 53, "no": 54, "missing": 54, "children": [{"nodeid": 53, "leaf": -0.00212317216}, {"nodeid": 54, "leaf": -0.00395382661}]}]}]}, {"nodeid": 6, "depth": 2, "split": "f0", "split_condition": 600, "yes": 13, "no": 14, "missing": 14, "children": [{"nodeid": 13, "depth": 3, "split": "f5", "split_condition": 7, "yes": 27, "no": 28, "missing": 28, "children": [{"nodeid": 27, "depth": 4, "split": "f11", "split_condition": 1.70815611, "yes": 55, "no": 56, "missing": 56, "children": [{"nodeid": 55, "leaf": -0.00211903593}, {"nodeid": 56, "leaf": -3.35311888e-05}]}, {"nodeid": 28, "depth": 4, "split": "f11", "split_condition": 1.91970694, "yes": 57, "no": 58, "missing": 58, "children": [{"nodeid": 57, "leaf": 0.0005104015}, {"nodeid": 58, "leaf": 0.00284656673}]}]}, {"nodeid": 14, "depth": 3, "split": "f11", "split_condition": 1.27519572, "yes": 29, "no": 30, "missing": 30, "children": [{"nodeid": 29, "depth": 4, "split": "f6", "split_condition": 1.16204584, "yes": 59, "no": 60, "missing": 60, "children": [{"nodeid": 59, "leaf": 0.00256465678}, {"nodeid": 60, "leaf": -0.000201487535}]}, {"nodeid": 30, "depth": 4, "split": "f8", "split_condition": 1.01999998, "yes": 61, "no": 62, "missing": 62, "children": [{"nodeid": 61, "leaf": 0.00517087337}, {"nodeid": 62, "leaf": 0.00311614806}]}]}]}]}]}, {"nodeid": 0, "depth": 0, "split": "f10", "split_condition": 0.232142851, "yes": 1, "no": 2, "missing": 2, "children": [{"nodeid": 1, "depth": 1, "split": "f10", "split_condition": 0.0357142873, "yes": 3, "no": 4, "missing": 4, "children": [{"nodeid": 3, "depth": 2, "split": "f5", "split_condition": 12, "yes": 7, "no": 8, "missing": 8, "children": [{"nodeid": 7, "depth": 3, "split": "f8", "split_condition": 0.670000017, "yes": 15, "no": 16, "missing": 16, "children": [{"nodeid": 15, "depth": 4, "split": "f12", "split_condition": 0.0456999987, "yes": 31, "no": 32, "missing": 32, "children": [{"nodeid": 31, "leaf": 0.00226469222}, {"nodeid": 32, "leaf": 0.00361926435}]}, {"nodeid": 16, "depth": 4, "split": "f0", "split_condition": 500, "yes": 33, "no": 34, "missing": 34, "children": [{"nodeid": 33, "leaf": 0.00125309126}, {"nodeid": 34, "leaf": 0.00280747795}]}]}, {"nodeid": 8, "depth": 3, "split": "f8", "split_condition": 