{"feature_names": ["h (mm)", "b (mm)", "tw (mm)", "tf (mm)", "fy (MPa)", "2L/h", "M0.04/Mp", "M0.06/M0.06,FS", "Ed/Ed,FS", "\u03c3vm,CF/fy", "PEEQCF", "Lph/h", "\u03b8u,LB (rad)"], "base_score": 1.4911793, "trees": [{"nodeid": 0, "depth": 0, "split": "f11", "split_condition": 1.79999971, "yes": 1, "no": 2, "missing": 2, "children": [{"nodeid": 1, "depth": 1, "split": "f9", "split_condition": 1.29606688, "yes": 3, "no": 4, "missing": 4, "children": [{"nodeid": 3, "depth": 2, "split": "f11", "split_condition": 1.19999981, "yes": 7, "no": 8, "missing": 8, "children": [{"nodeid": 7, "depth": 3, "split": "f11", "split_condition": 0.400000006, "yes": 15, "no": 16, "missing": 16, "children": [{"nodeid": 15, "depth": 4, "split": "f12", "split_condition": 0.0443999991, "yes": 29, "no": 30, "missing": 30, "children": [{"nodeid": 29, "leaf": 0.0104693789}, {"nodeid": 30, "leaf": -0.0341302566}]}, {"nodeid": 16, "depth": 4, "split": "f11", "split_condition": 0.937558532, "yes": 31, "no": 32, "missing": 32, "children": [{"nodeid": 31, "leaf": -0.061637152}, {"nodeid": 32, "leaf": -0.0370140672}]}]}, {"nodeid": 8, "depth": 3, "split": "f11", "split_condition": 1.59999955, "yes": 17, "no": 18, "missing": 18, "children": [{"nodeid": 17, "depth": 4, "split": "f11", "split_condition": 1.39999962, "yes": 33, "no": 34, "missing": 34, "children": [{"nodeid": 33, "leaf": -0.020408256}, {"nodeid": 34, "leaf": -0.00519621838}]}, {"nodeid": 18, "depth": 4, "split": "f11", "split_condition": 1.69270515, "yes": 35, "no": 36, "missing": 36, "children": [{"nodeid": 35, "leaf": 0.0155683989}, {"nodeid": 36, "leaf": 0.00876544323}]}]}]}, {"nodeid": 4, "depth": 2, "split": "f7", "split_condition": 0.959999979, "yes": 9, "no": 10, "missing": 10, "children": [{"nodeid": 9, "depth": 3, "split": "f12", "split_condition": 0.0546000004, "yes": 19, "no": 20, "missing": 20, "children": [{"nodeid": 19, "depth": 4, "split": "f9", "split_condition": 1.33788431, "yes": 37, "no": 38, "missing": 38, "children": [{"nodeid": 37, "leaf": -0.0334992744}, {"nodeid": 38, "leaf": -0.00232195528}]}, {"nodeid": 20, "depth": 4, "split": "f11", "split_condition": 0.850067139, "yes": 39, "no": 40, "missing": 40, "children": [{"nodeid": 39, "leaf": -0.0578625537}, {"nodeid": 40, "leaf": 0.00435282709}]}]}, {"nodeid": 10, "depth": 3, "split": "f8", "split_condition": 1.00999999, "yes": 21, "no": 22, "missing": 22, "children": [{"nodeid": 21, "depth": 4, "split": "f7", "split_condition": 1, "yes": 41, "no": 42, "missing": 42, "children": [{"nodeid": 41, "leaf": 0.0127032194}, {"nodeid": 42, "leaf": 0.0357348993}]}, {"nodeid": 22, "depth": 4, "split": "f7", "split_condition": 1.14999998, "yes": 43, "no": 44, "missing": 44, "children": [{"nodeid": 43, "leaf": -0.0227459278}, {"nodeid": 44, "leaf": 0.0107840914}]}]}]}]}, {"nodeid": 2, "depth": 1, "split": "f11", "split_condition": 2.21249986, "yes": 5, "no": 6, "missing": 6, "children": [{"nodeid": 5, "depth": 2, "split": "f11", "split_condition": 1.99999952, "yes": 11, "no": 12, "missing": 12, "children": [{"nodeid": 11, "depth": 3, "split": "f11", "split_condition": 1.87439799, "yes": 23, "no": 24, "missing": 24, "children": [{"nodeid": 23, "leaf": 0.0311304927}, {"nodeid": 24, "leaf": 0.0248807929}]}, {"nodeid": 12, "depth": 3, "split": "f11", "split_condition": 2.08022499, "yes": 25, "no": 26, "missing": 26, "children": [{"nodeid": 25, "leaf": 0.0523798689}, {"nodeid": 26, "leaf": 0.0417544469}]}]}, {"nodeid": 6, "depth": 2, "split": "f11", "split_condition": 2.5026238, "yes": 13, "no": 14, "missing": 14, "children": [{"nodeid": 13, "depth": 3, "split": "f11", "split_condition": 2.2701354, "yes": 27, "no": 28, "missing": 28, "children": [{"nodeid": 27, "leaf": 0.071452111}, {"nodeid": 28, "leaf": 0.0576449819}]}, {"nodeid": 14, "leaf": 0.0717735291}]}]}]}, {"nodeid": 0, "depth": 0, "split": "f11", "split_condition": 1.79999971, "yes": 1, "no": 2, "missing": 2, "children": [{"nodeid": 1, "depth": 1, "split": "f9", "split_condition": 1.29111552, "yes": 3, "no": 4, "missing": 4, "children": [{"nodeid": 3, "depth": 2, "split": "f11", "split_condition": 1.19999981, "yes": 7, "no": 8, "missing": 8, "children": [{"nodeid": 7, "depth": 3, "split": "f11", "split_condition": 0.400000006, "yes": 15, "no": 16, "missing": 16, "children": [{"nodeid": 15, "depth": 4, "split": "f12", "split_condition": 0.0441999994, "yes": 29, "no": 30, "missing": 30, "children": [{"nodeid": 29, "leaf": 0.0084473826}, {"nodeid": 30, "leaf": -0.0329059884}]}, {"nodeid": 16, "depth": 4, "split": "f11", "split_condition": 0.937558532, "yes": 31, "no": 32, "missing": 32, "children": [{"nodeid": 31, "leaf": -0.0566430017}, {"nodeid": 32, "leaf": -0.0340412967}]}]}, {"nodeid": 8, "depth": 3, "split": "f11", "split_condition": 1.59999955, "yes": 17, "no": 18, "missing": 18, "children": [{"nodeid": 17, "depth": 4, "split": "f11", "split_condition": 1.39999962, "yes": 33, "no": 34, "missing": 34, "children": [{"nodeid": 33, "leaf": -0.0192211345}, {"nodeid": 34, "leaf": -0.00473829452}]}, {"nodeid": 18, "depth": 4, "split": "f11", "split_condition": 1.69270515, "yes": 35, "no": 36, "missing": 36, "children": [{"nodeid": 35, "leaf": 0.0145669291}, {"nodeid": 36, "leaf": 0.00806889776}]}]}]}, {"nodeid": 4, "depth": 2, "split": "f7", "split_condition": 0.959999979, "yes": 9, "no": 10, "missing": 10, "children": [{"nodeid": 9, "depth": 3, "split": "f12", "split_condition": 0.0544000007, "yes": 19, "no": 20, "missing": 20, "children": [{"nodeid": 19, "depth": 4, "split": "f9", "split_condition": 1.33788431, "yes": 37, "no": 38, "missing": 38, "children": [{"nodeid": 37, "leaf": -0.0311629176}, {"nodeid": 38, "leaf": -0.000136936826}]}, {"nodeid": 20, "depth": 4, "split": "f10", "split_condition": 0.482142866, "yes": 39, "no": 40, "missing": 40, "children": [{"nodeid": 39, "leaf": -0.0630110726}, {"nodeid": 40, "leaf": -0.0379166864}]}]}, {"nodeid": 10, "depth": 3, "split": "f7", "split_condition": 1.00999999, "yes": 21, "no": 22, "missing": 22, "children": [{"nodeid": 21, "depth": 4, "split": "f7", "split_condition": 1, "yes": 41, "no": 42, "missing": 42, "children": [{"nodeid": 41, "leaf": 0.008876184}, {"nodeid": 42, "leaf": 0.0385484956}]}, {"nodeid": 22, "depth": 4, "split": "f12", "split_condition": 0.0529999994, "yes": 43, "no": 44, "missing": 44, "children": [{"nodeid": 43, "leaf": 0.0271286145}, {"nodeid": 44, "leaf": 0.00866413675}]}]}]}]}, {"nodeid": 2, "depth": 1, "split": "f11", "split_condition": 2.16773677, "yes": 5, "no": 6, "missing": 6, "children": [{"nodeid": 5, "depth": 2, "split": "f11", "split_condition": 1.99999952, "yes": 11, "no": 12, "missing": 12, "children": [{"nodeid": 11, "depth": 3, "split": "f11", "split_condition": 1.87439799, "yes": 23, "no": 24, "missing": 24, "children": [{"nodeid": 23, "depth": 4, "split": "f9", "split_condition": 1.01075947, "yes": 45, "no": 46, "missing": 46, "children": [{"nodeid": 45, "leaf": 0.0315209888}, {"nodeid": 46, "leaf": 0.0190416109}]}, {"nodeid": 24, "leaf": 0.022909686}]}, {"nodeid": 12, "depth": 3, "split": "f11", "split_condition": 2.08022499, "yes": 25, "no": 26, "missing": 26, "children": [{"nodeid": 25, "leaf": 0.0478363298}, {"nodeid": 26, "leaf": 0.0370375253}]}]}, {"nodeid": 6, "depth": 2, "split": "f11", "split_condition": 2.38890553, "yes": 13, "no": 14, "missing": 14, "children": [{"nodeid": 13, "depth": 3, "split": "f11", "split_condition": 2.2701354, "yes": 27, "no": 28, "missing": 28, "children": [{"nodeid": 27, "depth": 4, "split": "f11", "split_condition": 2.21249986, "yes": 47, "no": 48, "missing": 48, "children": [{"nodeid": 47, "leaf": 0.0439669453}, {"nodeid": 48, "leaf": 0.0657255352}]}, {"nodeid": 28, "leaf": 0.0516289324}]}, {"nodeid": 14, "leaf": 0.0650801957}]}]}]}, {"nodeid": 0, "depth": 0, "split": "f11", "split_condition": 1.79999971, "yes": 1, "no": 2, "missing": 2, "children": [{"nodeid": 1, "depth": 1, "split": "f9", "split_condition": 1.29111552, "yes": 3, "no": 4, "missing": 4, "children": [{"nodeid": 3, "depth": 2, "split": "f11", "split_condition": 1.19999981, "yes": 7, "no": 8, "missing": 8, "children": [{"nodeid": 7, "depth": 3, "split": "f11", "split_condition": 0.400000006, "yes": 15, "no": 16, "missing": 16, "children": [{"nodeid": 15, "depth": 4, "split": "f8", "split_condition": 0.870000005, "yes": 29, "no": 30, "missing": 30, "children": [{"nodeid": 29, "leaf": 0.0167783685}, {"nodeid": 30, "leaf": -0.0245881099}]}, {"nodeid": 16, "depth": 4, "split": "f11", "split_condition": 0.750000715, "yes": 31, "no": 32, "missing": 32, "children": [{"nodeid": 31, "leaf": -0.0576076321}, {"nodeid": 32, "leaf": -0.0375935957}]}]}, {"nodeid": 8, "depth": 3, "split": "f11", "split_condition": 1.39999962, "yes": 17, "no": 18, "missing": 18, "children": [{"nodeid": 17, "depth": 4, "split": "f11", "split_condition": 1.27519572, "yes": 33, "no": 34, "missing": 34, "children": [{"nodeid": 33, "leaf": -0.0136222672}, {"nodeid": 34, "leaf": -0.019007545}]}, {"nodeid": 18, "depth": 4, "split": "f11", "split_condition": 1.59999955, "yes": 35, "no": 36, "missing": 36, "children": [{"nodeid": 35, "leaf": -0.00424839137}, {"nodeid": 36, "leaf": 0.00963872485}]}]}]}, {"nodeid": 4, "depth": 2, "split": "f7", "split_condition": 0.99000001, "yes": 9, "no": 10, "missing": 10, "children": [{"nodeid": 9, "depth": 3, "split": "f6", "split_condition": 1.26282537, "yes": 19, "no": 20, "missing": 20, "children": [{"nodeid": 19, "depth": 4, "split": "f7", "split_condition": 0.920000017, "yes": 37, "no": 38, "missing": 38, "children": [{"nodeid": 37, "leaf": -0.0233436562}, {"nodeid": 38, "leaf": 0.00751715712}]}, {"nodeid": 20, "depth": 4, "split": "f10", "split_condition": 0.75, "yes": 39, "no": 40, "missing": 40, "children": [{"nodeid": 39, "leaf": -0.0501886755}, {"nodeid": 40, "leaf": -0.0140172075}]}]}, {"nodeid": 10, "depth": 3, "split": "f8", "split_condition": 1.00999999, "yes": 21, "no": 22, "missing": 22, "children": [{"nodeid": 21, "depth": 4, "split": "f7", "split_condition": 1.00999999, "yes": 41, "no": 42, "missing": 42, "children": [{"nodeid": 41, "leaf": 0.0333232321}, {"nodeid": 42, "leaf": 0.0229344536}]}, {"nodeid": 22, "depth": 4, "split": "f0", "split_condition": 600, "yes": 43, "no": 44, "missing": 44, "children": [{"nodeid": 43, "leaf": -0.0185992494}, {"nodeid": 44, "leaf": 0.0392302684}]}]}]}]}, {"nodeid": 2, "depth": 1, "split": "f11", "split_condition": 2.21249986, "yes": 5, "no": 6, "missing": 6, "children": [{"nodeid": 5, "depth": 2, "split": "f11", "split_condition": 1.99999952, "yes": 11, "no": 12, "missing": 12, "children": [{"nodeid": 11, "depth": 3, "split": "f11", "split_condition": 1.87439799, "yes": 23, "no": 24, "missing": 24, "children": [{"nodeid": 23, "leaf": 0.0270799752}, {"nodeid": 24, "leaf": 0.0210959408}]}, {"nodeid": 12, "depth": 3, "split": "f11", "split_condition": 2.08022499, "yes": 25, "no": 26, "missing": 26, "children": [{"nodeid": 25, "leaf": 0.0444597229}, {"nodeid": 26, "leaf": 0.035289973}]}]}, {"nodeid": 6, "depth": 2, "split": "f11", "split_condition": 2.5026238, "yes": 13, "no": 14, "missing": 14, "children": [{"nodeid": 13, "depth": 3, "split": "f11", "split_condition": 2.2701354, "yes": 27, "no": 28, "missing": 28, "children": [{"nodeid": 27, "leaf": 0.0606671087}, {"nodeid": 28, "leaf": 0.0485626981}]}, {"nodeid": 14, "leaf": 0.0609756224}]}]}]}, {"nodeid": 0, "depth": 0, "split": "f11", "split_condition": 1.79999971, "yes": 1, "no": 2, "missing": 2, "children": [{"nodeid": 1, "depth": 1, "split": "f9", "split_condition": 1.29111552, "yes": 3, "no": 4, "missing": 4, "children": [{"nodeid": 3, "depth": 2, "split": "f11", "split_condition": 1.15454531, "yes": 7, "no": 8, "missing": 8, "children": [{"nodeid": 7, "depth": 3, "split": "f12", "split_condition": 0.0445000008, "yes": 15, "no": 16, "missing": 16, "children": [{"nodeid": 15, "depth": 4, "split": "f11", "split_condition": 0.411111444, "yes": 29, "no": 30, "missing": 30, "children": [{"nodeid": 29, "leaf": 0.00717318477}, {"nodeid": 30, "leaf": -0.0322772227}]}, {"nodeid": 16, "depth": 4, "split": "f11", "split_condition": 0.937558532, "yes": 31, "no": 32, "missing": 32, "children": [{"nodeid": 31, "leaf": -0.0445494391}, {"nodeid": 32, "leaf": -0.0294278264}]}]}, {"nodeid": 8, "depth": 3, "split": "f11", "split_condition": 1.59999955, "yes": 17, "no": 18, "missing": 18, "children": [{"nodeid": 17, "depth": 4, "split": "f11", "split_condition": 1.39999962, "yes": 33, "no": 34, "missing": 34, "children": [{"nodeid": 33, "leaf": -0.0159886479}, {"nodeid": 34, "leaf": -0.00407011621}]}, {"nodeid": 18, "depth": 4, "split": "f11", "split_condition": 1.69270515, "yes": 35, "no": 36, "missing": 36, "children": [{"nodeid": 35, "leaf": 0.0124900863}, {"nodeid": 36, "leaf": 0.00665965909}]}]}]}, {"nodeid": 4, "depth": 2, "split": "f7", "split_condition": 0.980000019, "yes": 9, "no": 10, "missing": 10, "children": [{"nodeid": 9, "depth": 3, "split": "f6", "split_condition": 1.25731254, "yes": 19, "no": 20, "missing": 20, "children": [{"nodeid": 19, "depth": 4, "split": "f7", "split_condition": 0.930000007, "yes": 37, "no": 38, "missing": 38, "children": [{"nodeid": 37, "leaf": -0.0177062843}, {"nodeid": 38, "leaf": 0.0084360363}]}, {"nodeid": 20, "depth": 4, "split": "f9", "split_condition": 1.4005425, "yes": 39, "no": 40, "missing": 40, "children": [{"nodeid": 39, "leaf": -0.0334274806}, {"nodeid": 40, "leaf": -0.00158334733}]}]}, {"nodeid": 10, "depth": 3, "split": "f8", "split_condition": 1.00999999, "yes": 21, "no": 22, "missing": 22, "children": [{"nodeid": 21, "depth": 4, "split": "f7", "split_condition": 1, "yes": 41, "no": 42, "missing": 42, "children": [{"nodeid": 41, "leaf": 0.0105483634}, {"nodeid": 42, "leaf": 0.0279154275}]}, {"nodeid": 22, "depth": 4, "split": "f7", "split_condition": 1.23000002, "yes": 43, "no": 44, "missing": 44, "children": [{"nodeid": 43, "leaf": -0.0134746814}, {"nodeid": 44, "leaf": 0.0446188822}]}]}]}]}, {"nodeid": 2, "depth": 1, "split": "f11", "split_condition": 2.16773677, "yes": 5, "no": 6, "missing": 6, "children": [{"nodeid": 5, "depth": 2, "split": "f11", "split_condition": 1.99999952, "yes": 11, "no": 12, "missing": 12, "children": [{"nodeid": 11, "depth": 3, "split": "f11", "split_condition": 1.87439799, "yes": 23, "no": 24, "missing": 24, "children": [{"nodeid": 23, "depth": 4, "split": "f9", "split_condition": 1.01075947, "yes": 45, "no": 46, "missing": 46, "children": [{"nodeid": 45, "leaf": 0.0261692256}, {"nodeid": 46, "leaf": 0.0162097998}]}, {"nodeid": 24, "leaf": 0.0194251779}]}, {"nodeid": 12, "depth": 3, "split": "f11", "split_condition": 2.08022499, "yes": 25, "no": 26, "missing": 26, "children": [{"nodeid": 25, "leaf": 0.0412032977}, {"nodeid": 26, "leaf": 0.0312893763}]}]}, {"nodeid": 6, "depth": 2, "split": "f11", "split_condition": 2.5026238, "yes": 13, "no": 14, "missing": 14, "children": [{"nodeid": 13, "depth": 3, "split": "f11", "split_condition": 2.2701354, "yes": 27, "no": 28, "missing": 28, "children": [{"nodeid": 27, "depth": 4, "split": "f11", "split_condition": 2.21249986, "yes": 47, "no": 48, "missing": 48, "children": [{"nodeid": 47, "leaf": 0.0386550203}, {"nodeid": 48, "leaf": 0.0558049008}]}, {"nodeid": 28, "leaf": 0.0449328162}]}, {"nodeid": 14, "leaf": 0.056130901}]}]}]}, {"nodeid": 0, "depth": 0, "split": "f11", "split_condition": 1.79999971, "yes": 1, "no": 2, "missing": 2, "children": [{"nodeid": 1, "depth": 1, "split": "f9", "split_condition": 1.29111552, "yes": 3, "no": 4, "missing": 4, "children": [{"nodeid": 3, "depth": 2, "split": "f12", "split_condition": 0.0458000004, "yes": 7, "no": 8, "missing": 8, "children": [{"nodeid": 7, "depth": 3, "split": "f12", "split_condition": 0.0375999995, "yes": 15, "no": 16, "missing": 16, "children": [{"nodeid": 15, "depth": 4, "split": "f5", "split_condition": 12, "yes": 29, "no": 30, "missing": 30, "children": [{"nodeid": 29, "leaf": -0.00432990771}, {"nodeid": 30, "leaf": 0.0312683396}]}, {"nodeid": 16, "depth": 4, "split": "f10", "split_condition": 0.321428567, "yes": 31, "no": 32, "missing": 32, "children": [{"nodeid": 31, "leaf": -0.014610461}, {"nodeid": 32, "leaf": 0.00211765687}]}]}, {"nodeid": 8, "depth": 3, "split": "f11", "split_condition": 1.15454531, "yes": 17, "no": 18, "missing": 18, "children": [{"nodeid": 17, "depth": 4, "split": "f11", "split_condition": 0.937558532, "yes": 33, "no": 34, "missing": 34, "children": [{"nodeid": 33, "leaf": -0.0428911634}, {"nodeid": 34, "leaf": -0.0271067992}]}, {"nodeid": 18, "depth": 4, "split": "f11", "split_condition": 1.39999962, "yes": 35, "no": 36, "missing": 36, "children": [{"nodeid": 35, "leaf": -0.0159779396}, {"nodeid": 36, "leaf": 0.00115333253}]}]}]}, {"nodeid": 4, "depth": 2, "split": "f10", "split_condition": 0.392857134, "yes": 9, "no": 10, "missing": 10, "children": [{"nodeid": 9, "depth": 3, "split": "f12", "split_condition": 0.0452000014, "yes": 19, "no": 20, "missing": 20, "children": [{"nodeid": 19, "depth": 4, "split": "f9", "split_condition": 1.29882538, "yes": 37, "no": 38, "missing": 38, "children": [{"nodeid": 37, "leaf": 0.032487534}, {"nodeid": 38, "leaf": -0.0119799934}]}, {"nodeid": 20, "depth": 4, "split": "f12", "split_condition": 0.0485999994, "yes": 39, "no": 40, "missing": 40, "children": [{"nodeid": 39, "leaf": -0.0201543383}, {"nodeid": 40, "leaf": -0.0571445115}]}]}, {"nodeid": 10, "depth": 3, "split": "f11", "split_condition": 0.522222877, "yes": 21, "no": 22, "missing": 22, "children": [{"nodeid": 21, "depth": 4, "split": "f11", "split_condition": 0.178946942, "yes": 41, "no": 42, "missing": 42, "children": [{"nodeid": 41, "leaf": -0.00798772648}, {"nodeid": 42, "leaf": 0.0176742487}]}, {"nodeid": 22, "depth": 4, "split": "f11", "split_condition": 1.30433166, "yes": 43, "no": 44, "missing": 44, "children": [{"nodeid": 43, "leaf": -0.0468317606}, {"nodeid": 44, "leaf": 0.00364052132}]}]}]}]}, {"nodeid": 2, "depth": 1, "split": "f11", "split_condition": 2.21249986, "yes": 5, "no": 6, "missing": 6, "children": [{"nodeid": 5, "depth": 2, "split": "f11", "split_condition": 1.99999952, "yes": 11, "no": 12, "missing": 12, "children": [{"nodeid": 11, "depth": 3, "split": "f11", "split_condition": 1.87439799, "yes": 23, "no": 24, "missing": 24, "children": [{"nodeid": 23, "depth": 4, "split": "f9", "split_condition": 1.01075947, "yes": 45, "no": 46, "missing": 46, "children": [{"nodeid": 45, "leaf": 0.024951309}, {"nodeid": 46, "leaf": 0.0150751108}]}, {"nodeid": 24, "leaf": 0.0178623237}]}, {"nodeid": 12, "depth": 3, "split": "f11", "split_condition": 2.08022499, "yes": 25, "no": 26, "missing": 26, "children": [{"nodeid": 25, "leaf": 0.037440028}, {"nodeid": 26, "leaf": 0.0299111661}]}]}, {"nodeid": 6, "depth": 2, "split": "f11", "split_condition": 2.5026238, "yes": 13, "no": 14, "missing": 14, "children": [{"nodeid": 13, "depth": 3, "split": "f11", "split_condition": 2.2701354, "yes": 27, "no": 28, "missing": 28, "children": [{"nodeid": 27, "leaf": 0.0515099987}, {"nodeid": 28, "leaf": 0.0412580855}]}, {"nodeid": 14, "leaf": 0.0516995117}]}]}]}, {"nodeid": 0, "depth": 0, "split": "f11", "split_condition": 1.79999971, "yes": 1, "no": 2, "missing": 2, "children": [{"nodeid": 1, "depth": 1, "split": "f9", "split_condition": 1.29606688, "yes": 3, "no": 4, "missing": 4, "children": [{"nodeid": 3, "depth": 2, "split": "f12", "split_condition": 0.0445000008, "yes": 7, "no": 8, "missing": 8, "children": [{"nodeid": 7, "depth": 3, "split": "f10", "split_condition": 0.142857149, "yes": 15, "no": 16, "missing": 16, "children": [{"nodeid": 15, "depth": 4, "split": "f11", "split_condition": 1.34444427, "yes": 29, "no": 30, "missing": 30, "children": [{"nodeid": 29, "leaf": -0.0254136659}, {"nodeid": 30, "leaf": 0.00247514923}]}, {"nodeid": 16, "depth": 4, "split": "f9", "split_condition": 1.05544531, "yes": 31, "no": 32, "missing": 32, "children": [{"nodeid": 31, "leaf": 0.0150068039}, {"nodeid": 32, "leaf": -0.00876668654}]}]}, {"nodeid": 8, "depth": 3, "split": "f11", "split_condition": 1.15454531, "yes": 17, "no": 18, "missing": 18, "children": [{"nodeid": 17, "depth": 4, "split": "f11", "split_condition": 0.475000739, "yes": 33, "no": 34, "missing": 34, "children": [{"nodeid": 33, "leaf": -0.0236625038}, {"nodeid": 34, "leaf": -0.0383768938}]}, {"nodeid": 18, "depth": 4, "split": "f11", "split_condition": 1.39999962, "yes": 35, "no": 36, "missing": 36, "children": [{"nodeid": 35, "leaf": -0.0146428775}, {"nodeid": 36, "leaf": 0.000898517668}]}]}]}, {"nodeid": 4, "depth": 2, "split": "f7", "split_condition": 0.970000029, "yes": 9, "no": 10, "missing": 10, "children": [{"nodeid": 9, "depth": 3, "split": "f12", "split_condition": 0.0546999983, "yes": 19, "no": 20, "missing": 20, "children": [{"nodeid": 19, "depth": 4, "split": "f7", "split_condition": 0.930000007, "yes": 37, "no": 38, "missing": 38, "children": [{"nodeid": 37, "leaf": -0.0181106869}, {"nodeid": 38, "leaf": 0.00687394105}]}, {"nodeid": 20, "depth": 4, "split": "f6", "split_condition": 1.42869532, "yes": 39, "no": 40, "missing": 40, "children": [{"nodeid": 39, "leaf": -0.0451495573}, {"nodeid": 40, "leaf": 0.0206804704}]}]}, {"nodeid": 10, "depth": 3, "split": "f8", "split_condition": 1.00999999, "yes": 21, "no": 22, "missing": 22, "children": [{"nodeid": 21, "depth": 4, "split": "f7", "split_condition": 1, "yes": 41, "no": 42, "missing": 42, "children": [{"nodeid": 41, "leaf": 0.00975216553}, {"nodeid": 42, "leaf": 0.024342034}]}, {"nodeid": 22, "depth": 4, "split": "f12", "split_condition": 0.0529999994, "yes": 43, "no": 44, "missing": 44, "children": [{"nodeid": 43, "leaf": 0.00823200587}, {"nodeid": 44, "leaf": -0.0207448732}]}]}]}]}, {"nodeid": 2, "depth": 1, "split": "f11", "split_condition": 2.21249986, "yes": 5, "no": 6, "missing": 6, "children": [{"nodeid": 5, "depth": 2, "split": "f11", "split_condition": 1.99999952, "yes": 11, "no": 12, "missing": 12, "children": [{"nodeid": 11, "depth": 3, "split": "f11", "split_condition": 1.87439799, "yes": 23, "no": 24, "missing": 24, "children": [{"nodeid": 23, "depth": 4, "split": "f11", "split_condition": 1.83333433, "yes": 45, "no": 46, "missing": 46, "children": [{"nodeid": 45, "leaf": 0.0178139713}, {"nodeid": 46, "leaf": 0.0247656275}]}, {"nodeid": 24, "leaf": 0.0164454747}]}, {"nodeid": 12, "depth": 3, "split": "f11", "split_condition": 2.08022499, "yes": 25, "no": 26, "missing": 26, "children": [{"nodeid": 25, "leaf": 0.0349875465}, {"nodeid": 26, "leaf": 0.0273878668}]}]}, {"nodeid": 6, "depth": 2, "split": "f11", "split_condition": 2.38890553, "yes": 13, "no": 14, "missing": 14, "children": [{"nodeid": 13, "depth": 3, "split": "f11", "split_condition": 2.2701354, "yes": 27, "no": 28, "missing": 28, "children": [{"nodeid": 27, "leaf": 0.0473985709}, {"nodeid": 28, "leaf": 0.0368601233}]}, {"nodeid": 14, "leaf": 0.0468865968}]}]}]}, {"nodeid": 0, "depth": 0, "split": "f11", "split_condition": 1.79999971, "yes": 1, "no": 2, "missing": 2, "children": [{"nodeid": 1, "depth": 1, "split": "f9", "split_condition": 1.29111552, "yes": 3, "no": 4, "missing": 4, "children": [{"nodeid": 3, "depth": 2, "split": "f12", "split_condition": 0.0458000004, "yes": 7, "no": 8, "missing": 8, "children": [{"nodeid": 7, "depth": 3, "split": "f12", "split_condition": 0.0381000005, "yes": 15, "no": 16, "missing": 16, "children": [{"nodeid": 15, "depth": 4, "split": "f5", "split_condition": 12, "yes": 29, "no": 30, "missing": 30, "children": [{"nodeid": 29, "leaf": -0.00368979247}, {"nodeid": 30, "leaf": 0.0257273354}]}, {"nodeid": 16, "depth": 4, "split": "f11", "split_condition": 1.34444427, "yes": 31, "no": 32, "missing": 32, "children": [{"nodeid": 31, "leaf": -0.0131920613}, {"nodeid": 32, "leaf": 0.00307869655}]}]}, {"nodeid": 8, "depth": 3, "split": "f11", "split_condition": 1.15454531, "yes": 17, "no": 18, "missing": 18, "children": [{"nodeid": 17, "depth": 4, "split": "f11", "split_condition": 0.750000715, "yes": 33, "no": 34, "missing": 34, "children": [{"nodeid": 33, "leaf": -0.0385635272}, {"nodeid": 34, "leaf": -0.0270635337}]}, {"nodeid": 18, "depth": 4, "split": "f11", "split_condition": 1.59999955, "yes": 35, "no": 36, "missing": 36, "children": [{"nodeid": 35, "leaf": -0.00987440906}, {"nodeid": 36, "leaf": 0.00764545565}]}]}]}, {"nodeid": 4, "depth": 2, "split": "f7", "split_condition": 0.99000001, "yes": 9, "no": 10, "missing": 10, "children": [{"nodeid": 9, "depth": 3, "split": "f6", "split_condition": 1.25731254, "yes": 19, "no": 20, "missing": 20, "children": [{"nodeid": 19, "depth": 4, "split": "f5", "split_condition": 12, "yes": 37, "no": 38, "missing": 38, "children": [{"nodeid": 37, "leaf": -0.0147767197}, {"nodeid": 38, "leaf": 0.00660002884}]}, {"nodeid": 20, "depth": 4, "split": "f11", "split_condition": 0.375, "yes": 39, "no": 40, "missing": 40, "children": [{"nodeid": 39, "leaf": -0.0310746357}, {"nodeid": 40, "leaf": -0.0131530175}]}]}, {"nodeid": 10, "depth": 3, "split": "f7", "split_condition": 1.00999999, "yes": 21, "no": 22, "missing": 22, "children": [{"nodeid": 21, "depth": 4, "split": "f7", "split_condition": 1, "yes": 41, "no": 42, "missing": 42, "children": [{"nodeid": 41, "leaf": 0.0066516418}, {"nodeid": 42, "leaf": 0.0271712039}]}, {"nodeid": 22, "depth": 4, "split": "f11", "split_condition": 0.18333292, "yes": 43, "no": 44, "missing": 44, "children": [{"nodeid": 43, "leaf": 0.0294466969}, {"nodeid": 44, "leaf": 0.00616194354}]}]}]}]}, {"nodeid": 2, "depth": 1, "split": "f11", "split_condition": 2.16773677, "yes": 5, "no": 6, "missing": 6, "children": [{"nodeid": 5, "depth": 2, "split": "f11", "split_condition": 1.99999952, "yes": 11, "no": 12, "missing": 12, "children": [{"nodeid": 11, "depth": 3, "split": "f11", "split_condition": 1.87439799, "yes": 23, "no": 24, "missing": 24, "children": [{"nodeid": 23, "depth": 4, "split": "f11", "split_condition": 1.83333433, "yes": 45, "no": 46, "missing": 46, "children": [{"nodeid": 45, "leaf": 0.0165350568}, {"nodeid": 46, "leaf": 0.0234848708}]}, {"nodeid": 24, "leaf": 0.0151567571}]}, {"nodeid": 12, "depth": 3, "split": "f11", "split_condition": 2.08022499, "yes": 25, "no": 26, "missing": 26, "children": [{"nodeid": 25, "leaf": 0.031607572}, {"nodeid": 26, "leaf": 0.0242652465}]}]}, {"nodeid": 6, "depth": 2, "split": "f11", "split_condition": 2.38890553, "yes": 13, "no": 14, "missing": 14, "children": [{"nodeid": 13, "depth": 3, "split": "f11", "split_condition": 2.2701354, "yes": 27, "no": 28, "missing": 28, "children": [{"nodeid": 27, "depth": 4, "split": "f11", "split_condition": 2.21249986, "yes": 47, "no": 48, "missing": 48, "children": [{"nodeid": 47, "leaf": 0.0298556369}, {"nodeid": 48, "leaf": 0.0436918922}]}, {"nodeid": 28, "leaf": 0.0339205675}]}, {"nodeid": 14, "leaf": 0.0431884229}]}]}]}, {"nodeid": 0, "depth": 0, "split": "f11", "split_condition": 1.79999971, "yes": 1, "no": 2, "missing": 2, "children": [{"nodeid": 1, "depth": 1, "split": "f11", "split_condition": 0.522222877, "yes": 3, "no": 4, "missing": 4, "children": [{"nodeid": 3, "depth": 2, "split": "f7", "split_condition": 0.99000001, "yes": 7, "no": 8, "missing": 8, "children": [{"nodeid": 7, "depth": 3, "split": "f5", "split_condition": 12, "yes": 15, "no": 16, "missing": 16, "children": [{"nodeid": 15, "depth": 4, "split": "f12", "split_condition": 0.0450999998, "yes": 29, "no": 30, "missing": 30, "children": [{"nodeid": 29, "leaf": 0.00285671791}, {"nodeid": 30, "leaf": -0.0298734754}]}, {"nodeid": 16, "depth": 4, "split": "f8", "split_condition": 0.860000014, "yes": 31, "no": 32, "missing": 32, "children": [{"nodeid": 31, "leaf": 0.0181402024}, {"nodeid": 32, "leaf": -0.00479458179}]}]}, {"nodeid": 8, "depth": 3, "split": "f8", "split_condition": 1.00999999, "yes": 17, "no": 18, "missing": 18, "children": [{"nodeid": 17, "depth": 4, "split": "f7", "split_condition": 1.00999999, "yes": 33, "no": 34, "missing": 34, "children": [{"nodeid": 33, "leaf": 0.0234267376}, {"nodeid": 34, "leaf": 0.0139326164}]}, {"nodeid": 18, "depth": 4, "split": "f11", "split_condition": 0.242856666, "yes": 35, "no": 36, "missing": 36, "children": [{"nodeid": 35, "leaf": -0.00572900893}, {"nodeid": 36, "leaf": -0.0335673317}]}]}]}, {"nodeid": 4, "depth": 2, "split": "f11", "split_condition": 1.14444423, "yes": 9, "no": 10, "missing": 10, "children": [{"nodeid": 9, "depth": 3, "split": "f11", "split_condition": 0.750000715, "yes": 19, "no": 20, "missing": 20, "children": [{"nodeid": 19, "leaf": -0.0429910421}, {"nodeid": 20, "depth": 4, "split": "f11", "split_condition": 0.937558532, "yes": 37, "no": 38, "missing": 38, "children": [{"nodeid": 37, "leaf": -0.0296832416}, {"nodeid": 38, "leaf": -0.0205530524}]}]}, {"nodeid": 10, "depth": 3, "split": "f11", "split_condition": 1.59999955, "yes": 21, "no": 22, "missing": 22, "children": [{"nodeid": 21, "depth": 4, "split": "f11", "split_condition": 1.39999962, "yes": 39, "no": 40, "missing": 40, "children": [{"nodeid": 39, "leaf": -0.011892694}, {"nodeid": 40, "leaf": -0.00306322146}]}, {"nodeid": 22, "depth": 4, "split": "f11", "split_condition": 1.69270515, "yes": 41, "no": 42, "missing": 42, "children": [{"nodeid": 41, "leaf": 0.0109380009}, {"nodeid": 42, "leaf": 0.00600762432}]}]}]}]}, {"nodeid": 2, "depth": 1, "split": "f11", "split_condition": 2.16773677, "yes": 5, "no": 6, "missing": 6, "children": [{"nodeid": 5, "depth": 2, "split": "f11", "split_condition": 1.99999952, "yes": 11, "no": 12, "missing": 12, "children": [{"nodeid": 11, "depth": 3, "split": "f11", "split_condition": 1.87439799, "yes": 23, "no": 24, "missing": 24, "children": [{"nodeid": 23, "depth": 4, "split": "f8", "split_condition": 0.699999988, "yes": 43, "no": 44, "missing": 44, "children": [{"nodeid": 43, "leaf": 0.0222021043}, {"nodeid": 44, "leaf": 0.0145569257}]}, {"nodeid": 24, "leaf": 0.0137022389}]}, {"nodeid": 12, "depth": 3, "split": "f11", "split_condition": 2.08022499, "yes": 25, "no": 26, "missing": 26, "children": [{"nodeid": 25, "leaf": 0.0296832286}, {"nodeid": 26, "leaf": 0.0223512389}]}]}, {"nodeid": 6, "depth": 2, "split": "f11", "split_condition": 2.38890553, "yes": 13, "no": 14, "missing": 14, "children": [{"nodeid": 13, "depth": 3, "split": "f11", "split_condition": 2.2701354, "yes": 27, "no": 28, "missing": 28, "children": [{"nodeid": 27, "depth": 4, "split": "f11", "split_condition": 2.21249986, "yes": 45, "no": 46, "missing": 46, "children": [{"nodeid": 45, "leaf": 0.0277008414}, {"nodeid": 46, "leaf": 0.0402600914}]}, {"nodeid": 28, "leaf": 0.0312445033}]}, {"nodeid": 14, "leaf": 0.0398213379}]}]}]}, {"nodeid": 0, "depth": 0, "split": "f11", "split_condition": 1.79999971, "yes": 1, "no": 2, "missing": 2, "children": [{"nodeid": 1, "depth": 1, "split": "f9", "split_condition": 1.29111552, "yes": 3, "no": 4, "missing": 4, "children": [{"nodeid": 3, "depth": 2, "split": "f11", "split_condition": 1.20000017, "yes": 7, "no": 8, "missing": 8, "children": [{"nodeid": 7, "depth": 3, "split": "f11", "split_condition": 0.400000006, "yes": 15, "no": 16, "missing": 16, "children": [{"nodeid": 15, "depth": 4, "split": "f8", "split_condition": 0.930000007, "yes": 29, "no": 30, "missing": 30, "children": [{"nodeid": 29, "leaf": 0.0095623536}, {"nodeid": 30, "leaf": -0.0197127983}]}, {"nodeid": 16, "depth": 4, "split": "f11", "split_condition": 0.750000715, "yes": 31, "no": 32, "missing": 32, "children": [{"nodeid": 31, "leaf": -0.0370654874}, {"nodeid": 32, "leaf": -0.0224549845}]}]}, {"nodeid": 8, "depth": 3, "split": "f11", "split_condition": 1.59999955, "yes": 17, "no": 18, "missing": 18, "children": [{"nodeid": 17, "depth": 4, "split": "f11", "split_condition": 1.39999962, "yes": 33, "no": 34, "missing": 34, "children": [{"nodeid": 33, "leaf": -0.0105437217}, {"nodeid": 34, "leaf": -0.0028401243}]}, {"nodeid": 18, "depth": 4, "split": "f11", "split_condition": 1.69270515, "yes": 35, "no": 36, "missing": 36, "children": [{"nodeid": 35, "leaf": 0.00953382347}, {"nodeid": 36, "leaf": 0.00530865556}]}]}]}, {"nodeid": 4, "depth": 2, "split": "f7", "split_condition": 0.959999979, "yes": 9, "no": 10, "missing": 10, "children": [{"nodeid": 9, "depth": 3, "split": "f12", "split_condition": 0.0485000014, "yes": 19, "no": 20, "missing": 20, "children": [{"nodeid": 19, "depth": 4, "split": "f7", "split_condition": 0.920000017, "yes": 37, "no": 38, "missing": 38, "children": [{"nodeid": 37, "leaf": -0.00733905239}, {"nodeid": 38, "leaf": 0.0304012652}]}, {"nodeid": 20, "depth": 4, "split": "f7", "split_condition": 0.939999998, "yes": 39, "no": 40, "missing": 40, "children": [{"nodeid": 39, "leaf": -0.0346429236}, {"nodeid": 40, "leaf": -0.0127979992}]}]}, {"nodeid": 10, "depth": 3, "split": "f8", "split_condition": 1.00999999, "yes": 21, "no": 22, "missing": 22, "children": [{"nodeid": 21, "depth": 4, "split": "f7", "split_condition": 1, "yes": 41, "no": 42, "missing": 42, "children": [{"nodeid": 41, "leaf": 0.00590587081}, {"nodeid": 42, "leaf": 0.0196518339}]}, {"nodeid": 22, "depth": 4, "split": "f7", "split_condition": 1.19000006, "yes": 43, "no": 44, "missing": 44, "children": [{"nodeid": 43, "leaf": -0.0172763374}, {"nodeid": 44, "leaf": 0.0185800735}]}]}]}]}, {"nodeid": 2, "depth": 1, "split": "f11", "split_condition": 2.16773677, "yes": 5, "no": 6, "missing": 6, "children": [{"nodeid": 5, "depth": 2, "split": "f11", "split_condition": 1.99999952, "yes": 11, "no": 12, "missing": 12, "children": [{"nodeid": 11, "depth": 3, "split": "f11", "split_condition": 1.87439799, "yes": 23, "no": 24, "missing": 24, "children": [{"nodeid": 23, "depth": 4, "split": "f5", "split_condition": 12, "yes": 45, "no": 46, "missing": 46, "children": [{"nodeid": 45, "leaf": 0.0143942125}, {"nodeid": 46, "leaf": 0.0220717266}]}, {"nodeid": 24, "leaf": 0.0128662158}]}, {"nodeid": 12, "depth": 3, "split": "f11", "split_condition": 2.08022499, "yes": 25, "no": 26, "missing": 26, "children": [{"nodeid": 25, "depth": 4, "split": "f7", "split_condition": 0.699999988, "yes": 47, "no": 48, "missing": 48, "children": [{"nodeid": 47, "leaf": 0.0201917309}, {"nodeid": 48, "leaf": 0.0290883742}]}, {"nodeid": 26, "leaf": 0.0205668248}]}]}, {"nodeid": 6, "depth": 2, "split": "f11", "split_condition": 2.5026238, "yes": 13, "no": 14, "missing": 14, "children": [{"nodeid": 13, "depth": 3, "split": "f11", "split_condition": 2.2701354, "yes": 27, "no": 28, "missing": 28, "children": [{"nodeid": 27, "depth": 4, "split": "f11", "split_condition": 2.21249986, "yes": 49, "no": 50, "missing": 50, "children": [{"nodeid": 49, "leaf": 0.0255811177}, {"nodeid": 50, "leaf": 0.0371333808}]}, {"nodeid": 28, "leaf": 0.0294847488}]}, {"nodeid": 14, "leaf": 0.0373819098}]}]}]}, {"nodeid": 0, "depth": 0, "split": "f11", "split_condition": 1.79999971, "yes": 1, "no": 2, "missing": 2, "children": [{"nodeid": 1, "depth": 1, "split": "f9", "split_condition": 1.29111552, "yes": 3, "no": 4, "missing": 4, "children": [{"nodeid": 3, "depth": 2, "split": "f11", "split_condition": 1.14444423, "yes": 7, "no": 8, "missing": 8, "children": [{"nodeid": 7, "depth": 3, "split": "f11", "split_condition": 0.400000006, "yes": 15, "no": 16, "missing": 16, "children": [{"nodeid": 15, "depth": 4, "split": "f9", "split_condition": 1.11188972, "yes": 29, "no": 30, "missing": 30, "children": [{"nodeid": 29, "leaf": 0.00966607127}, {"nodeid": 30, "leaf": -0.0166703239}]}, {"nodeid": 16, "depth": 4, "split": "f11", "split_condition": 0.750000715, "yes": 31, "no": 32, "missing": 32, "children": [{"nodeid": 31, "leaf": -0.0343750678}, {"nodeid": 32, "leaf": -0.0215458795}]}]}, {"nodeid": 8, "depth": 3, "split": "f11", "split_condition": 1.59999955, "yes": 17, "no": 18, "missing": 18, "children": [{"nodeid": 17, "depth": 4, "split": "f11", "split_condition": 1.39999962, "yes": 33, "no": 34, "missing": 34, "children": [{"nodeid": 33, "leaf": -0.00997766294}, {"nodeid": 34, "leaf": -0.00284369825}]}, {"nodeid": 18, "depth": 4, "split": "f11", "split_condition": 1.69270515, "yes": 35, "no": 36, "missing": 36, "children": [{"nodeid": 35, "leaf": 0.00915182848}, {"nodeid": 36, "leaf": 0.00503304182}]}]}]}, {"nodeid": 4, "depth": 2, "split": "f8", "split_condition": 1.00999999, "yes": 9, "no": 10, "missing": 10, "children": [{"nodeid": 9, "depth": 3, "split": "f10", "split_condition": 0.392857134, "yes": 19, "no": 20, "missing": 20, "children": [{"nodeid": 19, "depth": 4, "split": "f9", "split_condition": 1.30303752, "yes": 37, "no": 38, "missing": 38, "children": [{"nodeid": 37, "leaf": 0.0189618114}, {"nodeid": 38, "leaf": -0.03812759}]}, {"nodeid": 20, "depth": 4, "split": "f11", "split_condition": 0.178946942, "yes": 39, "no": 40, "missing": 40, "children": [{"nodeid": 39, "leaf": -0.0121039879}, {"nodeid": 40, "leaf": 0.0141358292}]}]}, {"nodeid": 10, "depth": 3, "split": "f11", "split_condition": 0.0999993905, "yes": 21, "no": 22, "missing": 22, "children": [{"nodeid": 21, "depth": 4, "split": "f0", "split_condition": 600, "yes": 41, "no": 42, "missing": 42, "children": [{"nodeid": 41, "leaf": -0.0318152606}, {"nodeid": 42, "leaf": 0.0548589677}]}, {"nodeid": 22, "depth": 4, "split": "f10", "split_condition": 0.803571403, "yes": 43, "no": 44, "missing": 44, "children": [{"nodeid": 43, "leaf": -0.0459283255}, {"nodeid": 44, "leaf": -0.0127188135}]}]}]}]}, {"nodeid": 2, "depth": 1, "split": "f11", "split_condition": 2.16773677, "yes": 5, "no": 6, "missing": 6, "children": [{"nodeid": 5, "depth": 2, "split": "f11", "split_condition": 1.99999952, "yes": 11, "no": 12, "missing": 12, "children": [{"nodeid": 11, "depth": 3, "split": "f11", "split_condition": 1.87439799, "yes": 23, "no": 24, "missing": 24, "children": [{"nodeid": 23, "depth": 4, "split": "f6", "split_condition": 0.876006186, "yes": 45, "no": 46, "missing": 46, "children": [{"nodeid": 45, "leaf": 0.0195073448}, {"nodeid": 46, "leaf": 0.0123536037}]}, {"nodeid": 24, "leaf": 0.0118341502}]}, {"nodeid": 12, "depth": 3, "split": "f11", "split_condition": 2.08022499, "yes": 25, "no": 26, "missing": 26, "children": [{"nodeid": 25, "depth": 4, "split": "f11", "split_condition": 2.04131055, "yes": 47, "no": 48, "missing": 48, "children": [{"nodeid": 47, "leaf": 0.0201275256}, {"nodeid": 48, "leaf": 0.0290414114}]}, {"nodeid": 26, "leaf": 0.0189451259}]}]}, {"nodeid": 6, "depth": 2, "split": "f11", "split_condition": 2.38890553, "yes": 13, "no": 14, "missing": 14, "children": [{"nodeid": 13, "depth": 3, "split": "f11", "split_condition": 2.2701354, "yes": 27, "no": 28, "missing": 28, "children": [{"nodeid": 27, "depth": 4, "split": "f11", "split_condition": 2.21249986, "yes": 49, "no": 50, "missing": 50, "children": [{"nodeid": 49, "leaf": 0.0239384361}, {"nodeid": 50, "leaf": 0.034169469}]}, {"nodeid": 28, "leaf": 0.0264267102}]}, {"nodeid": 14, "leaf": 0.0338745341}]}]}]}, {"nodeid": 0, "depth": 0, "split": "f11", "split_condition": 1.79999971, "yes": 1, "no": 2, "missing": 2, "children": [{"nodeid": 1, "depth": 1, "split": "f9", "split_condition": 1.29606688, "yes": 3, "no": 4, "missing": 4, "children": [{"nodeid": 3, "depth": 2, "split": "f12", "split_condition": 0.0439999998, "yes": 7, "no": 8, "missing": 8, "children": [{"nodeid": 7, "depth": 3, "split": "f7", "split_condition": 0.959999979, "yes": 15, "no": 16, "missing": 16, "children": [{"nodeid": 15, "depth": 4, "split": "f12", "split_condition": 0.0375999995, "yes": 31, "no": 32, "missing": 32, "children": [{"nodeid": 31, "leaf": 0.0118808802}, {"nodeid": 32, "leaf": -0.00692122662}]}, {"nodeid": 16, "depth": 4, "split": "f8", "split_condition": 1.00999999, "yes": 33, "no": 34, "missing": 34, "children": [{"nodeid": 33, "leaf": 0.0354062803}, {"nodeid": 34, "leaf": -0.00343679427}]}]}, {"nodeid": 8, "depth": 3, "split": "f11", "split_condition": 0.999999762, "yes": 17, "no": 18, "missing": 18, "children": [{"nodeid": 17, "depth": 4, "split": "f10", "split_condition": 0.303571433, "yes": 35, "no": 36, "missing": 36, "children": [{"nodeid": 35, "leaf": -0.0294214357}, {"nodeid": 36, "leaf": -0.0158835761}]}, {"nodeid": 18, "depth": 4, "split": "f11", "split_condition": 1.39999962, "yes": 37, "no": 38, "missing": 38, "children": [{"nodeid": 37, "leaf": -0.0123431515}, {"nodeid": 38, "leaf": 0.000850023527}]}]}]}, {"nodeid": 4, "depth": 2, "split": "f7", "split_condition": 0.980000019, "yes": 9, "no": 10, "missing": 10, "children": [{"nodeid": 9, "depth": 3, "split": "f10", "split_condition": 0.464285702, "yes": 19, "no": 20, "missing": 20, "children": [{"nodeid": 19, "depth": 4, "split": "f12", "split_condition": 0.0487000011, "yes": 39, "no": 40, "missing": 40, "children": [{"nodeid": 39, "leaf": -0.00813376717}, {"nodeid": 40, "leaf": -0.0440769531}]}, {"nodeid": 20, "depth": 4, "split": "f8", "split_condition": 1, "yes": 41, "no": 42, "missing": 42, "children": [{"nodeid": 41, "leaf": 0.00168812112}, {"nodeid": 42, "leaf": -0.0346140079}]}]}, {"nodeid": 10, "depth": 3, "split": "f8", "split_condition": 1.00999999, "yes": 21, "no": 22, "missing": 22, "children": [{"nodeid": 21, "depth": 4, "split": "f7", "split_condition": 1, "yes": 43, "no": 44, "missing": 44, "children": [{"nodeid": 43, "leaf": 0.00384478318}, {"nodeid": 44, "leaf": 0.0165334195}]}, {"nodeid": 22, "depth": 4, "split": "f7", "split_condition": 1.13999999, "yes": 45, "no": 46, "missing": 46, "children": [{"nodeid": 45, "leaf": -0.0165909305}, {"nodeid": 46, "leaf": 0.00732324366}]}]}]}]}, {"nodeid": 2, "depth": 1, "split": "f11", "split_condition": 2.16773677, "yes": 5, "no": 6, "missing": 6, "children": [{"nodeid": 5, "depth": 2, "split": "f11", "split_condition": 1.99999952, "yes": 11, "no": 12, "missing": 12, "children": [{"nodeid": 11, "depth": 3, "split": "f11", "split_condition": 1.87439799, "yes": 23, "no": 24, "missing": 24, "children": [{"nodeid": 23, "depth": 4, "split": "f6", "split_condition": 0.876006186, "yes": 47, "no": 48, "missing": 48, "children": [{"nodeid": 47, "leaf": 0.017630605}, {"nodeid": 48, "leaf": 0.0119015584}]}, {"nodeid": 24, "leaf": 0.0109057426}]}, {"nodeid": 12, "depth": 3, "split": "f11", "split_condition": 2.08022499, "yes": 25, "no": 26, "missing": 26, "children": [{"nodeid": 25, "depth": 4, "split": "f11", "split_condition": 2.04131055, "yes": 49, "no": 50, "missing": 50, "children": [{"nodeid": 49, "leaf": 0.0181243736}, {"nodeid": 50, "leaf": 0.0268525165}]}, {"nodeid": 26, "leaf": 0.0174417309}]}]}, {"nodeid": 6, "depth": 2, "split": "f11", "split_condition": 2.38890553, "yes": 13, "no": 14, "missing": 14, "children": [{"nodeid": 13, "depth": 3, "split": "f11", "split_condition": 2.2701354, "yes": 27, "no": 28, "missing": 28, "children": [{"nodeid": 27, "depth": 4, "split": "f11", "split_condition": 2.21249986, "yes": 51, "no": 52, "missing": 52, "children": [{"nodeid": 51, "leaf": 0.0224593654}, {"nodeid": 52, "leaf": 0.0314753279}]}, {"nodeid": 28, "leaf": 0.0243253615}]}, {"nodeid": 14, "depth": 3, "split": "f8", "split_condition": 0.660000026, "yes": 29, "no": 30, "missing": 30, "children": [{"nodeid": 29, "leaf": 0.0244081207}, {"nodeid": 30, "leaf": 0.0323755033}]}]}]}]}, {"nodeid": 0, "depth": 0, "split": "f7", "split_condition": 1, "yes": 1, "no": 2, "missing": 2, "children": [{"nodeid": 1, "depth": 1, "split": "f12", "split_condition": 0.0472000018, "yes": 3, "no": 4, "missing": 4, "children": [{"nodeid": 3, "depth": 2, "split": "f12", "split_condition": 0.0375999995, "yes": 7, "no": 8, "missing": 8, "children": [{"nodeid": 7, "depth": 3, "split": "f5", "split_condition": 12, "yes": 15, "no": 16, "missing": 16, "children": [{"nodeid": 15, "depth": 4, "split": "f7", "split_condition": 0.670000017, "yes": 31, "no": 32, "missing": 32, "children": [{"nodeid": 31, "leaf": -0.00173237675}, {"nodeid": 32, "leaf": 0.00815375708}]}, {"nodeid": 16, "depth": 4, "split": "f9", "split_condition": 0.964873433, "yes": 33, "no": 34, "missing": 34, "children": [{"nodeid": 33, "leaf": 0.0284378268}, {"nodeid": 34, "leaf": 0.0102911741}]}]}, {"nodeid": 8, "depth": 3, "split": "f7", "split_condition": 0.970000029, "yes": 17, "no": 18, "missing": 18, "children": [{"nodeid": 17, "depth": 4, "split": "f9", "split_condition": 1.13194442, "yes": 35, "no": 36, "missing": 36, "children": [{"nodeid": 35, "leaf": 0.00246096659}, {"nodeid": 36, "leaf": -0.00946676731}]}, {"nodeid": 18, "depth": 4, "split": "f8", "split_condition": 1.00999999, "yes": 37, "no": 38, "missing": 38, "children": [{"nodeid": 37, "leaf": 0.0250125397}, {"nodeid": 38, "leaf": -0.0210030321}]}]}]}, {"nodeid": 4, "depth": 2, "split": "f9", "split_condition": 0.757007241, "yes": 9, "no": 10, "missing": 10, "children": [{"nodeid": 9, "depth": 3, "split": "f7", "split_condition": 0.629999995, "yes": 19, "no": 20, "missing": 20, "children": [{"nodeid": 19, "depth": 4, "split": "f9", "split_condition": 0.62935406, "yes": 39, "no": 40, "missing": 40, "children": [{"nodeid": 39, "leaf": -0.00866769906}, {"nodeid": 40, "leaf": -0.026985554}]}, {"nodeid": 20, "depth": 4, "split": "f8", "split_condition": 0.800000012, "yes": 41, "no": 42, "missing": 42, "children": [{"nodeid": 41, "leaf": 0.00292554637}, {"nodeid": 42, "leaf": -0.00976464897}]}]}, {"nodeid": 10, "depth": 3, "split": "f10", "split_condition": 0.482142866, "yes": 21, "no": 22, "missing": 22, "children": [{"nodeid": 21, "depth": 4, "split": "f12", "split_condition": 0.0507000014, "yes": 43, "no": 44, "missing": 44, "children": [{"nodeid": 43, "leaf": -0.01532654}, {"nodeid": 44, "leaf": -0.027191326}]}, {"nodeid": 22, "depth": 4, "split": "f5", "split_condition": 12, "yes": 45, "no": 46, "missing": 46, "children": [{"nodeid": 45, "leaf": -0.0156515278}, {"nodeid": 46, "leaf": 0.0088214865}]}]}]}]}, {"nodeid": 2, "depth": 1, "split": "f8", "split_condition": 1.00999999, "yes": 5, "no": 6, "missing": 6, "children": [{"nodeid": 5, "depth": 2, "split": "f7", "split_condition": 1.00999999, "yes": 11, "no": 12, "missing": 12, "children": [{"nodeid": 11, "depth": 3, "split": "f5", "split_condition": 12, "yes": 23, "no": 24, "missing": 24, "children": [{"nodeid": 23, "depth": 4, "split": "f10", "split_condition": 1.07142854, "yes": 47, "no": 48, "missing": 48, "children": [{"nodeid": 47, "leaf": -0.0373938978}, {"nodeid": 48, "leaf": 0.0162987243}]}, {"nodeid": 24, "depth": 4, "split": "f12", "split_condition": 0.0579999983, "yes": 49, "no": 50, "missing": 50, "children": [{"nodeid": 49, "leaf": 0.0316421799}, {"nodeid": 50, "leaf": 0.0193133559}]}]}, {"nodeid": 12, "depth": 3, "split": "f12", "split_condition": 0.0527000017, "yes": 25, "no": 26, "missing": 26, "children": [{"nodeid": 25, "depth": 4, "split": "f6", "split_condition": 1.05619836, "yes": 51, "no": 52, "missing": 52, "children": [{"nodeid": 51, "leaf": 0.00366351288}, {"nodeid": 52, "leaf": 0.0235301275}]}, {"nodeid": 26, "depth": 4, "split": "f6", "split_condition": 1.35023129, "yes": 53, "no": 54, "missing": 54, "children": [{"nodeid": 53, "leaf": -0.00124303764}, {"nodeid": 54, "leaf": 0.0165687501}]}]}]}, {"nodeid": 6, "depth": 2, "split": "f10", "split_condition": 0.767857134, "yes": 13, "no": 14, "missing": 14, "children": [{"nodeid": 13, "depth": 3, "split": "f9", "split_condition": 0.654485047, "yes": 27, "no": 28, "missing": 28, "children": [{"nodeid": 27, "depth": 4, "split": "f12", "split_condition": 0.0450000018, "yes": 55, "no": 56, "missing": 56, "children": [{"nodeid": 55, "leaf": 0.00977410004}, {"nodeid": 56, "leaf": -0.00512429606}]}, {"nodeid": 28, "depth": 4, "split": "f12", "split_condition": 0.0461999997, "yes": 57, "no": 58, "missing": 58, "children": [{"nodeid": 57, "leaf": -0.045891203}, {"nodeid": 58, "leaf": -0.0280887187}]}]}, {"nodeid": 14, "depth": 3, "split": "f5", "split_condition": 12, "yes": 29, "no": 30, "missing": 30, "children": [{"nodeid": 29, "depth": 4, "split": "f9", "split_condition": 1.3696655, "yes": 59, "no": 60, "missing": 60, "children": [{"nodeid": 59, "leaf": -0.0187984966}, {"nodeid": 60, "leaf": -0.002006497}]}, {"nodeid": 30, "depth": 4, "split": "f7", "split_condition": 1.05999994, "yes": 61, "no": 62, "missing": 62, "children": [{"nodeid": 61, "leaf": -0.00492554111}, {"nodeid": 62, "leaf": 0.0435235091}]}]}]}]}]}, {"nodeid": 0, "depth": 0, "split": "f7", "split_condition": 1, "yes": 1, "no": 2, "missing": 2, "children": [{"nodeid": 1, "depth": 1, "split": "f12", "split_condition": 0.0472000018, "yes": 3, "no": 4, "missing": 4, "children": [{"nodeid": 3, "depth": 2, "split": "f12", "split_condition": 0.0375999995, "yes": 7, "no": 8, "missing": 8, "children": [{"nodeid": 7, "depth": 3, "split": "f5", "split_condition": 12, "yes": 15, "no": 16, "missing": 16, "children": [{"nodeid": 15, "depth": 4, "split": "f6", "split_condition": 0.748505354, "yes": 31, "no": 32, "missing": 32, "children": [{"nodeid": 31, "leaf": -0.00935151055}, {"nodeid": 32, "leaf": 0.00604561251}]}, {"nodeid": 16, "depth": 4, "split": "f9", "split_condition": 0.942691028, "yes": 33, "no": 34, "missing": 34, "children": [{"nodeid": 33, "leaf": 0.0307369009}, {"nodeid": 34, "leaf": 0.013151505}]}]}, {"nodeid": 8, "depth": 3, "split": "f6", "split_condition": 0.753306806, "yes": 17, "no": 18, "missing": 18, "children": [{"nodeid": 17, "depth": 4, "split": "f9", "split_condition": 0.582010567, "yes": 35, "no": 36, "missing": 36, "children": [{"nodeid": 35, "leaf": -0.00174578989}, {"nodeid": 36, "leaf": -0.0264040325}]}, {"nodeid": 18, "depth": 4, "split": "f9", "split_condition": 1.32804227, "yes": 37, "no": 38, "missing": 38, "children": [{"nodeid": 37, "leaf": 0.00164642371}, {"nodeid": 38, "leaf": 0.0185376704}]}]}]}, {"nodeid": 4, "depth": 2, "split": "f9", "split_condition": 0.757007241, "yes": 9, "no": 10, "missing": 10, "children": [{"nodeid": 9, "depth": 3, "split": "f7", "split_condition": 0.629999995, "yes": 19, "no": 20, "missing": 20, "children": [{"nodeid": 19, "depth": 4, "split": "f9", "split_condition": 0.62935406, "yes": 39, "no": 40, "missing": 40, "children": [{"nodeid": 39, "leaf": -0.0074806218}, {"nodeid": 40, "leaf": -0.0245978627}]}, {"nodeid": 20, "depth": 4, "split": "f8", "split_condition": 0.670000017, "yes": 41, "no": 42, "missing": 42, "children": [{"nodeid": 41, "leaf": 0.0102470005}, {"nodeid": 42, "leaf": -0.00378293777}]}]}, {"nodeid": 10, "depth": 3, "split": "f10", "split_condition": 0.482142866, "yes": 21, "no": 22, "missing": 22, "children": [{"nodeid": 21, "depth": 4, "split": "f12", "split_condition": 0.0489000008, "yes": 43, "no": 44, "missing": 44, "children": [{"nodeid": 43, "leaf": -0.00911006331}, {"nodeid": 44, "leaf": -0.0240955204}]}, {"nodeid": 22, "depth": 4, "split": "f5", "split_condition": 12, "yes": 45, "no": 46, "missing": 46, "children": [{"nodeid": 45, "leaf": -0.0145376259}, {"nodeid": 46, "leaf": 0.00791232474}]}]}]}]}, {"nodeid": 2, "depth": 1, "split": "f8", "split_condition": 1.00999999, "yes": 5, "no": 6, "missing": 6, "children": [{"nodeid": 5, "depth": 2, "split": "f7", "split_condition": 1.00999999, "yes": 11, "no": 12, "missing": 12, "children": [{"nodeid": 11, "depth": 3, "split": "f9", "split_condition": 1.25016534, "yes": 23, "no": 24, "missing": 24, "children": [{"nodeid": 23, "depth": 4, "split": "f12", "split_condition": 0.0493000001, "yes": 47, "no": 48, "missing": 48, "children": [{"nodeid": 47, "leaf": -0.00730412174}, {"nodeid": 48, "leaf": -0.0260853283}]}, {"nodeid": 24, "depth": 4, "split": "f9", "split_condition": 1.32363319, "yes": 49, "no": 50, "missing": 50, "children": [{"nodeid": 49, "leaf": 0.0318977609}, {"nodeid": 50, "leaf": 0.0164416172}]}]}, {"nodeid": 12, "depth": 3, "split": "f8", "split_condition": 1, "yes": 25, "no": 26, "missing": 26, "children": [{"nodeid": 25, "depth": 4, "split": "f10", "split_condition": 0.910714269, "yes": 51, "no": 52, "missing": 52, "children": [{"nodeid": 51, "leaf": -0.0073838192}, {"nodeid": 52, "leaf": 0.0147712324}]}, {"nodeid": 26, "depth": 4, "split": "f12", "split_condition": 0.0524999984, "yes": 53, "no": 54, "missing": 54, "children": [{"nodeid": 53, "leaf": 0.0162763018}, {"nodeid": 54, "leaf": -0.00757216383}]}]}]}, {"nodeid": 6, "depth": 2, "split": "f10", "split_condition": 0.767857134, "yes": 13, "no": 14, "missing": 14, "children": [{"nodeid": 13, "depth": 3, "split": "f9", "split_condition": 0.694233537, "yes": 27, "no": 28, "missing": 28, "children": [{"nodeid": 27, "depth": 4, "split": "f12", "split_condition": 0.0439000018, "yes": 55, "no": 56, "missing": 56, "children": [{"nodeid": 55, "leaf": 0.00733651873}, {"nodeid": 56, "leaf": -0.00554981083}]}, {"nodeid": 28, "depth": 4, "split": "f12", "split_condition": 0.0461999997, "yes": 57, "no": 58, "missing": 58, "children": [{"nodeid": 57, "leaf": -0.0429788381}, {"nodeid": 58, "leaf": -0.0269427802}]}]}, {"nodeid": 14, "depth": 3, "split": "f5", "split_condition": 12, "yes": 29, "no": 30, "missing": 30, "children": [{"nodeid": 29, "depth": 4, "split": "f9", "split_condition": 1.36464739, "yes": 59, "no": 60, "missing": 60, "children": [{"nodeid": 59, "leaf": -0.0183957331}, {"nodeid": 60, "leaf": -9.65777144e-05}]}, {"nodeid": 30, "depth": 4, "split": "f7", "split_condition": 1.05999994, "yes": 61, "no": 62, "missing": 62, "children": [{"nodeid": 61, "leaf": -0.00854803808}, {"nodeid": 62, "leaf": 0.0413145944}]}]}]}]}]}, {"nodeid": 0, "depth": 0, "split": "f11", "split_condition": 1.79999971, "yes": 1, "no": 2, "missing": 2, "children": [{"nodeid": 1, "depth": 1, "split": "f11", "split_condition": 0.522222877, "yes": 3, "no": 4, "missing": 4, "children": [{"nodeid": 3, "depth": 2, "split": "f8", "split_condition": 1.00999999, "yes": 7, "no": 8, "missing": 8, "children": [{"nodeid": 7, "depth": 3, "split": "f7", "split_condition": 0.99000001, "yes": 15, "no": 16, "missing": 16, "children": [{"nodeid": 15, "depth": 4, "split": "f5", "split_condition": 12, "yes": 29, "no": 30, "missing": 30, "children": [{"nodeid": 29, "leaf": -0.017643597}, {"nodeid": 30, "leaf": 0.00281443656}]}, {"nodeid": 16, "depth": 4, "split": "f5", "split_condition": 12, "yes": 31, "no": 32, "missing": 32, "children": [{"nodeid": 31, "leaf": 0.00964474864}, {"nodeid": 32, "leaf": 0.0184100904}]}]}, {"nodeid": 8, "depth": 3, "split": "f10", "split_condition": 0.732142866, "yes": 17, "no": 18, "missing": 18, "children": [{"nodeid": 17, "depth": 4, "split": "f11", "split_condition": 0.180952147, "yes": 33, "no": 34, "missing": 34, "children": [{"nodeid": 33, "leaf": -0.0138372667}, {"nodeid": 34, "leaf": -0.0320976973}]}, {"nodeid": 18, "depth": 4, "split": "f5", "split_condition": 12, "yes": 35, "no": 36, "missing": 36, "children": [{"nodeid": 35, "leaf": -0.0113046486}, {"nodeid": 36, "leaf": 0.0110211307}]}]}]}, {"nodeid": 4, "depth": 2, "split": "f11", "split_condition": 0.937558532, "yes": 9, "no": 10, "missing": 10, "children": [{"nodeid": 9, "depth": 3, "split": "f11", "split_condition": 0.737350464, "yes": 19, "no": 20, "missing": 20, "children": [{"nodeid": 19, "depth": 4, "split": "f8", "split_condition": 1.01999998, "yes": 37, "no": 38, "missing": 38, "children": [{"nodeid": 37, "leaf": -0.0287869498}, {"nodeid": 38, "leaf": -0.0210568272}]}, {"nodeid": 20, "depth": 4, "split": "f8", "split_condition": 0.980000019, "yes": 39, "no": 40, "missing": 40, "children": [{"nodeid": 39, "leaf": -0.0211946499}, {"nodeid": 40, "leaf": -0.0113855097}]}]}, {"nodeid": 10, "depth": 3, "split": "f11", "split_condition": 1.39999986, "yes": 21, "no": 22, "missing": 22, "children": [{"nodeid": 21, "depth": 4, "split": "f11", "split_condition": 1.14444423, "yes": 41, "no": 42, "missing": 42, "children": [{"nodeid": 41, "leaf": -0.0131818997}, {"nodeid": 42, "leaf": -0.00756863458}]}, {"nodeid": 22, "depth": 4, "split": "f11", "split_condition": 1.60000014, "yes": 43, "no": 44, "missing": 44, "children": [{"nodeid": 43, "leaf": -0.00168324774}, {"nodeid": 44, "leaf": 0.00642474322}]}]}]}]}, {"nodeid": 2, "depth": 1, "split": "f11", "split_condition": 2.16773677, "yes": 5, "no": 6, "missing": 6, "children": [{"nodeid": 5, "depth": 2, "split": "f11", "split_condition": 1.99999952, "yes": 11, "no": 12, "missing": 12, "children": [{"nodeid": 11, "depth": 3, "split": "f6", "split_condition": 1.2105459, "yes": 23, "no": 24, "missing": 24, "children": [{"nodeid": 23, "depth": 4, "split": "f11", "split_condition": 1.87439799, "yes": 45, "no": 46, "missing": 46, "children": [{"nodeid": 45, "leaf": 0.012278378}, {"nodeid": 46, "leaf": 0.00964821596}]}, {"nodeid": 24, "depth": 4, "split": "f11", "split_condition": 1.83333433, "yes": 47, "no": 48, "missing": 48, "children": [{"nodeid": 47, "leaf": 0.00690999255}, {"nodeid": 48, "leaf": 0.0153755033}]}]}, {"nodeid": 12, "depth": 3, "split": "f11", "split_condition": 2.08022499, "yes": 25, "no": 26, "missing": 26, "children": [{"nodeid": 25, "depth": 4, "split": "f11", "split_condition": 2.04131055, "yes": 49, "no": 50, "missing": 50, "children": [{"nodeid": 49, "leaf": 0.0157246348}, {"nodeid": 50, "leaf": 0.0234647468}]}, {"nodeid": 26, "leaf": 0.0159920361}]}]}, {"nodeid": 6, "depth": 2, "split": "f11", "split_condition": 2.5026238, "yes": 13, "no": 14, "missing": 14, "children": [{"nodeid": 13, "depth": 3, "split": "f11", "split_condition": 2.2701354, "yes": 27, "no": 28, "missing": 28, "children": [{"nodeid": 27, "depth": 4, "split": "f11", "split_condition": 2.21249986, "yes": 51, "no": 52, "missing": 52, "children": [{"nodeid": 51, "leaf": 0.0199339334}, {"nodeid": 52, "leaf": 0.028576307}]}, {"nodeid": 28, "leaf": 0.022598559}]}, {"nodeid": 14, "leaf": 0.028943168}]}]}]}, {"nodeid": 0, "depth": 0, "split": "f11", "split_condition": 1.79999971, "yes": 1, "no": 2, "missing": 2, "children": [{"nodeid": 1, "depth": 1, "split": "f9", "split_condition": 1.29111552, "yes": 3, "no": 4, "missing": 4, "children": [{"nodeid": 3, "depth": 2, "split": "f11", "split_condition": 1.34444427, "yes": 7, "no": 8, "missing": 8, "children": [{"nodeid": 7, "depth": 3, "split": "f11", "split_condition": 0.400000006, "yes": 15, "no": 16, "missing": 16, "children": [{"nodeid": 15, "depth": 4, "split": "f8", "split_condition": 0.870000005, "yes": 29, "no": 30, "missing": 30, "children": [{"nodeid": 29, "leaf": 0.0116681634}, {"nodeid": 30, "leaf": -0.0111624897}]}, {"nodeid": 16, "depth": 4, "split": "f11", "split_condition": 0.937558532, "yes": 31, "no": 32, "missing": 32, "children": [{"nodeid": 31, "leaf": -0.0217310805}, {"nodeid": 32, "leaf": -0.00989471842}]}]}, {"nodeid": 8, "depth": 3, "split": "f11", "split_condition": 1.59999955, "yes": 17, "no": 18, "missing": 18, "children": [{"nodeid": 17, "depth": 4, "split": "f9", "split_condition": 0.757007241, "yes": 33, "no": 34, "missing": 34, "children": [{"nodeid": 33, "leaf": -0.00325594191}, {"nodeid": 34, "leaf": 0.00182289479}]}, {"nodeid": 18, "depth": 4, "split": "f11", "split_condition": 1.69270515, "yes": 35, "no": 36, "missing": 36, "children": [{"nodeid": 35, "leaf": 0.00779030658}, {"nodeid": 36, "leaf": 0.00413313461}]}]}]}, {"nodeid": 4, "depth": 2, "split": "f7", "split_condition": 0.959999979, "yes": 9, "no": 10, "missing": 10, "children": [{"nodeid": 9, "depth": 3, "split": "f6", "split_condition": 1.06424141, "yes": 19, "no": 20, "missing": 20, "children": [{"nodeid": 19, "depth": 4, "split": "f8", "split_condition": 0.99000001, "yes": 37, "no": 38, "missing": 38, "children": [{"nodeid": 37, "leaf": -0.00290019368}, {"nodeid": 38, "leaf": 0.0279772356}]}, {"nodeid": 20, "depth": 4, "split": "f10", "split_condition": 0.446428567, "yes": 39, "no": 40, "missing": 40, "children": [{"nodeid": 39, "leaf": -0.0298146624}, {"nodeid": 40, "leaf": -0.0116100265}]}]}, {"nodeid": 10, "depth": 3, "split": "f8", "split_condition": 1.00999999, "yes": 21, "no": 22, "missing": 22, "children": [{"nodeid": 21, "depth": 4, "split": "f11", "split_condition": 0.25714156, "yes": 41, "no": 42, "missing": 42, "children": [{"nodeid": 41, "leaf": 0.0128045976}, {"nodeid": 42, "leaf": 0.00573000591}]}, {"nodeid": 22, "depth": 4, "split": "f7", "split_condition": 1.23000002, "yes": 43, "no": 44, "missing": 44, "children": [{"nodeid": 43, "leaf": -0.00897395331}, {"nodeid": 44, "leaf": 0.0325196013}]}]}]}]}, {"nodeid": 2, "depth": 1, "split": "f11", "split_condition": 2.16773677, "yes": 5, "no": 6, "missing": 6, "children": [{"nodeid": 5, "depth": 2, "split": "f11", "split_condition": 1.99999952, "yes": 11, "no": 12, "missing": 12, "children": [{"nodeid": 11, "depth": 3, "split": "f11", "split_condition": 1.87439799, "yes": 23, "no": 24, "missing": 24, "children": [{"nodeid": 23, "depth": 4, "split": "f5", "split_condition": 7, "yes": 45, "no": 46, "missing": 46, "children": [{"nodeid": 45, "leaf": 0.0162047055}, {"nodeid": 46, "leaf": 0.0103282686}]}, {"nodeid": 24, "depth": 4, "split": "f6", "split_condition": 1.2105459, "yes": 47, "no": 48, "missing": 48, "children": [{"nodeid": 47, "leaf": 0.00890074484}, {"nodeid": 48, "leaf": 0.0120750284}]}]}, {"nodeid": 12, "depth": 3, "split": "f11", "split_condition": 2.08022499, "yes": 25, "no": 26, "missing": 26, "children": [{"nodeid": 25, "depth": 4, "split": "f5", "split_condition": 7, "yes": 49, "no": 50, "missing": 50, "children": [{"nodeid": 49, "leaf": 0.023597626}, {"nodeid": 50, "leaf": 0.0159719102}]}, {"nodeid": 26, "leaf": 0.014723043}]}]}, {"nodeid": 6, "depth": 2, "split": "f11", "split_condition": 2.5026238, "yes": 13, "no": 14, "missing": 14, "children": [{"nodeid": 13, "depth": 3, "split": "f11", "split_condition": 2.2701354, "yes": 27, "no": 28, "missing": 28, "children": [{"nodeid": 27, "depth": 4, "split": "f11", "split_condition": 2.21249986, "yes": 51, "no": 52, "missing": 52, "children": [{"nodeid": 51, "leaf": 0.0191466473}, {"nodeid": 52, "leaf": 0.0265403762}]}, {"nodeid": 28, "leaf": 0.0208144113}]}, {"nodeid": 14, "leaf": 0.0266757645}]}]}]}, {"nodeid": 0, "depth": 0, "split": "f11", "split_condition": 1.79999971, "yes": 1, "no": 2, "missing": 2, "children": [{"nodeid": 1, "depth": 1, "split": "f11", "split_condition": 0.522222877, "yes": 3, "no": 4, "missing": 4, "children": [{"nodeid": 3, "depth": 2, "split": "f8", "split_condition": 1.00999999, "yes": 7, "no": 8, "missing": 8, "children": [{"nodeid": 7, "depth": 3, "split": "f7", "split_condition": 1, "yes": 15, "no": 16, "missing": 16, "children": [{"nodeid": 15, "depth": 4, "split": "f12", "split_condition": 0.0471000001, "yes": 29, "no": 30, "missing": 30, "children": [{"nodeid": 29, "leaf": 0.00677431142}, {"nodeid": 30, "leaf": -0.00661357306}]}, {"nodeid": 16, "depth": 4, "split": "f7", "split_condition": 1.00999999, "yes": 31, "no": 32, "missing": 32, "children": [{"nodeid": 31, "leaf": 0.0148397954}, {"nodeid": 32, "leaf": 0.00556335179}]}]}, {"nodeid": 8, "depth": 3, "split": "f11", "split_condition": 0.242856666, "yes": 17, "no": 18, "missing": 18, "children": [{"nodeid": 17, "depth": 4, "split": "f11", "split_condition": 0.200000301, "yes": 33, "no": 34, "missing": 34, "children": [{"nodeid": 33, "leaf": -0.0104391966}, {"nodeid": 34, "leaf": 0.0197257865}]}, {"nodeid": 18, "depth": 4, "split": "f10", "split_condition": 0.803571403, "yes": 35, "no": 36, "missing": 36, "children": [{"nodeid": 35, "leaf": -0.0298250355}, {"nodeid": 36, "leaf": -0.016427746}]}]}]}, {"nodeid": 4, "depth": 2, "split": "f11", "split_condition": 0.937558532, "yes": 9, "no": 10, "missing": 10, "children": [{"nodeid": 9, "depth": 3, "split": "f11", "split_condition": 0.737350464, "yes": 19, "no": 20, "missing": 20, "children": [{"nodeid": 19, "depth": 4, "split": "f9", "split_condition": 0.632385373, "yes": 37, "no": 38, "missing": 38, "children": [{"nodeid": 37, "leaf": -0.00845967792}, {"nodeid": 38, "leaf": -0.0248001609}]}, {"nodeid": 20, "depth": 4, "split": "f9", "split_condition": 1.09099424, "yes": 39, "no": 40, "missing": 40, "children": [{"nodeid": 39, "leaf": -0.0181627832}, {"nodeid": 40, "leaf": -0.00968274474}]}]}, {"nodeid": 10, "depth": 3, "split": "f11", "split_condition": 1.39999962, "yes": 21, "no": 22, "missing": 22, "children": [{"nodeid": 21, "depth": 4, "split": "f11", "split_condition": 1.14444423, "yes": 41, "no": 42, "missing": 42, "children": [{"nodeid": 41, "leaf": -0.0114354212}, {"nodeid": 42, "leaf": -0.00661012297}]}, {"nodeid": 22, "depth": 4, "split": "f11", "split_condition": 1.60000014, "yes": 43, "no": 44, "missing": 44, "children": [{"nodeid": 43, "leaf": -0.00158933096}, {"nodeid": 44, "leaf": 0.00548302801}]}]}]}]}, {"nodeid": 2, "depth": 1, "split": "f11", "split_condition": 2.16773677, "yes": 5, "no": 6, "missing": 6, "children": [{"nodeid": 5, "depth": 2, "split": "f11", "split_condition": 1.99999952, "yes": 11, "no": 12, "missing": 12, "children": [{"nodeid": 11, "depth": 3, "split": "f11", "split_condition": 1.87439799, "yes": 23, "no": 24, "missing": 24, "children": [{"nodeid": 23, "depth": 4, "split": "f12", "split_condition": 0.0476999991, "yes": 45, "no": 46, "missing": 46, "children": [{"nodeid": 45, "leaf": 0.00941629428}, {"nodeid": 46, "leaf": 0.0159571934}]}, {"nodeid": 24, "depth": 4, "split": "f10", "split_condition": 0.428571433, "yes": 47, "no": 48, "missing": 48, "children": [{"nodeid": 47, "leaf": 0.00824670121}, {"nodeid": 48, "leaf": 0.0111590298}]}]}, {"nodeid": 12, "depth": 3, "split": "f11", "split_condition": 2.08022499, "yes": 25, "no": 26, "missing": 26, "children": [{"nodeid": 25, "depth": 4, "split": "f12", "split_condition": 0.0458000004, "yes": 49, "no": 50, "missing": 50, "children": [{"nodeid": 49, "leaf": 0.0153358234}, {"nodeid": 50, "leaf": 0.0222426821}]}, {"nodeid": 26, "leaf": 0.0135852331}]}]}, {"nodeid": 6, "depth": 2, "split": "f11", "split_condition": 2.5026238, "yes": 13, "no": 14, "missing": 14, "children": [{"nodeid": 13, "depth": 3, "split": "f11", "split_condition": 2.2701354, "yes": 27, "no": 28, "missing": 28, "children": [{"nodeid": 27, "depth": 4, "split": "f11", "split_condition": 2.21249986, "yes": 51, "no": 52, "missing": 52, "children": [{"nodeid": 51, "leaf": 0.0169166308}, {"nodeid": 52, "leaf": 0.024349438}]}, {"nodeid": 28, "leaf": 0.0191504825}]}, {"nodeid": 14, "leaf": 0.0244861636}]}]}]}, {"nodeid": 0, "depth": 0, "split": "f11", "split_condition": 1.79999971, "yes": 1, "no": 2, "missing": 2, "children": [{"nodeid": 1, "depth": 1, "split": "f9", "split_condition": 1.29606688, "yes": 3, "no": 4, "missing": 4, "children": [{"nodeid": 3, "depth": 2, "split": "f11", "split_condition": 1.20000017, "yes": 7, "no": 8, "missing": 8, "children": [{"nodeid": 7, "depth": 3, "split": "f12", "split_condition": 0.0397999994, "yes": 15, "no": 16, "missing": 16, "children": [{"nodeid": 15, "depth": 4, "split": "f5", "split_condition": 9, "yes": 31, "no": 32, "missing": 32, "children": [{"nodeid": 31, "leaf": -0.0134179359}, {"nodeid": 32, "leaf": 0.0149522508}]}, {"nodeid": 16, "depth": 4, "split": "f5", "split_condition": 12, "yes": 33, "no": 34, "missing": 34, "children": [{"nodeid": 33, "leaf": -0.0182682406}, {"nodeid": 34, "leaf": -0.00908982288}]}]}, {"nodeid": 8, "depth": 3, "split": "f11", "split_condition": 1.59999955, "yes": 17, "no": 18, "missing": 18, "children": [{"nodeid": 17, "depth": 4, "split": "f11", "split_condition": 1.39999986, "yes": 35, "no": 36, "missing": 36, "children": [{"nodeid": 35, "leaf": -0.00559271034}, {"nodeid": 36, "leaf": -0.00151421304}]}, {"nodeid": 18, "depth": 4, "split": "f11", "split_condition": 1.69270515, "yes": 37, "no": 38, "missing": 38, "children": [{"nodeid": 37, "leaf": 0.00691507244}, {"nodeid": 38, "leaf": 0.00349221472}]}]}]}, {"nodeid": 4, "depth": 2, "split": "f7", "split_condition": 0.959999979, "yes": 9, "no": 10, "missing": 10, "children": [{"nodeid": 9, "depth": 3, "split": "f12", "split_condition": 0.0493000001, "yes": 19, "no": 20, "missing": 20, "children": [{"nodeid": 19, "depth": 4, "split": "f9", "split_condition": 1.32943761, "yes": 39, "no": 40, "missing": 40, "children": [{"nodeid": 39, "leaf": -0.00791866798}, {"nodeid": 40, "leaf": 0.00889215246}]}, {"nodeid": 20, "depth": 4, "split": "f7", "split_condition": 0.939999998, "yes": 41, "no": 42, "missing": 42, "children": [{"nodeid": 41, "leaf": -0.0260509178}, {"nodeid": 42, "leaf": -0.0106625576}]}]}, {"nodeid": 10, "depth": 3, "split": "f12", "split_condition": 0.0595000014, "yes": 21, "no": 22, "missing": 22, "children": [{"nodeid": 21, "depth": 4, "split": "f5", "split_condition": 12, "yes": 43, "no": 44, "missing": 44, "children": [{"nodeid": 43, "leaf": 0.00704864832}, {"nodeid": 44, "leaf": 0.0180323478}]}, {"nodeid": 22, "depth": 4, "split": "f11", "split_condition": 0.25714156, "yes": 45, "no": 46, "missing": 46, "children": [{"nodeid": 45, "leaf": 0.00765877869}, {"nodeid": 46, "leaf": -0.00910870358}]}]}]}]}, {"nodeid": 2, "depth": 1, "split": "f11", "split_condition": 2.16773677, "yes": 5, "no": 6, "missing": 6, "children": [{"nodeid": 5, "depth": 2, "split": "f11", "split_condition": 1.99999952, "yes": 11, "no": 12, "missing": 12, "children": [{"nodeid": 11, "depth": 3, "split": "f11", "split_condition": 1.87439799, "yes": 23, "no": 24, "missing": 24, "children": [{"nodeid": 23, "depth": 4, "split": "f12", "split_condition": 0.0476999991, "yes": 47, "no": 48, "missing": 48, "children": [{"nodeid": 47, "leaf": 0.00824223645}, {"nodeid": 48, "leaf": 0.014808272}]}, {"nodeid": 24, "leaf": 0.00764010008}]}, {"nodeid": 12, "depth": 3, "split": "f11", "split_condition": 2.08022499, "yes": 25, "no": 26, "missing": 26, "children": [{"nodeid": 25, "leaf": 0.0164256822}, {"nodeid": 26, "leaf": 0.0124824112}]}]}, {"nodeid": 6, "depth": 2, "split": "f11", "split_condition": 2.38890553, "yes": 13, "no": 14, "missing": 14, "children": [{"nodeid": 13, "depth": 3, "split": "f11", "split_condition": 2.2701354, "yes": 27, "no": 28, "missing": 28, "children": [{"nodeid": 27, "depth": 4, "split": "f11", "split_condition": 2.21249986, "yes": 49, "no": 50, "missing": 50, "children": [{"nodeid": 49, "leaf": 0.0148783578}, {"nodeid": 50, "leaf": 0.0224549696}]}, {"nodeid": 28, "leaf": 0.0172731318}]}, {"nodeid": 14, "depth": 3, "split": "f5", "split_condition": 7, "yes": 29, "no": 30, "missing": 30, "children": [{"nodeid": 29, "leaf": 0.0149940317}, {"nodeid": 30, "depth": 4, "split": "f7", "split_condition": 0.629999995, "yes": 51, "no": 52, "missing": 52, "children": [{"nodeid": 51, "leaf": 0.00668029767}, {"nodeid": 52, "leaf": 0.0229138937}]}]}]}]}]}, {"nodeid": 0, "depth": 0, "split": "f11", "split_condition": 1.79999971, "yes": 1, "no": 2, "missing": 2, "children": [{"nodeid": 1, "depth": 1, "split": "f7", "split_condition": 1, "yes": 3, "no": 4, "missing": 4, "children": [{"nodeid": 3, "depth": 2, "split": "f12", "split_condition": 0.0472000018, "yes": 7, "no": 8, "missing": 8, "children": [{"nodeid": 7, "depth": 3, "split": "f7", "split_condition": 0.970000029, "yes": 15, "no": 16, "missing": 16, "children": [{"nodeid": 15, "depth": 4, "split": "f5", "split_condition": 14, "yes": 29, "no": 30, "missing": 30, "children": [{"nodeid": 29, "leaf": -0.00617350498}, {"nodeid": 30, "leaf": 0.00512343505}]}, {"nodeid": 16, "depth": 4, "split": "f11", "split_condition": 0.180952758, "yes": 31, "no": 32, "missing": 32, "children": [{"nodeid": 31, "leaf": 0.0413706452}, {"nodeid": 32, "leaf": 0.00869536772}]}]}, {"nodeid": 8, "depth": 3, "split": "f11", "split_condition": 0.999999762, "yes": 17, "no": 18, "missing": 18, "children": [{"nodeid": 17, "depth": 4, "split": "f10", "split_condition": 0.517857134, "yes": 33, "no": 34, "missing": 34, "children": [{"nodeid": 33, "leaf": -0.0179084409}, {"nodeid": 34, "leaf": -0.00486052223}]}, {"nodeid": 18, "depth": 4, "split": "f11", "split_condition": 1.59999955, "yes": 35, "no": 36, "missing": 36, "children": [{"nodeid": 35, "leaf": -0.00566067779}, {"nodeid": 36, "leaf": 0.0047726389}]}]}]}, {"nodeid": 4, "depth": 2, "split": "f8", "split_condition": 1.00999999, "yes": 9, "no": 10, "missing": 10, "children": [{"nodeid": 9, "depth": 3, "split": "f11", "split_condition": 0.522222877, "yes": 19, "no": 20, "missing": 20, "children": [{"nodeid": 19, "depth": 4, "split": "f11", "split_condition": 0.237498894, "yes": 37, "no": 38, "missing": 38, "children": [{"nodeid": 37, "leaf": 0.00546053564}, {"nodeid": 38, "leaf": 0.0137506817}]}, {"nodeid": 20, "depth": 4, "split": "f12", "split_condition": 0.0493000001, "yes": 39, "no": 40, "missing": 40, "children": [{"nodeid": 39, "leaf": -0.00811619591}, {"nodeid": 40, "leaf": -0.0224403646}]}]}, {"nodeid": 10, "depth": 3, "split": "f11", "split_condition": 0.0999993905, "yes": 21, "no": 22, "missing": 22, "children": [{"nodeid": 21, "depth": 4, "split": "f0", "split_condition": 600, "yes": 41, "no": 42, "missing": 42, "children": [{"nodeid": 41, "leaf": -0.0243000314}, {"nodeid": 42, "leaf": 0.0420678258}]}, {"nodeid": 22, "depth": 4, "split": "f10", "split_condition": 1.28571427, "yes": 43, "no": 44, "missing": 44, "children": [{"nodeid": 43, "leaf": -0.0178469159}, {"nodeid": 44, "leaf": -0.00309141027}]}]}]}]}, {"nodeid": 2, "depth": 1, "split": "f11", "split_condition": 2.16773677, "yes": 5, "no": 6, "missing": 6, "children": [{"nodeid": 5, "depth": 2, "split": "f11", "split_condition": 1.99999952, "yes": 11, "no": 12, "missing": 12, "children": [{"nodeid": 11, "depth": 3, "split": "f6", "split_condition": 1.2105459, "yes": 23, "no": 24, "missing": 24, "children": [{"nodeid": 23, "depth": 4, "split": "f11", "split_condition": 1.87439799, "yes": 45, "no": 46, "missing": 46, "children": [{"nodeid": 45, "leaf": 0.00925628655}, {"nodeid": 46, "leaf": 0.00692994753}]}, {"nodeid": 24, "depth": 4, "split": "f6", "split_condition": 1.2280035, "yes": 47, "no": 48, "missing": 48, "children": [{"nodeid": 47, "leaf": 0.0195613615}, {"nodeid": 48, "leaf": 0.00930639822}]}]}, {"nodeid": 12, "depth": 3, "split": "f11", "split_condition": 2.08022499, "yes": 25, "no": 26, "missing": 26, "children": [{"nodeid": 25, "depth": 4, "split": "f8", "split_condition": 0.709999979, "yes": 49, "no": 50, "missing": 50, "children": [{"nodeid": 49, "leaf": 0.0185295697}, {"nodeid": 50, "leaf": 0.0120402938}]}, {"nodeid": 26, "leaf": 0.0114290519}]}]}, {"nodeid": 6, "depth": 2, "split": "f11", "split_condition": 2.5026238, "yes": 13, "no": 14, "missing": 14, "children": [{"nodeid": 13, "depth": 3, "split": "f11", "split_condition": 2.2701354, "yes": 27, "no": 28, "missing": 28, "children": [{"nodeid": 27, "depth": 4, "split": "f7", "split_condition": 0.670000017, "yes": 51, "no": 52, "missing": 52, "children": [{"nodeid": 51, "leaf": 0.0122368913}, {"nodeid": 52, "leaf": 0.02049057}]}, {"nodeid": 28, "leaf": 0.0161525216}]}, {"nodeid": 14, "leaf": 0.0208671875}]}]}]}, {"nodeid": 0, "depth": 0, "split": "f7", "split_condition": 1, "yes": 1, "no": 2, "missing": 2, "children": [{"nodeid": 1, "depth": 1, "split": "f12", "split_condition": 0.0472000018, "yes": 3, "no": 4, "missing": 4, "children": [{"nodeid": 3, "depth": 2, "split": "f12", "split_condition": 0.0375999995, "yes": 7, "no": 8, "missing": 8, "children": [{"nodeid": 7, "depth": 3, "split": "f5", "split_condition": 12, "yes": 15, "no": 16, "missing": 16, "children": [{"nodeid": 15, "depth": 4, "split": "f8", "split_condition": 0.720000029, "yes": 31, "no": 32, "missing": 32, "children": [{"nodeid": 31, "leaf": 0.00382363936}, {"nodeid": 32, "leaf": -0.00265350658}]}, {"nodeid": 16, "depth": 4, "split": "f9", "split_condition": 0.942691028, "yes": 33, "no": 34, "missing": 34, "children": [{"nodeid": 33, "leaf": 0.0219802503}, {"nodeid": 34, "leaf": 0.00887311902}]}]}, {"nodeid": 8, "depth": 3, "split": "f7", "split_condition": 0.970000029, "yes": 17, "no": 18, "missing": 18, "children": [{"nodeid": 17, "depth": 4, "split": "f9", "split_condition": 1.13194442, "yes": 35, "no": 36, "missing": 36, "children": [{"nodeid": 35, "leaf": 0.00179514312}, {"nodeid": 36, "leaf": -0.0079598818}]}, {"nodeid": 18, "depth": 4, "split": "f8", "split_condition": 1.00999999, "yes": 37, "no": 38, "missing": 38, "children": [{"nodeid": 37, "leaf": 0.0189414583}, {"nodeid": 38, "leaf": -0.0190140456}]}]}]}, {"nodeid": 4, "depth": 2, "split": "f8", "split_condition": 1, "yes": 9, "no": 10, "missing": 10, "children": [{"nodeid": 9, "depth": 3, "split": "f10", "split_condition": 0.517857134, "yes": 19, "no": 20, "missing": 20, "children": [{"nodeid": 19, "depth": 4, "split": "f9", "split_condition": 0.762125194, "yes": 39, "no": 40, "missing": 40, "children": [{"nodeid": 39, "leaf": -0.00189043058}, {"nodeid": 40, "leaf": -0.0136712361}]}, {"nodeid": 20, "depth": 4, "split": "f5", "split_condition": 12, "yes": 41, "no": 42, "missing": 42, "children": [{"nodeid": 41, "leaf": -0.00676983781}, {"nodeid": 42, "leaf": 0.0111968135}]}]}, {"nodeid": 10, "depth": 3, "split": "f9", "split_condition": 1.30570722, "yes": 21, "no": 22, "missing": 22, "children": [{"nodeid": 21, "depth": 4, "split": "f4", "split_condition": 324, "yes": 43, "no": 44, "missing": 44, "children": [{"nodeid": 43, "leaf": -0.0122167068}, {"nodeid": 44, "leaf": -0.0209688079}]}, {"nodeid": 22, "depth": 4, "split": "f12", "split_condition": 0.056499999, "yes": 45, "no": 46, "missing": 46, "children": [{"nodeid": 45, "leaf": -0.0231963135}, {"nodeid": 46, "leaf": -0.0370184407}]}]}]}]}, {"nodeid": 2, "depth": 1, "split": "f8", "split_condition": 1.01999998, "yes": 5, "no": 6, "missing": 6, "children": [{"nodeid": 5, "depth": 2, "split": "f8", "split_condition": 0.99000001, "yes": 11, "no": 12, "missing": 12, "children": [{"nodeid": 11, "depth": 3, "split": "f12", "split_condition": 0.0441999994, "yes": 23, "no": 24, "missing": 24, "children": [{"nodeid": 23, "depth": 4, "split": "f9", "split_condition": 0.654485047, "yes": 47, "no": 48, "missing": 48, "children": [{"nodeid": 47, "leaf": 0.00997868553}, {"nodeid": 48, "leaf": 0.03688078}]}, {"nodeid": 24, "depth": 4, "split": "f10", "split_condition": 1.125, "yes": 49, "no": 50, "missing": 50, "children": [{"nodeid": 49, "leaf": -0.00602399977}, {"nodeid": 50, "leaf": 0.0199459828}]}]}, {"nodeid": 12, "depth": 3, "split": "f7", "split_condition": 1.00999999, "yes": 25, "no": 26, "missing": 26, "children": [{"nodeid": 25, "depth": 4, "split": "f5", "split_condition": 12, "yes": 51, "no": 52, "missing": 52, "children": [{"nodeid": 51, "leaf": 0.00693122111}, {"nodeid": 52, "leaf": 0.0178072974}]}, {"nodeid": 26, "depth": 4, "split": "f10", "split_condition": 0.767857134, "yes": 53, "no": 54, "missing": 54, "children": [{"nodeid": 53, "leaf": -0.0145509457}, {"nodeid": 54, "leaf": 0.00350342435}]}]}]}, {"nodeid": 6, "depth": 2, "split": "f7", "split_condition": 1.19000006, "yes": 13, "no": 14, "missing": 14, "children": [{"nodeid": 13, "depth": 3, "split": "f9", "split_condition": 1.38562381, "yes": 27, "no": 28, "missing": 28, "children": [{"nodeid": 27, "depth": 4, "split": "f10", "split_condition": 1.5, "yes": 55, "no": 56, "missing": 56, "children": [{"nodeid": 55, "leaf": -0.018077122}, {"nodeid": 56, "leaf": 0.00420910865}]}, {"nodeid": 28, "depth": 4, "split": "f8", "split_condition": 1.02999997, "yes": 57, "no": 58, "missing": 58, "children": [{"nodeid": 57, "leaf": 0.0555466823}, {"nodeid": 58, "leaf": -0.00480849668}]}]}, {"nodeid": 14, "depth": 3, "split": "f12", "split_condition": 0.0533000007, "yes": 29, "no": 30, "missing": 30, "children": [{"nodeid": 29, "depth": 4, "split": "f9", "split_condition": 1.19936705, "yes": 59, "no": 60, "missing": 60, "children": [{"nodeid": 59, "leaf": -0.0102490112}, {"nodeid": 60, "leaf": 0.0369878896}]}, {"nodeid": 30, "depth": 4, "split": "f10", "split_condition": 1.51785719, "yes": 61, "no": 62, "missing": 62, "children": [{"nodeid": 61, "leaf": 0.00669053895}, {"nodeid": 62, "leaf": -0.0171516892}]}]}]}]}]}, {"nodeid": 0, "depth": 0, "split": "f11", "split_condition": 1.79999971, "yes": 1, "no": 2, "missing": 2, "children": [{"nodeid": 1, "depth": 1, "split": "f9", "split_condition": 1.28929675, "yes": 3, "no": 4, "missing": 4, "children": [{"nodeid": 3, "depth": 2, "split": "f11", "split_condition": 1.14444423, "yes": 7, "no": 8, "missing": 8, "children": [{"nodeid": 7, "depth": 3, "split": "f12", "split_condition": 0.0397999994, "yes": 15, "no": 16, "missing": 16, "children": [{"nodeid": 15, "depth": 4, "split": "f5", "split_condition": 9, "yes": 29, "no": 30, "missing": 30, "children": [{"nodeid": 29, "leaf": -0.0151568409}, {"nodeid": 30, "leaf": 0.0124969194}]}, {"nodeid": 16, "depth": 4, "split": "f5", "split_condition": 14, "yes": 31, "no": 32, "missing": 32, "children": [{"nodeid": 31, "leaf": -0.0141889369}, {"nodeid": 32, "leaf": -0.00575762894}]}]}, {"nodeid": 8, "depth": 3, "split": "f11", "split_condition": 1.59999955, "yes": 17, "no": 18, "missing": 18, "children": [{"nodeid": 17, "depth": 4, "split": "f11", "split_condition": 1.34444427, "yes": 33, "no": 34, "missing": 34, "children": [{"nodeid": 33, "leaf": -0.00484109204}, {"nodeid": 34, "leaf": -0.00124214473}]}, {"nodeid": 18, "depth": 4, "split": "f12", "split_condition": 0.0581, "yes": 35, "no": 36, "missing": 36, "children": [{"nodeid": 35, "leaf": 0.00397654576}, {"nodeid": 36, "leaf": 0.00951218419}]}]}]}, {"nodeid": 4, "depth": 2, "split": "f11", "split_condition": 0.25714156, "yes": 9, "no": 10, "missing": 10, "children": [{"nodeid": 9, "depth": 3, "split": "f11", "split_condition": 0.253332078, "yes": 19, "no": 20, "missing": 20, "children": [{"nodeid": 19, "depth": 4, "split": "f8", "split_condition": 1, "yes": 37, "no": 38, "missing": 38, "children": [{"nodeid": 37, "leaf": 0.00828368124}, {"nodeid": 38, "leaf": -0.00153782498}]}, {"nodeid": 20, "depth": 4, "split": "f0", "split_condition": 330, "yes": 39, "no": 40, "missing": 40, "children": [{"nodeid": 39, "leaf": 0.0463153981}, {"nodeid": 40, "leaf": -0.00838665385}]}]}, {"nodeid": 10, "depth": 3, "split": "f5", "split_condition": 12, "yes": 21, "no": 22, "missing": 22, "children": [{"nodeid": 21, "depth": 4, "split": "f11", "split_condition": 0.278571367, "yes": 41, "no": 42, "missing": 42, "children": [{"nodeid": 41, "leaf": -0.0110966284}, {"nodeid": 42, "leaf": -0.0251055136}]}, {"nodeid": 22, "depth": 4, "split": "f12", "split_condition": 0.0599999987, "yes": 43, "no": 44, "missing": 44, "children": [{"nodeid": 43, "leaf": 0.00839585532}, {"nodeid": 44, "leaf": -0.00799868815}]}]}]}]}, {"nodeid": 2, "depth": 1, "split": "f11", "split_condition": 2.16773677, "yes": 5, "no": 6, "missing": 6, "children": [{"nodeid": 5, "depth": 2, "split": "f11", "split_condition": 1.99999952, "yes": 11, "no": 12, "missing": 12, "children": [{"nodeid": 11, "depth": 3, "split": "f12", "split_condition": 0.0480000004, "yes": 23, "no": 24, "missing": 24, "children": [{"nodeid": 23, "depth": 4, "split": "f5", "split_condition": 14, "yes": 45, "no": 46, "missing": 46, "children": [{"nodeid": 45, "leaf": 0.00590471365}, {"nodeid": 46, "leaf": 0.00815831218}]}, {"nodeid": 24, "depth": 4, "split": "f5", "split_condition": 9, "yes": 47, "no": 48, "missing": 48, "children": [{"nodeid": 47, "leaf": 0.0102915633}, {"nodeid": 48, "leaf": 0.0066600102}]}]}, {"nodeid": 12, "depth": 3, "split": "f12", "split_condition": 0.0478999987, "yes": 25, "no": 26, "missing": 26, "children": [{"nodeid": 25, "depth": 4, "split": "f6", "split_condition": 1.13574588, "yes": 49, "no": 50, "missing": 50, "children": [{"nodeid": 49, "leaf": 0.0106661087}, {"nodeid": 50, "leaf": 0.0056710788}]}, {"nodeid": 26, "depth": 4, "split": "f11", "split_condition": 2.08022499, "yes": 51, "no": 52, "missing": 52, "children": [{"nodeid": 51, "leaf": 0.0183421317}, {"nodeid": 52, "leaf": 0.011284302}]}]}]}, {"nodeid": 6, "depth": 2, "split": "f11", "split_condition": 2.5026238, "yes": 13, "no": 14, "missing": 14, "children": [{"nodeid": 13, "depth": 3, "split": "f12", "split_condition": 0.0485000014, "yes": 27, "no": 28, "missing": 28, "children": [{"nodeid": 27, "depth": 4, "split": "f11", "split_condition": 2.21249986, "yes": 53, "no": 54, "missing": 54, "children": [{"nodeid": 53, "leaf": 0.00607119827}, {"nodeid": 54, "leaf": 0.0156265702}]}, {"nodeid": 28, "depth": 4, "split": "f11", "split_condition": 2.2701354, "yes": 55, "no": 56, "missing": 56, "children": [{"nodeid": 55, "leaf": 0.0210660379}, {"nodeid": 56, "leaf": 0.0150272092}]}]}, {"nodeid": 14, "leaf": 0.0191470757}]}]}]}, {"nodeid": 0, "depth": 0, "split": "f7", "split_condition": 1, "yes": 1, "no": 2, "missing": 2, "children": [{"nodeid": 1, "depth": 1, "split": "f12", "split_condition": 0.0498999991, "yes": 3, "no": 4, "missing": 4, "children": [{"nodeid": 3, "depth": 2, "split": "f9", "split_condition": 1.40211201, "yes": 7, "no": 8, "missing": 8, "children": [{"nodeid": 7, "depth": 3, "split": "f9", "split_condition": 1.09806597, "yes": 15, "no": 16, "missing": 16, "children": [{"nodeid": 15, "depth": 4, "split": "f10", "split_condition": 0.178571433, "yes": 31, "no": 32, "missing": 32, "children": [{"nodeid": 31, "leaf": -0.00142170489}, {"nodeid": 32, "leaf": 0.00737504801}]}, {"nodeid": 16, "depth": 4, "split": "f7", "split_condition": 0.99000001, "yes": 33, "no": 34, "missing": 34, "children": [{"nodeid": 33, "leaf": -0.00750998082}, {"nodeid": 34, "leaf": 0.0122190379}]}]}, {"nodeid": 8, "depth": 3, "split": "f12", "split_condition": 0.0443000011, "yes": 17, "no": 18, "missing": 18, "children": [{"nodeid": 17, "depth": 4, "split": "f8", "split_condition": 0.920000017, "yes": 35, "no": 36, "missing": 36, "children": [{"nodeid": 35, "leaf": 0.00947142113}, {"nodeid": 36, "leaf": -0.0103283506}]}, {"nodeid": 18, "depth": 4, "split": "f0", "split_condition": 600, "yes": 37, "no": 38, "missing": 38, "children": [{"nodeid": 37, "leaf": 0.0125585664}, {"nodeid": 38, "leaf": 0.0365881547}]}]}]}, {"nodeid": 4, "depth": 2, "split": "f8", "split_condition": 1, "yes": 9, "no": 10, "missing": 10, "children": [{"nodeid": 9, "depth": 3, "split": "f10", "split_condition": 0.714285731, "yes": 19, "no": 20, "missing": 20, "children": [{"nodeid": 19, "depth": 4, "split": "f9", "split_condition": 0.794808209, "yes": 39, "no": 40, "missing": 40, "children": [{"nodeid": 39, "leaf": -0.00294690393}, {"nodeid": 40, "leaf": -0.0126172947}]}, {"nodeid": 20, "depth": 4, "split": "f5", "split_condition": 12, "yes": 41, "no": 42, "missing": 42, "children": [{"nodeid": 41, "leaf": -0.00568479393}, {"nodeid": 42, "leaf": 0.0155126536}]}]}, {"nodeid": 10, "depth": 3, "split": "f9", "split_condition": 1.36781192, "yes": 21, "no": 22, "missing": 22, "children": [{"nodeid": 21, "depth": 4, "split": "f9", "split_condition": 1.3536706, "yes": 43, "no": 44, "missing": 44, "children": [{"nodeid": 43, "leaf": -0.0209379196}, {"nodeid": 44, "leaf": 0.00186631596}]}, {"nodeid": 22, "depth": 4, "split": "f8", "split_condition": 1.00999999, "yes": 45, "no": 46, "missing": 46, "children": [{"nodeid": 45, "leaf": -0.0413143374}, {"nodeid": 46, "leaf": -0.0106403874}]}]}]}]}, {"nodeid": 2, "depth": 1, "split": "f8", "split_condition": 1.01999998, "yes": 5, "no": 6, "missing": 6, "children": [{"nodeid": 5, "depth": 2, "split": "f7", "split_condition": 1.00999999, "yes": 11, "no": 12, "missing": 12, "children": [{"nodeid": 11, "depth": 3, "split": "f9", "split_condition": 1.38738704, "yes": 23, "no": 24, "missing": 24, "children": [{"nodeid": 23, "depth": 4, "split": "f9", "split_condition": 1.26207054, "yes": 47, "no": 48, "missing": 48, "children": [{"nodeid": 47, "leaf": -0.014329751}, {"nodeid": 48, "leaf": 0.0129432362}]}, {"nodeid": 24, "depth": 4, "split": "f12", "split_condition": 0.0599999987, "yes": 49, "no": 50, "missing": 50, "children": [{"nodeid": 49, "leaf": 0.00698423292}, {"nodeid": 50, "leaf": -0.00655556144}]}]}, {"nodeid": 12, "depth": 3, "split": "f8", "split_condition": 0.99000001, "yes": 25, "no": 26, "missing": 26, "children": [{"nodeid": 25, "depth": 4, "split": "f9", "split_condition": 1.41776669, "yes": 51, "no": 52, "missing": 52, "children": [{"nodeid": 51, "leaf": 0.0143818902}, {"nodeid": 52, "leaf": 0.0346427225}]}, {"nodeid": 26, "depth": 4, "split": "f10", "split_condition": 0.607142866, "yes": 53, "no": 54, "missing": 54, "children": [{"nodeid": 53, "leaf": -0.0275038183}, {"nodeid": 54, "leaf": 0.00108454213}]}]}]}, {"nodeid": 6, "depth": 2, "split": "f7", "split_condition": 1.13999999, "yes": 13, "no": 14, "missing": 14, "children": [{"nodeid": 13, "depth": 3, "split": "f9", "split_condition": 1.38991868, "yes": 27, "no": 28, "missing": 28, "children": [{"nodeid": 27, "depth": 4, "split": "f10", "split_condition": 1.5, "yes": 55, "no": 56, "missing": 56, "children": [{"nodeid": 55, "leaf": -0.0179289095}, {"nodeid": 56, "leaf": 0.00741880387}]}, {"nodeid": 28, "depth": 4, "split": "f6", "split_condition": 1.20838666, "yes": 57, "no": 58, "missing": 58, "children": [{"nodeid": 57, "leaf": -0.0261600986}, {"nodeid": 58, "leaf": 0.04583266}]}]}, {"nodeid": 14, "depth": 3, "split": "f10", "split_condition": 1.58928573, "yes": 29, "no": 30, "missing": 30, "children": [{"nodeid": 29, "depth": 4, "split": "f6", "split_condition": 1.20567596, "yes": 59, "no": 60, "missing": 60, "children": [{"nodeid": 59, "leaf": -0.00794996787}, {"nodeid": 60, "leaf": 0.0217300616}]}, {"nodeid": 30, "depth": 4, "split": "f8", "split_condition": 1.04999995, "yes": 61, "no": 62, "missing": 62, "children": [{"nodeid": 61, "leaf": 0.0224593785}, {"nodeid": 62, "leaf": -0.0227115843}]}]}]}]}]}, {"nodeid": 0, "depth": 0, "split": "f11", "split_condition": 1.60000014, "yes": 1, "no": 2, "missing": 2, "children": [{"nodeid": 1, "depth": 1, "split": "f11", "split_condition": 0.522222877, "yes": 3, "no": 4, "missing": 4, "children": [{"nodeid": 3, "depth": 2, "split": "f8", "split_condition": 1.00999999, "yes": 7, "no": 8, "missing": 8, "children": [{"nodeid": 7, "depth": 3, "split": "f7", "split_condition": 1, "yes": 15, "no": 16, "missing": 16, "children": [{"nodeid": 15, "depth": 4, "split": "f5", "split_condition": 12, "yes": 31, "no": 32, "missing": 32, "children": [{"nodeid": 31, "leaf": -0.0110332472}, {"nodeid": 32, "leaf": 0.00280712103}]}, {"nodeid": 16, "depth": 4, "split": "f9", "split_condition": 1.32125056, "yes": 33, "no": 34, "missing": 34, "children": [{"nodeid": 33, "leaf": 0.019084176}, {"nodeid": 34, "leaf": 0.005571777}]}]}, {"nodeid": 8, "depth": 3, "split": "f11", "split_condition": 0.0999993905, "yes": 17, "no": 18, "missing": 18, "children": [{"nodeid": 17, "depth": 4, "split": "f7", "split_condition": 1.08000004, "yes": 35, "no": 36, "missing": 36, "children": [{"nodeid": 35, "leaf": -0.0159768891}, {"nodeid": 36, "leaf": 0.0364003778}]}, {"nodeid": 18, "depth": 4, "split": "f9", "split_condition": 1.34909582, "yes": 37, "no": 38, "missing": 38, "children": [{"nodeid": 37, "leaf": -0.0187924337}, {"nodeid": 38, "leaf": -0.00407908903}]}]}]}, {"nodeid": 4, "depth": 2, "split": "f11", "split_condition": 0.937558532, "yes": 9, "no": 10, "missing": 10, "children": [{"nodeid": 9, "depth": 3, "split": "f11", "split_condition": 0.737350464, "yes": 19, "no": 20, "missing": 20, "children": [{"nodeid": 19, "depth": 4, "split": "f12", "split_condition": 0.0461999997, "yes": 39, "no": 40, "missing": 40, "children": [{"nodeid": 39, "leaf": -0.025455622}, {"nodeid": 40, "leaf": -0.0169221535}]}, {"nodeid": 20, "depth": 4, "split": "f9", "split_condition": 0.982730567, "yes": 41, "no": 42, "missing": 42, "children": [{"nodeid": 41, "leaf": -0.0129217403}, {"nodeid": 42, "leaf": -0.00554803479}]}]}, {"nodeid": 10, "depth": 3, "split": "f11", "split_condition": 1.34444427, "yes": 21, "no": 22, "missing": 22, "children": [{"nodeid": 21, "depth": 4, "split": "f9", "split_condition": 0.93601191, "yes": 43, "no": 44, "missing": 44, "children": [{"nodeid": 43, "leaf": -0.00711715315}, {"nodeid": 44, "leaf": -0.000759568473}]}, {"nodeid": 22, "depth": 4, "split": "f9", "split_condition": 0.757007241, "yes": 45, "no": 46, "missing": 46, "children": [{"nodeid": 45, "leaf": -0.00170483929}, {"nodeid": 46, "leaf": 0.00349460077}]}]}]}]}, {"nodeid": 2, "depth": 1, "split": "f11", "split_condition": 1.99999952, "yes": 5, "no": 6, "missing": 6, "children": [{"nodeid": 5, "depth": 2, "split": "f11", "split_condition": 1.66363561, "yes": 11, "no": 12, "missing": 12, "children": [{"nodeid": 11, "depth": 3, "split": "f5", "split_condition": 9, "yes": 23, "no": 24, "missing": 24, "children": [{"nodeid": 23, "leaf": 0.013940149}, {"nodeid": 24, "depth": 4, "split": "f5", "split_condition": 12, "yes": 47, "no": 48, "missing": 48, "children": [{"nodeid": 47, "leaf": 4.76624373e-05}, {"nodeid": 48, "leaf": 0.00883373804}]}]}, {"nodeid": 12, "depth": 3, "split": "f11", "split_condition": 1.79999971, "yes": 25, "no": 26, "missing": 26, "children": [{"nodeid": 25, "depth": 4, "split": "f8", "split_condition": 0.959999979, "yes": 49, "no": 50, "missing": 50, "children": [{"nodeid": 49, "leaf": 0.0031896492}, {"nodeid": 50, "leaf": 0.0175082162}]}, {"nodeid": 26, "depth": 4, "split": "f12", "split_condition": 0.0480000004, "yes": 51, "no": 52, "missing": 52, "children": [{"nodeid": 51, "leaf": 0.00580475898}, {"nodeid": 52, "leaf": 0.00840176549}]}]}]}, {"nodeid": 6, "depth": 2, "split": "f11", "split_condition": 2.21249986, "yes": 13, "no": 14, "missing": 14, "children": [{"nodeid": 13, "depth": 3, "split": "f12", "split_condition": 0.0485999994, "yes": 27, "no": 28, "missing": 28, "children": [{"nodeid": 27, "depth": 4, "split": "f11", "split_condition": 2.16773677, "yes": 53, "no": 54, "missing": 54, "children": [{"nodeid": 53, "leaf": 0.00955500081}, {"nodeid": 54, "leaf": 0.00562470173}]}, {"nodeid": 28, "depth": 4, "split": "f9", "split_condition": 0.605599642, "yes": 55, "no": 56, "missing": 56, "children": [{"nodeid": 55, "leaf": 0.0198349133}, {"nodeid": 56, "leaf": 0.0117705129}]}]}, {"nodeid": 14, "depth": 3, "split": "f11", "split_condition": 2.5026238, "yes": 29, "no": 30, "missing": 30, "children": [{"nodeid": 29, "depth": 4, "split": "f11", "split_condition": 2.2701354, "yes": 57, "no": 58, "missing": 58, "children": [{"nodeid": 57, "leaf": 0.0174861327}, {"nodeid": 58, "leaf": 0.0134357903}]}, {"nodeid": 30, "leaf": 0.0175444428}]}]}]}]}, {"nodeid": 0, "depth": 0, "split": "f11", "split_condition": 1.60000014, "yes": 1, "no": 2, "missing": 2, "children": [{"nodeid": 1, "depth": 1, "split": "f10", "split_condition": 0.321428567, "yes": 3, "no": 4, "missing": 4, "children": [{"nodeid": 3, "depth": 2, "split": "f12", "split_condition": 0.0373000018, "yes": 7, "no": 8, "missing": 8, "children": [{"nodeid": 7, "depth": 3, "split": "f5", "split_condition": 14, "yes": 15, "no": 16, "missing": 16, "children": [{"nodeid": 15, "depth": 4, "split": "f5", "split_condition": 9, "yes": 31, "no": 32, "missing": 32, "children": [{"nodeid": 31, "leaf": -0.00536531815}, {"nodeid": 32, "leaf": 0.0032472515}]}, {"nodeid": 16, "depth": 4, "split": "f7", "split_condition": 0.899999976, "yes": 33, "no": 34, "missing": 34, "children": [{"nodeid": 33, "leaf": 0.0254663751}, {"nodeid": 34, "leaf": 0.00390516012}]}]}, {"nodeid": 8, "depth": 3, "split": "f11", "split_condition": 1, "yes": 17, "no": 18, "missing": 18, "children": [{"nodeid": 17, "depth": 4, "split": "f0", "split_condition": 600, "yes": 35, "no": 36, "missing": 36, "children": [{"nodeid": 35, "leaf": -0.0119926035}, {"nodeid": 36, "leaf": -0.0203056931}]}, {"nodeid": 18, "depth": 4, "split": "f11", "split_condition": 1.34444427, "yes": 37, "no": 38, "missing": 38, "children": [{"nodeid": 37, "leaf": -0.00538321072}, {"nodeid": 38, "leaf": -0.000754196546}]}]}]}, {"nodeid": 4, "depth": 2, "split": "f5", "split_condition": 12, "yes": 9, "no": 10, "missing": 10, "children": [{"nodeid": 9, "depth": 3, "split": "f9", "split_condition": 1.35229278, "yes": 19, "no": 20, "missing": 20, "children": [{"nodeid": 19, "depth": 4, "split": "f11", "split_condition": 0.901404798, "yes": 39, "no": 40, "missing": 40, "children": [{"nodeid": 39, "leaf": -0.0167278834}, {"nodeid": 40, "leaf": -0.00347831752}]}, {"nodeid": 20, "depth": 4, "split": "f8", "split_condition": 1, "yes": 41, "no": 42, "missing": 42, "children": [{"nodeid": 41, "leaf": 0.00718864566}, {"nodeid": 42, "leaf": -0.00590370456}]}]}, {"nodeid": 10, "depth": 3, "split": "f10", "split_condition": 0.839285731, "yes": 21, "no": 22, "missing": 22, "children": [{"nodeid": 21, "depth": 4, "split": "f12", "split_condition": 0.0555000007, "yes": 43, "no": 44, "missing": 44, "children": [{"nodeid": 43, "leaf": 0.00937648863}, {"nodeid": 44, "leaf": -0.00462505966}]}, {"nodeid": 22, "depth": 4, "split": "f12", "split_condition": 0.0533000007, "yes": 45, "no": 46, "missing": 46, "children": [{"nodeid": 45, "leaf": 0.0278452989}, {"nodeid": 46, "leaf": 0.0115234675}]}]}]}]}, {"nodeid": 2, "depth": 1, "split": "f11", "split_condition": 1.99999952, "yes": 5, "no": 6, "missing": 6, "children": [{"nodeid": 5, "depth": 2, "split": "f12", "split_condition": 0.0571999997, "yes": 11, "no": 12, "missing": 12, "children": [{"nodeid": 11, "depth": 3, "split": "f11", "split_condition": 1.83333433, "yes": 23, "no": 24, "missing": 24, "children": [{"nodeid": 23, "depth": 4, "split": "f5", "split_condition": 7, "yes": 47, "no": 48, "missing": 48, "children": [{"nodeid": 47, "leaf": 0.00601605978}, {"nodeid": 48, "leaf": 0.00307233562}]}, {"nodeid": 24, "depth": 4, "split": "f6", "split_condition": 1.2105459, "yes": 49, "no": 50, "missing": 50, "children": [{"nodeid": 49, "leaf": 0.00554333534}, {"nodeid": 50, "leaf": 0.00985806994}]}]}, {"nodeid": 12, "depth": 3, "split": "f11", "split_condition": 1.72202075, "yes": 25, "no": 26, "missing": 26, "children": [{"nodeid": 25, "depth": 4, "split": "f5", "split_condition": 12, "yes": 51, "no": 52, "missing": 52, "children": [{"nodeid": 51, "leaf": 0.011841502}, {"nodeid": 52, "leaf": -0.000151267042}]}, {"nodeid": 26, "depth": 4, "split": "f11", "split_condition": 1.79999971, "yes": 53, "no": 54, "missing": 54, "children": [{"nodeid": 53, "leaf": 0.00156243052}, {"nodeid": 54, "leaf": 0.00800280925}]}]}]}, {"nodeid": 6, "depth": 2, "split": "f11", "split_condition": 2.21249986, "yes": 13, "no": 14, "missing": 14, "children": [{"nodeid": 13, "depth": 3, "split": "f12", "split_condition": 0.0485999994, "yes": 27, "no": 28, "missing": 28, "children": [{"nodeid": 27, "depth": 4, "split": "f11", "split_condition": 2.16773677, "yes": 55, "no": 56, "missing": 56, "children": [{"nodeid": 55, "leaf": 0.00891335588}, {"nodeid": 56, "leaf": 0.00522816228}]}, {"nodeid": 28, "depth": 4, "split": "f12", "split_condition": 0.0498000011, "yes": 57, "no": 58, "missing": 58, "children": [{"nodeid": 57, "leaf": 0.0194542743}, {"nodeid": 58, "leaf": 0.0112688439}]}]}, {"nodeid": 14, "depth": 3, "split": "f11", "split_condition": 2.5026238, "yes": 29, "no": 30, "missing": 30, "children": [{"nodeid": 29, "depth": 4, "split": "f11", "split_condition": 2.2701354, "yes": 59, "no": 60, "missing": 60, "children": [{"nodeid": 59, "leaf": 0.0159452464}, {"nodeid": 60, "leaf": 0.0125434371}]}, {"nodeid": 30, "leaf": 0.0161546953}]}]}]}]}, {"nodeid": 0, "depth": 0, "split": "f7", "split_condition": 1, "yes": 1, "no": 2, "missing": 2, "children": [{"nodeid": 1, "depth": 1, "split": "f12", "split_condition": 0.0498999991, "yes": 3, "no": 4, "missing": 4, "children": [{"nodeid": 3, "depth": 2, "split": "f12", "split_condition": 0.0375999995, "yes": 7, "no": 8, "missing": 8, "children": [{"nodeid": 7, "depth": 3, "split": "f5", "split_condition": 12, "yes": 15, "no": 16, "missing": 16, "children": [{"nodeid": 15, "depth": 4, "split": "f7", "split_condition": 0.680000007, "yes": 31, "no": 32, "missing": 32, "children": [{"nodeid": 31, "leaf": -0.000820829766}, {"nodeid": 32, "leaf": 0.00443856185}]}, {"nodeid": 16, "depth": 4, "split": "f9", "split_condition": 0.932664931, "yes": 33, "no": 34, "missing": 34, "children": [{"nodeid": 33, "leaf": 0.0228767302}, {"nodeid": 34, "leaf": 0.00717275171}]}]}, {"nodeid": 8, "depth": 3, "split": "f9", "split_condition": 1.40211201, "yes": 17, "no": 18, "missing": 18, "children": [{"nodeid": 17, "depth": 4, "split": "f0", "split_condition": 500, "yes": 35, "no": 36, "missing": 36, "children": [{"nodeid": 35, "leaf": 0.00263990415}, {"nodeid": 36, "leaf": -0.00313992403}]}, {"nodeid": 18, "depth": 4, "split": "f12", "split_condition": 0.0443000011, "yes": 37, "no": 38, "missing": 38, "children": [{"nodeid": 37, "leaf": -0.0022189836}, {"nodeid": 38, "leaf": 0.0229094736}]}]}]}, {"nodeid": 4, "depth": 2, "split": "f0", "split_condition": 500, "yes": 9, "no": 10, "missing": 10, "children": 