{"feature_names": ["h (mm)", "b (mm)", "tw (mm)", "tf (mm)", "fy (MPa)", "2L/h", "My_Mp", "Omega_s"], "base_score": 1.4987048, "trees": [{"nodeid": 0, "depth": 0, "split": "f7", "split_condition": 1.11563408, "yes": 1, "no": 2, "missing": 2, "children": [{"nodeid": 1, "depth": 1, "split": "f5", "split_condition": 9, "yes": 3, "no": 4, "missing": 4, "children": [{"nodeid": 3, "depth": 2, "split": "f0", "split_condition": 600, "yes": 7, "no": 8, "missing": 8, "children": [{"nodeid": 7, "depth": 3, "split": "f7", "split_condition": 1.08528912, "yes": 15, "no": 16, "missing": 16, "children": [{"nodeid": 15, "leaf": -0.0354105644}, {"nodeid": 16, "leaf": -0.0298128184}]}, {"nodeid": 8, "depth": 3, "split": "f6", "split_condition": 1.10356748, "yes": 17, "no": 18, "missing": 18, "children": [{"nodeid": 17, "leaf": -0.0311401431}, {"nodeid": 18, "leaf": -0.0150290309}]}]}, {"nodeid": 4, "depth": 2, "split": "f6", "split_condition": 1.11027539, "yes": 9, "no": 10, "missing": 10, "children": [{"nodeid": 9, "depth": 3, "split": "f7", "split_condition": 1.05893385, "yes": 19, "no": 20, "missing": 20, "children": [{"nodeid": 19, "leaf": -0.0219861157}, {"nodeid": 20, "leaf": -0.00961904507}]}, {"nodeid": 10, "depth": 3, "split": "f6", "split_condition": 1.25963318, "yes": 21, "no": 22, "missing": 22, "children": [{"nodeid": 21, "leaf": -0.0049960101}, {"nodeid": 22, "leaf": 0.00953613687}]}]}]}, {"nodeid": 2, "depth": 1, "split": "f6", "split_condition": 0.775436401, "yes": 5, "no": 6, "missing": 6, "children": [{"nodeid": 5, "depth": 2, "split": "f7", "split_condition": 1.28120446, "yes": 11, "no": 12, "missing": 12, "children": [{"nodeid": 11, "depth": 3, "split": "f7", "split_condition": 1.20956337, "yes": 23, "no": 24, "missing": 24, "children": [{"nodeid": 23, "leaf": -0.0283267889}, {"nodeid": 24, "leaf": -0.0129498243}]}, {"nodeid": 12, "depth": 3, "split": "f7", "split_condition": 1.38518214, "yes": 25, "no": 26, "missing": 26, "children": [{"nodeid": 25, "leaf": 0.00814540312}, {"nodeid": 26, "leaf": 0.0282604229}]}]}, {"nodeid": 6, "depth": 2, "split": "f7", "split_condition": 1.14896381, "yes": 13, "no": 14, "missing": 14, "children": [{"nodeid": 13, "depth": 3, "split": "f6", "split_condition": 1.03494024, "yes": 27, "no": 28, "missing": 28, "children": [{"nodeid": 27, "leaf": -0.0123411221}, {"nodeid": 28, "leaf": 0.00851312932}]}, {"nodeid": 14, "depth": 3, "split": "f5", "split_condition": 7, "yes": 29, "no": 30, "missing": 30, "children": [{"nodeid": 29, "leaf": 0.0157193691}, {"nodeid": 30, "leaf": 0.0229264461}]}]}]}]}, {"nodeid": 0, "depth": 0, "split": "f7", "split_condition": 1.11563408, "yes": 1, "no": 2, "missing": 2, "children": [{"nodeid": 1, "depth": 1, "split": "f5", "split_condition": 9, "yes": 3, "no": 4, "missing": 4, "children": [{"nodeid": 3, "depth": 2, "split": "f7", "split_condition": 1.10006261, "yes": 7, "no": 8, "missing": 8, "children": [{"nodeid": 7, "depth": 3, "split": "f6", "split_condition": 1.09273303, "yes": 15, "no": 16, "missing": 16, "children": [{"nodeid": 15, "leaf": -0.0337279104}, {"nodeid": 16, "leaf": -0.0266990121}]}, {"nodeid": 8, "depth": 3, "split": "f4", "split_condition": 395, "yes": 17, "no": 18, "missing": 18, "children": [{"nodeid": 17, "leaf": -0.0289533716}, {"nodeid": 18, "leaf": -0.0101575935}]}]}, {"nodeid": 4, "depth": 2, "split": "f6", "split_condition": 1.11027539, "yes": 9, "no": 10, "missing": 10, "children": [{"nodeid": 9, "depth": 3, "split": "f7", "split_condition": 1.05893385, "yes": 19, "no": 20, "missing": 20, "children": [{"nodeid": 19, "leaf": -0.0203868225}, {"nodeid": 20, "leaf": -0.00911024306}]}, {"nodeid": 10, "depth": 3, "split": "f5", "split_condition": 12, "yes": 21, "no": 22, "missing": 22, "children": [{"nodeid": 21, "leaf": -0.011978494}, {"nodeid": 22, "leaf": 0.00155082601}]}]}]}, {"nodeid": 2, "depth": 1, "split": "f7", "split_condition": 1.14896381, "yes": 5, "no": 6, "missing": 6, "children": [{"nodeid": 5, "depth": 2, "split": "f6", "split_condition": 1.03494024, "yes": 11, "no": 12, "missing": 12, "children": [{"nodeid": 11, "depth": 3, "split": "f6", "split_condition": 0.760959983, "yes": 23, "no": 24, "missing": 24, "children": [{"nodeid": 23, "leaf": -0.0330828093}, {"nodeid": 24, "leaf": -0.0102216369}]}, {"nodeid": 12, "depth": 3, "split": "f4", "split_condition": 395, "yes": 25, "no": 26, "missing": 26, "children": [{"nodeid": 25, "leaf": 0.00252172817}, {"nodeid": 26, "leaf": 0.0145494705}]}]}, {"nodeid": 6, "depth": 2, "split": "f6", "split_condition": 0.716816545, "yes": 13, "no": 14, "missing": 14, "children": [{"nodeid": 13, "depth": 3, "split": "f7", "split_condition": 1.33335638, "yes": 27, "no": 28, "missing": 28, "children": [{"nodeid": 27, "leaf": -0.0176521018}, {"nodeid": 28, "leaf": 0.0204303842}]}, {"nodeid": 14, "depth": 3, "split": "f5", "split_condition": 7, "yes": 29, "no": 30, "missing": 30, "children": [{"nodeid": 29, "leaf": 0.0148718134}, {"nodeid": 30, "leaf": 0.0216528904}]}]}]}]}, {"nodeid": 0, "depth": 0, "split": "f7", "split_condition": 1.11563408, "yes": 1, "no": 2, "missing": 2, "children": [{"nodeid": 1, "depth": 1, "split": "f5", "split_condition": 12, "yes": 3, "no": 4, "missing": 4, "children": [{"nodeid": 3, "depth": 2, "split": "f5", "split_condition": 9, "yes": 7, "no": 8, "missing": 8, "children": [{"nodeid": 7, "depth": 3, "split": "f1", "split_condition": 220, "yes": 15, "no": 16, "missing": 16, "children": [{"nodeid": 15, "leaf": -0.0305393022}, {"nodeid": 16, "leaf": -0.0186943393}]}, {"nodeid": 8, "depth": 3, "split": "f7", "split_condition": 1.06689727, "yes": 17, "no": 18, "missing": 18, "children": [{"nodeid": 17, "leaf": -0.0236186832}, {"nodeid": 18, "leaf": -0.00893896352}]}]}, {"nodeid": 4, "depth": 2, "split": "f6", "split_condition": 1.15040302, "yes": 9, "no": 10, "missing": 10, "children": [{"nodeid": 9, "depth": 3, "split": "f6", "split_condition": 1.02407825, "yes": 19, "no": 20, "missing": 20, "children": [{"nodeid": 19, "leaf": -0.0178327914}, {"nodeid": 20, "leaf": -0.00649868185}]}, {"nodeid": 10, "depth": 3, "split": "f1", "split_condition": 200, "yes": 21, "no": 22, "missing": 22, "children": [{"nodeid": 21, "leaf": -0.00493182801}, {"nodeid": 22, "leaf": 0.0106418096}]}]}]}, {"nodeid": 2, "depth": 1, "split": "f6", "split_condition": 0.775436401, "yes": 5, "no": 6, "missing": 6, "children": [{"nodeid": 5, "depth": 2, "split": "f7", "split_condition": 1.28120446, "yes": 11, "no": 12, "missing": 12, "children": [{"nodeid": 11, "depth": 3, "split": "f5", "split_condition": 9, "yes": 23, "no": 24, "missing": 24, "children": [{"nodeid": 23, "leaf": -0.0210438203}, {"nodeid": 24, "leaf": 0.0204109736}]}, {"nodeid": 12, "depth": 3, "split": "f7", "split_condition": 1.40558684, "yes": 25, "no": 26, "missing": 26, "children": [{"nodeid": 25, "leaf": 0.00833859202}, {"nodeid": 26, "leaf": 0.0282637328}]}]}, {"nodeid": 6, "depth": 2, "split": "f7", "split_condition": 1.14896381, "yes": 13, "no": 14, "missing": 14, "children": [{"nodeid": 13, "depth": 3, "split": "f5", "split_condition": 9, "yes": 27, "no": 28, "missing": 28, "children": [{"nodeid": 27, "leaf": -0.00201744097}, {"nodeid": 28, "leaf": 0.00937643554}]}, {"nodeid": 14, "depth": 3, "split": "f7", "split_condition": 1.2182014, "yes": 29, "no": 30, "missing": 30, "children": [{"nodeid": 29, "leaf": 0.016596714}, {"nodeid": 30, "leaf": 0.0242928378}]}]}]}]}, {"nodeid": 0, "depth": 0, "split": "f7", "split_condition": 1.11563408, "yes": 1, "no": 2, "missing": 2, "children": [{"nodeid": 1, "depth": 1, "split": "f5", "split_condition": 12, "yes": 3, "no": 4, "missing": 4, "children": [{"nodeid": 3, "depth": 2, "split": "f5", "split_condition": 9, "yes": 7, "no": 8, "missing": 8, "children": [{"nodeid": 7, "depth": 3, "split": "f7", "split_condition": 1.09928751, "yes": 15, "no": 16, "missing": 16, "children": [{"nodeid": 15, "leaf": -0.0286555272}, {"nodeid": 16, "leaf": -0.018571943}]}, {"nodeid": 8, "depth": 3, "split": "f7", "split_condition": 1.07479143, "yes": 17, "no": 18, "missing": 18, "children": [{"nodeid": 17, "leaf": -0.0212289635}, {"nodeid": 18, "leaf": -0.00685265055}]}]}, {"nodeid": 4, "depth": 2, "split": "f0", "split_condition": 600, "yes": 9, "no": 10, "missing": 10, "children": [{"nodeid": 9, "depth": 3, "split": "f7", "split_condition": 1.02728927, "yes": 19, "no": 20, "missing": 20, "children": [{"nodeid": 19, "leaf": -0.0160365943}, {"nodeid": 20, "leaf": -0.006810294}]}, {"nodeid": 10, "depth": 3, "split": "f7", "split_condition": 1.07052004, "yes": 21, "no": 22, "missing": 22, "children": [{"nodeid": 21, "leaf": -0.00510818465}, {"nodeid": 22, "leaf": 0.00757411076}]}]}]}, {"nodeid": 2, "depth": 1, "split": "f7", "split_condition": 1.14778948, "yes": 5, "no": 6, "missing": 6, "children": [{"nodeid": 5, "depth": 2, "split": "f5", "split_condition": 9, "yes": 11, "no": 12, "missing": 12, "children": [{"nodeid": 11, "depth": 3, "split": "f4", "split_condition": 395, "yes": 23, "no": 24, "missing": 24, "children": [{"nodeid": 23, "leaf": -0.0219248161}, {"nodeid": 24, "leaf": 0.00766511867}]}, {"nodeid": 12, "depth": 3, "split": "f0", "split_condition": 600, "yes": 25, "no": 26, "missing": 26, "children": [{"nodeid": 25, "leaf": 0.0105529251}, {"nodeid": 26, "leaf": -0.00193465594}]}]}, {"nodeid": 6, "depth": 2, "split": "f5", "split_condition": 7, "yes": 13, "no": 14, "missing": 14, "children": [{"nodeid": 13, "depth": 3, "split": "f7", "split_condition": 1.40558684, "yes": 27, "no": 28, "missing": 28, "children": [{"nodeid": 27, "leaf": 0.00739677344}, {"nodeid": 28, "leaf": 0.0265794527}]}, {"nodeid": 14, "depth": 3, "split": "f7", "split_condition": 1.32131529, "yes": 29, "no": 30, "missing": 30, "children": [{"nodeid": 29, "leaf": 0.0171746965}, {"nodeid": 30, "leaf": 0.0297233965}]}]}]}]}, {"nodeid": 0, "depth": 0, "split": "f7", "split_condition": 1.11593509, "yes": 1, "no": 2, "missing": 2, "children": [{"nodeid": 1, "depth": 1, "split": "f5", "split_condition": 9, "yes": 3, "no": 4, "missing": 4, "children": [{"nodeid": 3, "depth": 2, "split": "f7", "split_condition": 1.09928751, "yes": 7, "no": 8, "missing": 8, "children": [{"nodeid": 7, "depth": 3, "split": "f5", "split_condition": 7, "yes": 15, "no": 16, "missing": 16, "children": [{"nodeid": 15, "leaf": -0.0303592831}, {"nodeid": 16, "leaf": -0.0255060252}]}, {"nodeid": 8, "depth": 3, "split": "f4", "split_condition": 395, "yes": 17, "no": 18, "missing": 18, "children": [{"nodeid": 17, "leaf": -0.0253301896}, {"nodeid": 18, "leaf": -0.00928520039}]}]}, {"nodeid": 4, "depth": 2, "split": "f7", "split_condition": 1.06689727, "yes": 9, "no": 10, "missing": 10, "children": [{"nodeid": 9, "depth": 3, "split": "f5", "split_condition": 12, "yes": 19, "no": 20, "missing": 20, "children": [{"nodeid": 19, "leaf": -0.0213247295}, {"nodeid": 20, "leaf": -0.00860328972}]}, {"nodeid": 10, "depth": 3, "split": "f0", "split_condition": 600, "yes": 21, "no": 22, "missing": 22, "children": [{"nodeid": 21, "leaf": -0.0071692965}, {"nodeid": 22, "leaf": 0.00423320429}]}]}]}, {"nodeid": 2, "depth": 1, "split": "f7", "split_condition": 1.14238441, "yes": 5, "no": 6, "missing": 6, "children": [{"nodeid": 5, "depth": 2, "split": "f5", "split_condition": 9, "yes": 11, "no": 12, "missing": 12, "children": [{"nodeid": 11, "depth": 3, "split": "f4", "split_condition": 395, "yes": 23, "no": 24, "missing": 24, "children": [{"nodeid": 23, "leaf": -0.0232426673}, {"nodeid": 24, "leaf": 0.0075927265}]}, {"nodeid": 12, "depth": 3, "split": "f0", "split_condition": 600, "yes": 25, "no": 26, "missing": 26, "children": [{"nodeid": 25, "leaf": 0.00907510426}, {"nodeid": 26, "leaf": -0.00675830385}]}]}, {"nodeid": 6, "depth": 2, "split": "f5", "split_condition": 7, "yes": 13, "no": 14, "missing": 14, "children": [{"nodeid": 13, "depth": 3, "split": "f7", "split_condition": 1.40558684, "yes": 27, "no": 28, "missing": 28, "children": [{"nodeid": 27, "leaf": 0.00627243239}, {"nodeid": 28, "leaf": 0.026108712}]}, {"nodeid": 14, "depth": 3, "split": "f7", "split_condition": 1.28961408, "yes": 29, "no": 30, "missing": 30, "children": [{"nodeid": 29, "leaf": 0.0153764626}, {"nodeid": 30, "leaf": 0.0255573969}]}]}]}]}, {"nodeid": 0, "depth": 0, "split": "f7", "split_condition": 1.11563408, "yes": 1, "no": 2, "missing": 2, "children": [{"nodeid": 1, "depth": 1, "split": "f5", "split_condition": 12, "yes": 3, "no": 4, "missing": 4, "children": [{"nodeid": 3, "depth": 2, "split": "f5", "split_condition": 9, "yes": 7, "no": 8, "missing": 8, "children": [{"nodeid": 7, "depth": 3, "split": "f6", "split_condition": 1.09421837, "yes": 15, "no": 16, "missing": 16, "children": [{"nodeid": 15, "leaf": -0.0270027947}, {"nodeid": 16, "leaf": -0.0182106402}]}, {"nodeid": 8, "depth": 3, "split": "f7", "split_condition": 1.05893385, "yes": 17, "no": 18, "missing": 18, "children": [{"nodeid": 17, "leaf": -0.0204297733}, {"nodeid": 18, "leaf": -0.00880935229}]}]}, {"nodeid": 4, "depth": 2, "split": "f6", "split_condition": 1.02407825, "yes": 9, "no": 10, "missing": 10, "children": [{"nodeid": 9, "depth": 3, "split": "f7", "split_condition": 1.05813837, "yes": 19, "no": 20, "missing": 20, "children": [{"nodeid": 19, "leaf": -0.0216164012}, {"nodeid": 20, "leaf": -0.00716623385}]}, {"nodeid": 10, "depth": 3, "split": "f6", "split_condition": 1.25963318, "yes": 21, "no": 22, "missing": 22, "children": [{"nodeid": 21, "leaf": -0.00264756754}, {"nodeid": 22, "leaf": 0.0143463658}]}]}]}, {"nodeid": 2, "depth": 1, "split": "f6", "split_condition": 0.841730416, "yes": 5, "no": 6, "missing": 6, "children": [{"nodeid": 5, "depth": 2, "split": "f7", "split_condition": 1.27024508, "yes": 11, "no": 12, "missing": 12, "children": [{"nodeid": 11, "depth": 3, "split": "f5", "split_condition": 9, "yes": 23, "no": 24, "missing": 24, "children": [{"nodeid": 23, "leaf": -0.0196470506}, {"nodeid": 24, "leaf": 0.0222367328}]}, {"nodeid": 12, "depth": 3, "split": "f7", "split_condition": 1.38518214, "yes": 25, "no": 26, "missing": 26, "children": [{"nodeid": 25, "leaf": 0.00762975728}, {"nodeid": 26, "leaf": 0.0239820462}]}]}, {"nodeid": 6, "depth": 2, "split": "f7", "split_condition": 1.14896381, "yes": 13, "no": 14, "missing": 14, "children": [{"nodeid": 13, "depth": 3, "split": "f4", "split_condition": 395, "yes": 27, "no": 28, "missing": 28, "children": [{"nodeid": 27, "leaf": 0.00156922534}, {"nodeid": 28, "leaf": 0.0110136392}]}, {"nodeid": 14, "depth": 3, "split": "f7", "split_condition": 1.15740788, "yes": 29, "no": 30, "missing": 30, "children": [{"nodeid": 29, "leaf": 0.0120838722}, {"nodeid": 30, "leaf": 0.0185879748}]}]}]}]}, {"nodeid": 0, "depth": 0, "split": "f7", "split_condition": 1.11519349, "yes": 1, "no": 2, "missing": 2, "children": [{"nodeid": 1, "depth": 1, "split": "f5", "split_condition": 12, "yes": 3, "no": 4, "missing": 4, "children": [{"nodeid": 3, "depth": 2, "split": "f1", "split_condition": 220, "yes": 7, "no": 8, "missing": 8, "children": [{"nodeid": 7, "depth": 3, "split": "f5", "split_condition": 9, "yes": 15, "no": 16, "missing": 16, "children": [{"nodeid": 15, "leaf": -0.0245268643}, {"nodeid": 16, "leaf": -0.016529426}]}, {"nodeid": 8, "depth": 3, "split": "f6", "split_condition": 1.10356748, "yes": 17, "no": 18, "missing": 18, "children": [{"nodeid": 17, "leaf": -0.0195784997}, {"nodeid": 18, "leaf": -0.00190878625}]}]}, {"nodeid": 4, "depth": 2, "split": "f6", "split_condition": 1.1244241, "yes": 9, "no": 10, "missing": 10, "children": [{"nodeid": 9, "depth": 3, "split": "f4", "split_condition": 395, "yes": 19, "no": 20, "missing": 20, "children": [{"nodeid": 19, "leaf": -0.0156892147}, {"nodeid": 20, "leaf": -0.00575788319}]}, {"nodeid": 10, "depth": 3, "split": "f6", "split_condition": 1.25963318, "yes": 21, "no": 22, "missing": 22, "children": [{"nodeid": 21, "leaf": 0.000251433783}, {"nodeid": 22, "leaf": 0.0132008418}]}]}]}, {"nodeid": 2, "depth": 1, "split": "f6", "split_condition": 0.726172209, "yes": 5, "no": 6, "missing": 6, "children": [{"nodeid": 5, "depth": 2, "split": "f7", "split_condition": 1.33335638, "yes": 11, "no": 12, "missing": 12, "children": [{"nodeid": 11, "depth": 3, "split": "f7", "split_condition": 1.23380995, "yes": 23, "no": 24, "missing": 24, "children": [{"nodeid": 23, "leaf": -0.0259415712}, {"nodeid": 24, "leaf": -0.00718656648}]}, {"nodeid": 12, "depth": 3, "split": "f7", "split_condition": 1.40558684, "yes": 25, "no": 26, "missing": 26, "children": [{"nodeid": 25, "leaf": 0.00690831849}, {"nodeid": 26, "leaf": 0.0230349079}]}]}, {"nodeid": 6, "depth": 2, "split": "f7", "split_condition": 1.14700699, "yes": 13, "no": 14, "missing": 14, "children": [{"nodeid": 13, "depth": 3, "split": "f4", "split_condition": 395, "yes": 27, "no": 28, "missing": 28, "children": [{"nodeid": 27, "leaf": 0.000309067982}, {"nodeid": 28, "leaf": 0.00957391597}]}, {"nodeid": 14, "depth": 3, "split": "f7", "split_condition": 1.21454084, "yes": 29, "no": 30, "missing": 30, "children": [{"nodeid": 29, "leaf": 0.0132228006}, {"nodeid": 30, "leaf": 0.0206977203}]}]}]}]}, {"nodeid": 0, "depth": 0, "split": "f7", "split_condition": 1.11593509, "yes": 1, "no": 2, "missing": 2, "children": [{"nodeid": 1, "depth": 1, "split": "f5", "split_condition": 9, "yes": 3, "no": 4, "missing": 4, "children": [{"nodeid": 3, "depth": 2, "split": "f0", "split_condition": 600, "yes": 7, "no": 8, "missing": 8, "children": [{"nodeid": 7, "depth": 3, "split": "f5", "split_condition": 7, "yes": 15, "no": 16, "missing": 16, "children": [{"nodeid": 15, "leaf": -0.0271653775}, {"nodeid": 16, "leaf": -0.0215253774}]}, {"nodeid": 8, "depth": 3, "split": "f6", "split_condition": 1.10356748, "yes": 17, "no": 18, "missing": 18, "children": [{"nodeid": 17, "leaf": -0.0229892433}, {"nodeid": 18, "leaf": -0.00652883342}]}]}, {"nodeid": 4, "depth": 2, "split": "f6", "split_condition": 1.11027539, "yes": 9, "no": 10, "missing": 10, "children": [{"nodeid": 9, "depth": 3, "split": "f7", "split_condition": 1.05893385, "yes": 19, "no": 20, "missing": 20, "children": [{"nodeid": 19, "leaf": -0.0158941131}, {"nodeid": 20, "leaf": -0.00673343753}]}, {"nodeid": 10, "depth": 3, "split": "f0", "split_condition": 500, "yes": 21, "no": 22, "missing": 22, "children": [{"nodeid": 21, "leaf": -0.00645496696}, {"nodeid": 22, "leaf": 0.00396893499}]}]}]}, {"nodeid": 2, "depth": 1, "split": "f6", "split_condition": 0.841730416, "yes": 5, "no": 6, "missing": 6, "children": [{"nodeid": 5, "depth": 2, "split": "f7", "split_condition": 1.25027514, "yes": 11, "no": 12, "missing": 12, "children": [{"nodeid": 11, "depth": 3, "split": "f5", "split_condition": 9, "yes": 23, "no": 24, "missing": 24, "children": [{"nodeid": 23, "leaf": -0.020823691}, {"nodeid": 24, "leaf": 0.0215854179}]}, {"nodeid": 12, "depth": 3, "split": "f7", "split_condition": 1.32131529, "yes": 25, "no": 26, "missing": 26, "children": [{"nodeid": 25, "leaf": -0.000513286039}, {"nodeid": 26, "leaf": 0.0168768726}]}]}, {"nodeid": 6, "depth": 2, "split": "f7", "split_condition": 1.15740788, "yes": 13, "no": 14, "missing": 14, "children": [{"nodeid": 13, "depth": 3, "split": "f6", "split_condition": 1.04102433, "yes": 27, "no": 28, "missing": 28, "children": [{"nodeid": 27, "leaf": -0.00707550952}, {"nodeid": 28, "leaf": 0.00765030831}]}, {"nodeid": 14, "depth": 3, "split": "f5", "split_condition": 7, "yes": 29, "no": 30, "missing": 30, "children": [{"nodeid": 29, "leaf": 0.0144532947}, {"nodeid": 30, "leaf": 0.0202265363}]}]}]}]}, {"nodeid": 0, "depth": 0, "split": "f7", "split_condition": 1.11646223, "yes": 1, "no": 2, "missing": 2, "children": [{"nodeid": 1, "depth": 1, "split": "f6", "split_condition": 1.02407825, "yes": 3, "no": 4, "missing": 4, "children": [{"nodeid": 3, "depth": 2, "split": "f7", "split_condition": 1.05893385, "yes": 7, "no": 8, "missing": 8, "children": [{"nodeid": 7, "depth": 3, "split": "f6", "split_condition": 0.940649688, "yes": 15, "no": 16, "missing": 16, "children": [{"nodeid": 15, "leaf": -0.0256238077}, {"nodeid": 16, "leaf": -0.0171327535}]}, {"nodeid": 8, "depth": 3, "split": "f4", "split_condition": 395, "yes": 17, "no": 18, "missing": 18, "children": [{"nodeid": 17, "leaf": -0.0196312126}, {"nodeid": 18, "leaf": -0.0083833551}]}]}, {"nodeid": 4, "depth": 2, "split": "f0", "split_condition": 600, "yes": 9, "no": 10, "missing": 10, "children": [{"nodeid": 9, "depth": 3, "split": "f6", "split_condition": 1.23551381, "yes": 19, "no": 20, "missing": 20, "children": [{"nodeid": 19, "leaf": -0.00956469122}, {"nodeid": 20, "leaf": 0.000486130913}]}, {"nodeid": 10, "depth": 3, "split": "f7", "split_condition": 1.10614538, "yes": 21, "no": 22, "missing": 22, "children": [{"nodeid": 21, "leaf": 0.00310265692}, {"nodeid": 22, "leaf": -0.0108211553}]}]}]}, {"nodeid": 2, "depth": 1, "split": "f6", "split_condition": 0.716816545, "yes": 5, "no": 6, "missing": 6, "children": [{"nodeid": 5, "depth": 2, "split": "f7", "split_condition": 1.30102921, "yes": 11, "no": 12, "missing": 12, "children": [{"nodeid": 11, "depth": 3, "split": "f7", "split_condition": 1.23380995, "yes": 23, "no": 24, "missing": 24, "children": [{"nodeid": 23, "leaf": -0.0243261829}, {"nodeid": 24, "leaf": -0.00992566906}]}, {"nodeid": 12, "depth": 3, "split": "f7", "split_condition": 1.40558684, "yes": 25, "no": 26, "missing": 26, "children": [{"nodeid": 25, "leaf": 0.00373813114}, {"nodeid": 26, "leaf": 0.0205963999}]}]}, {"nodeid": 6, "depth": 2, "split": "f7", "split_condition": 1.14896381, "yes": 13, "no": 14, "missing": 14, "children": [{"nodeid": 13, "depth": 3, "split": "f6", "split_condition": 1.03753781, "yes": 27, "no": 28, "missing": 28, "children": [{"nodeid": 27, "leaf": -0.0110456375}, {"nodeid": 28, "leaf": 0.0054487451}]}, {"nodeid": 14, "depth": 3, "split": "f6", "split_condition": 0.847415626, "yes": 29, "no": 30, "missing": 30, "children": [{"nodeid": 29, "leaf": 0.0068121017}, {"nodeid": 30, "leaf": 0.0144925909}]}]}]}]}, {"nodeid": 0, "depth": 0, "split": "f7", "split_condition": 1.11563408, "yes": 1, "no": 2, "missing": 2, "children": [{"nodeid": 1, "depth": 1, "split": "f5", "split_condition": 12, "yes": 3, "no": 4, "missing": 4, "children": [{"nodeid": 3, "depth": 2, "split": "f5", "split_condition": 9, "yes": 7, "no": 8, "missing": 8, "children": [{"nodeid": 7, "depth": 3, "split": "f7", "split_condition": 1.09928751, "yes": 15, "no": 16, "missing": 16, "children": [{"nodeid": 15, "leaf": -0.0220679399}, {"nodeid": 16, "leaf": -0.0126751959}]}, {"nodeid": 8, "depth": 3, "split": "f7", "split_condition": 1.06689727, "yes": 17, "no": 18, "missing": 18, "children": [{"nodeid": 17, "leaf": -0.0179641601}, {"nodeid": 18, "leaf": -0.00584421773}]}]}, {"nodeid": 4, "depth": 2, "split": "f6", "split_condition": 1.02407825, "yes": 9, "no": 10, "missing": 10, "children": [{"nodeid": 9, "depth": 3, "split": "f7", "split_condition": 1.05080199, "yes": 19, "no": 20, "missing": 20, "children": [{"nodeid": 19, "leaf": -0.0177756678}, {"nodeid": 20, "leaf": -0.0061994656}]}, {"nodeid": 10, "depth": 3, "split": "f6", "split_condition": 1.25415301, "yes": 21, "no": 22, "missing": 22, "children": [{"nodeid": 21, "leaf": -0.0021328202}, {"nodeid": 22, "leaf": 0.0102021145}]}]}]}, {"nodeid": 2, "depth": 1, "split": "f6", "split_condition": 0.841730416, "yes": 5, "no": 6, "missing": 6, "children": [{"nodeid": 5, "depth": 2, "split": "f7", "split_condition": 1.25027514, "yes": 11, "no": 12, "missing": 12, "children": [{"nodeid": 11, "depth": 3, "split": "f5", "split_condition": 9, "yes": 23, "no": 24, "missing": 24, "children": [{"nodeid": 23, "leaf": -0.0188773777}, {"nodeid": 24, "leaf": 0.020686863}]}, {"nodeid": 12, "depth": 3, "split": "f7", "split_condition": 1.38518214, "yes": 25, "no": 26, "missing": 26, "children": [{"nodeid": 25, "leaf": 0.00472380966}, {"nodeid": 26, "leaf": 0.0201160815}]}]}, {"nodeid": 6, "depth": 2, "split": "f7", "split_condition": 1.14896381, "yes": 13, "no": 14, "missing": 14, "children": [{"nodeid": 13, "depth": 3, "split": "f5", "split_condition": 9, "yes": 27, "no": 28, "missing": 28, "children": [{"nodeid": 27, "leaf": -0.00152727112}, {"nodeid": 28, "leaf": 0.00718937907}]}, {"nodeid": 14, "depth": 3, "split": "f7", "split_condition": 1.1576668, "yes": 29, "no": 30, "missing": 30, "children": [{"nodeid": 29, "leaf": 0.0103991991}, {"nodeid": 30, "leaf": 0.0160167813}]}]}]}]}, {"nodeid": 0, "depth": 0, "split": "f7", "split_condition": 1.11593509, "yes": 1, "no": 2, "missing": 2, "children": [{"nodeid": 1, "depth": 1, "split": "f5", "split_condition": 12, "yes": 3, "no": 4, "missing": 4, "children": [{"nodeid": 3, "depth": 2, "split": "f5", "split_condition": 9, "yes": 7, "no": 8, "missing": 8, "children": [{"nodeid": 7, "depth": 3, "split": "f0", "split_condition": 600, "yes": 15, "no": 16, "missing": 16, "children": [{"nodeid": 15, "leaf": -0.0215296764}, {"nodeid": 16, "leaf": -0.013213912}]}, {"nodeid": 8, "depth": 3, "split": "f7", "split_condition": 1.05893385, "yes": 17, "no": 18, "missing": 18, "children": [{"nodeid": 17, "leaf": -0.0173050091}, {"nodeid": 18, "leaf": -0.00649395352}]}]}, {"nodeid": 4, "depth": 2, "split": "f6", "split_condition": 1.06763458, "yes": 9, "no": 10, "missing": 10, "children": [{"nodeid": 9, "depth": 3, "split": "f4", "split_condition": 395, "yes": 19, "no": 20, "missing": 20, "children": [{"nodeid": 19, "leaf": -0.0170490481}, {"nodeid": 20, "leaf": -0.00617149612}]}, {"nodeid": 10, "depth": 3, "split": "f0", "split_condition": 600, "yes": 21, "no": 22, "missing": 22, "children": [{"nodeid": 21, "leaf": -0.00154506357}, {"nodeid": 22, "leaf": 0.00991936307}]}]}]}, {"nodeid": 2, "depth": 1, "split": "f6", "split_condition": 0.716816545, "yes": 5, "no": 6, "missing": 6, "children": [{"nodeid": 5, "depth": 2, "split": "f7", "split_condition": 1.30102921, "yes": 11, "no": 12, "missing": 12, "children": [{"nodeid": 11, "depth": 3, "split": "f5", "split_condition": 7, "yes": 23, "no": 24, "missing": 24, "children": [{"nodeid": 23, "leaf": -0.0233110245}, {"nodeid": 24, "leaf": -0.00922396686}]}, {"nodeid": 12, "depth": 3, "split": "f7", "split_condition": 1.40558684, "yes": 25, "no": 26, "missing": 26, "children": [{"nodeid": 25, "leaf": 0.0036088035}, {"nodeid": 26, "leaf": 0.0190411918}]}]}, {"nodeid": 6, "depth": 2, "split": "f7", "split_condition": 1.14238441, "yes": 13, "no": 14, "missing": 14, "children": [{"nodeid": 13, "depth": 3, "split": "f6", "split_condition": 1.03931129, "yes": 27, "no": 28, "missing": 28, "children": [{"nodeid": 27, "leaf": -0.0128657194}, {"nodeid": 28, "leaf": 0.00458045118}]}, {"nodeid": 14, "depth": 3, "split": "f5", "split_condition": 7, "yes": 29, "no": 30, "missing": 30, "children": [{"nodeid": 29, "leaf": 0.00791381951}, {"nodeid": 30, "leaf": 0.0141613428}]}]}]}]}, {"nodeid": 0, "depth": 0, "split": "f7", "split_condition": 1.11563408, "yes": 1, "no": 2, "missing": 2, "children": [{"nodeid": 1, "depth": 1, "split": "f5", "split_condition": 12, "yes": 3, "no": 4, "missing": 4, "children": [{"nodeid": 3, "depth": 2, "split": "f5", "split_condition": 9, "yes": 7, "no": 8, "missing": 8, "children": [{"nodeid": 7, "depth": 3, "split": "f7", "split_condition": 1.09928751, "yes": 15, "no": 16, "missing": 16, "children": [{"nodeid": 15, "leaf": -0.0198154803}, {"nodeid": 16, "leaf": -0.0113981692}]}, {"nodeid": 8, "depth": 3, "split": "f7", "split_condition": 1.06689727, "yes": 17, "no": 18, "missing": 18, "children": [{"nodeid": 17, "leaf": -0.0156836025}, {"nodeid": 18, "leaf": -0.00520593161}]}]}, {"nodeid": 4, "depth": 2, "split": "f6", "split_condition": 1.02407825, "yes": 9, "no": 10, "missing": 10, "children": [{"nodeid": 9, "depth": 3, "split": "f7", "split_condition": 1.09163725, "yes": 19, "no": 20, "missing": 20, "children": [{"nodeid": 19, "leaf": -0.0108336462}, {"nodeid": 20, "leaf": -0.0302052703}]}, {"nodeid": 10, "depth": 3, "split": "f6", "split_condition": 1.25638008, "yes": 21, "no": 22, "missing": 22, "children": [{"nodeid": 21, "leaf": -0.00200696476}, {"nodeid": 22, "leaf": 0.0115620671}]}]}]}, {"nodeid": 2, "depth": 1, "split": "f6", "split_condition": 0.716816545, "yes": 5, "no": 6, "missing": 6, "children": [{"nodeid": 5, "depth": 2, "split": "f7", "split_condition": 1.33335638, "yes": 11, "no": 12, "missing": 12, "children": [{"nodeid": 11, "depth": 3, "split": "f7", "split_condition": 1.23380995, "yes": 23, "no": 24, "missing": 24, "children": [{"nodeid": 23, "leaf": -0.021273382}, {"nodeid": 24, "leaf": -0.00614278717}]}, {"nodeid": 12, "depth": 3, "split": "f7", "split_condition": 1.40558684, "yes": 25, "no": 26, "missing": 26, "children": [{"nodeid": 25, "leaf": 0.00503151212}, {"nodeid": 26, "leaf": 0.017806951}]}]}, {"nodeid": 6, "depth": 2, "split": "f7", "split_condition": 1.14238441, "yes": 13, "no": 14, "missing": 14, "children": [{"nodeid": 13, "depth": 3, "split": "f6", "split_condition": 1.03931129, "yes": 27, "no": 28, "missing": 28, "children": [{"nodeid": 27, "leaf": -0.0128442114}, {"nodeid": 28, "leaf": 0.00454511261}]}, {"nodeid": 14, "depth": 3, "split": "f7", "split_condition": 1.25027514, "yes": 29, "no": 30, "missing": 30, "children": [{"nodeid": 29, "leaf": 0.00971873198}, {"nodeid": 30, "leaf": 0.0183158405}]}]}]}]}, {"nodeid": 0, "depth": 0, "split": "f6", "split_condition": 1.03931129, "yes": 1, "no": 2, "missing": 2, "children": [{"nodeid": 1, "depth": 1, "split": "f5", "split_condition": 12, "yes": 3, "no": 4, "missing": 4, "children": [{"nodeid": 3, "depth": 2, "split": "f6", "split_condition": 0.600880742, "yes": 7, "no": 8, "missing": 8, "children": [{"nodeid": 7, "depth": 3, "split": "f6", "split_condition": 0.585674882, "yes": 15, "no": 16, "missing": 16, "children": [{"nodeid": 15, "leaf": -0.0106456792}, {"nodeid": 16, "leaf": -0.0186496656}]}, {"nodeid": 8, "depth": 3, "split": "f6", "split_condition": 0.620215714, "yes": 17, "no": 18, "missing": 18, "children": [{"nodeid": 17, "leaf": 0.00519388029}, {"nodeid": 18, "leaf": -0.0041486281}]}]}, {"nodeid": 4, "depth": 2, "split": "f4", "split_condition": 395, "yes": 9, "no": 10, "missing": 10, "children": [{"nodeid": 9, "depth": 3, "split": "f6", "split_condition": 0.985386789, "yes": 19, "no": 20, "missing": 20, "children": [{"nodeid": 19, "leaf": -0.0206319988}, {"nodeid": 20, "leaf": -0.0112626692}]}, {"nodeid": 10, "depth": 3, "split": "f6", "split_condition": 0.885071874, "yes": 21, "no": 22, "missing": 22, "children": [{"nodeid": 21, "leaf": -0.0215212554}, {"nodeid": 22, "leaf": -0.00651733903}]}]}]}, {"nodeid": 2, "depth": 1, "split": "f6", "split_condition": 1.24762678, "yes": 5, "no": 6, "missing": 6, "children": [{"nodeid": 5, "depth": 2, "split": "f4", "split_condition": 324, "yes": 11, "no": 12, "missing": 12, "children": [{"nodeid": 11, "depth": 3, "split": "f6", "split_condition": 1.24310005, "yes": 23, "no": 24, "missing": 24, "children": [{"nodeid": 23, "leaf": -0.0105920704}, {"nodeid": 24, "leaf": 0.00250481884}]}, {"nodeid": 12, "depth": 3, "split": "f6", "split_condition": 1.15603948, "yes": 25, "no": 26, "missing": 26, "children": [{"nodeid": 25, "leaf": 0.00222180248}, {"nodeid": 26, "leaf": 0.00683868164}]}]}, {"nodeid": 6, "depth": 2, "split": "f5", "split_condition": 14, "yes": 13, "no": 14, "missing": 14, "children": [{"nodeid": 13, "depth": 3, "split": "f6", "split_condition": 1.26531553, "yes": 27, "no": 28, "missing": 28, "children": [{"nodeid": 27, "leaf": -0.00519426679}, {"nodeid": 28, "leaf": 0.00853869319}]}, {"nodeid": 14, "depth": 3, "split": "f6", "split_condition": 1.26260531, "yes": 29, "no": 30, "missing": 30, "children": [{"nodeid": 29, "leaf": 0.0153490519}, {"nodeid": 30, "leaf": 0.0257534385}]}]}]}]}, {"nodeid": 0, "depth": 0, "split": "f7", "split_condition": 1.11563408, "yes": 1, "no": 2, "missing": 2, "children": [{"nodeid": 1, "depth": 1, "split": "f5", "split_condition": 12, "yes": 3, "no": 4, "missing": 4, "children": [{"nodeid": 3, "depth": 2, "split": "f5", "split_condition": 9, "yes": 7, "no": 8, "missing": 8, "children": [{"nodeid": 7, "depth": 3, "split": "f7", "split_condition": 1.09928751, "yes": 15, "no": 16, "missing": 16, "children": [{"nodeid": 15, "leaf": -0.0188833699}, {"nodeid": 16, "leaf": -0.0102884853}]}, {"nodeid": 8, "depth": 3, "split": "f7", "split_condition": 1.07479143, "yes": 17, "no": 18, "missing": 18, "children": [{"nodeid": 17, "leaf": -0.0137641281}, {"nodeid": 18, "leaf": -0.0045395731}]}]}, {"nodeid": 4, "depth": 2, "split": "f6", "split_condition": 1.06763458, "yes": 9, "no": 10, "missing": 10, "children": [{"nodeid": 9, "depth": 3, "split": "f4", "split_condition": 395, "yes": 19, "no": 20, "missing": 20, "children": [{"nodeid": 19, "leaf": -0.0145085184}, {"nodeid": 20, "leaf": -0.00481334655}]}, {"nodeid": 10, "depth": 3, "split": "f1", "split_condition": 220, "yes": 21, "no": 22, "missing": 22, "children": [{"nodeid": 21, "leaf": -0.00138719508}, {"nodeid": 22, "leaf": 0.00773835275}]}]}]}, {"nodeid": 2, "depth": 1, "split": "f6", "split_condition": 0.847415626, "yes": 5, "no": 6, "missing": 6, "children": [{"nodeid": 5, "depth": 2, "split": "f7", "split_condition": 1.25027514, "yes": 11, "no": 12, "missing": 12, "children": [{"nodeid": 11, "depth": 3, "split": "f5", "split_condition": 9, "yes": 23, "no": 24, "missing": 24, "children": [{"nodeid": 23, "leaf": -0.0162239317}, {"nodeid": 24, "leaf": 0.0194594674}]}, {"nodeid": 12, "depth": 3, "split": "f6", "split_condition": 0.600880742, "yes": 25, "no": 26, "missing": 26, "children": [{"nodeid": 25, "leaf": -0.00324239652}, {"nodeid": 26, "leaf": 0.0124984588}]}]}, {"nodeid": 6, "depth": 2, "split": "f7", "split_condition": 1.15740788, "yes": 13, "no": 14, "missing": 14, "children": [{"nodeid": 13, "depth": 3, "split": "f4", "split_condition": 395, "yes": 27, "no": 28, "missing": 28, "children": [{"nodeid": 27, "leaf": 0.00201283861}, {"nodeid": 28, "leaf": 0.00943341199}]}, {"nodeid": 14, "depth": 3, "split": "f7", "split_condition": 1.21454084, "yes": 29, "no": 30, "missing": 30, "children": [{"nodeid": 29, "leaf": 0.0115830703}, {"nodeid": 30, "leaf": 0.0190845169}]}]}]}]}, {"nodeid": 0, "depth": 0, "split": "f7", "split_condition": 1.12219703, "yes": 1, "no": 2, "missing": 2, "children": [{"nodeid": 1, "depth": 1, "split": "f5", "split_condition": 9, "yes": 3, "no": 4, "missing": 4, "children": [{"nodeid": 3, "depth": 2, "split": "f0", "split_condition": 600, "yes": 7, "no": 8, "missing": 8, "children": [{"nodeid": 7, "depth": 3, "split": "f5", "split_condition": 7, "yes": 15, "no": 16, "missing": 16, "children": [{"nodeid": 15, "leaf": -0.0210964438}, {"nodeid": 16, "leaf": -0.0166436993}]}, {"nodeid": 8, "depth": 3, "split": "f6", "split_condition": 1.10916305, "yes": 17, "no": 18, "missing": 18, "children": [{"nodeid": 17, "leaf": -0.0170965418}, {"nodeid": 18, "leaf": -0.00107096951}]}]}, {"nodeid": 4, "depth": 2, "split": "f6", "split_condition": 1.07759905, "yes": 9, "no": 10, "missing": 10, "children": [{"nodeid": 9, "depth": 3, "split": "f7", "split_condition": 1.05893385, "yes": 19, "no": 20, "missing": 20, "children": [{"nodeid": 19, "leaf": -0.0134773804}, {"nodeid": 20, "leaf": -0.00553719932}]}, {"nodeid": 10, "depth": 3, "split": "f4", "split_condition": 395, "yes": 21, "no": 22, "missing": 22, "children": [{"nodeid": 21, "leaf": -0.00236135395}, {"nodeid": 22, "leaf": 0.00848142058}]}]}]}, {"nodeid": 2, "depth": 1, "split": "f6", "split_condition": 0.716816545, "yes": 5, "no": 6, "missing": 6, "children": [{"nodeid": 5, "depth": 2, "split": "f7", "split_condition": 1.33335638, "yes": 11, "no": 12, "missing": 12, "children": [{"nodeid": 11, "depth": 3, "split": "f7", "split_condition": 1.23380995, "yes": 23, "no": 24, "missing": 24, "children": [{"nodeid": 23, "leaf": -0.0189432669}, {"nodeid": 24, "leaf": -0.00630256254}]}, {"nodeid": 12, "depth": 3, "split": "f7", "split_condition": 1.40558684, "yes": 25, "no": 26, "missing": 26, "children": [{"nodeid": 25, "leaf": 0.00507044233}, {"nodeid": 26, "leaf": 0.0190706681}]}]}, {"nodeid": 6, "depth": 2, "split": "f7", "split_condition": 1.14700699, "yes": 13, "no": 14, "missing": 14, "children": [{"nodeid": 13, "depth": 3, "split": "f5", "split_condition": 9, "yes": 27, "no": 28, "missing": 28, "children": [{"nodeid": 27, "leaf": -0.00343885995}, {"nodeid": 28, "leaf": 0.00655164942}]}, {"nodeid": 14, "depth": 3, "split": "f7", "split_condition": 1.25027514, "yes": 29, "no": 30, "missing": 30, "children": [{"nodeid": 29, "leaf": 0.00952640641}, {"nodeid": 30, "leaf": 0.0173559617}]}]}]}]}, {"nodeid": 0, "depth": 0, "split": "f7", "split_condition": 1.12219703, "yes": 1, "no": 2, "missing": 2, "children": [{"nodeid": 1, "depth": 1, "split": "f5", "split_condition": 9, "yes": 3, "no": 4, "missing": 4, "children": [{"nodeid": 3, "depth": 2, "split": "f0", "split_condition": 600, "yes": 7, "no": 8, "missing": 8, "children": [{"nodeid": 7, "depth": 3, "split": "f5", "split_condition": 7, "yes": 15, "no": 16, "missing": 16, "children": [{"nodeid": 15, "leaf": -0.0206062328}, {"nodeid": 16, "leaf": -0.0161727909}]}, {"nodeid": 8, "depth": 3, "split": "f6", "split_condition": 1.10916305, "yes": 17, "no": 18, "missing": 18, "children": [{"nodeid": 17, "leaf": -0.0167392865}, {"nodeid": 18, "leaf": -0.00148923893}]}]}, {"nodeid": 4, "depth": 2, "split": "f6", "split_condition": 1.07759905, "yes": 9, "no": 10, "missing": 10, "children": [{"nodeid": 9, "depth": 3, "split": "f7", "split_condition": 1.05813837, "yes": 19, "no": 20, "missing": 20, "children": [{"nodeid": 19, "leaf": -0.0123672998}, {"nodeid": 20, "leaf": -0.00460048346}]}, {"nodeid": 10, "depth": 3, "split": "f4", "split_condition": 395, "yes": 21, "no": 22, "missing": 22, "children": [{"nodeid": 21, "leaf": -0.00191218406}, {"nodeid": 22, "leaf": 0.00918441545}]}]}]}, {"nodeid": 2, "depth": 1, "split": "f6", "split_condition": 0.834810257, "yes": 5, "no": 6, "missing": 6, "children": [{"nodeid": 5, "depth": 2, "split": "f7", "split_condition": 1.27024508, "yes": 11, "no": 12, "missing": 12, "children": [{"nodeid": 11, "depth": 3, "split": "f4", "split_condition": 395, "yes": 23, "no": 24, "missing": 24, "children": [{"nodeid": 23, "leaf": -0.0197683182}, {"nodeid": 24, "leaf": -0.00408507464}]}, {"nodeid": 12, "depth": 3, "split": "f7", "split_condition": 1.36932302, "yes": 25, "no": 26, "missing": 26, "children": [{"nodeid": 25, "leaf": 0.00382403098}, {"nodeid": 26, "leaf": 0.0155860325}]}]}, {"nodeid": 6, "depth": 2, "split": "f7", "split_condition": 1.1576668, "yes": 13, "no": 14, "missing": 14, "children": [{"nodeid": 13, "depth": 3, "split": "f6", "split_condition": 1.24762678, "yes": 27, "no": 28, "missing": 28, "children": [{"nodeid": 27, "leaf": 0.00306470785}, {"nodeid": 28, "leaf": 0.00942858588}]}, {"nodeid": 14, "depth": 3, "split": "f7", "split_condition": 1.2182014, "yes": 29, "no": 30, "missing": 30, "children": [{"nodeid": 29, "leaf": 0.0108112851}, {"nodeid": 30, "leaf": 0.0176787358}]}]}]}]}, {"nodeid": 0, "depth": 0, "split": "f7", "split_condition": 1.12219703, "yes": 1, "no": 2, "missing": 2, "children": [{"nodeid": 1, "depth": 1, "split": "f5", "split_condition": 9, "yes": 3, "no": 4, "missing": 4, "children": [{"nodeid": 3, "depth": 2, "split": "f0", "split_condition": 600, "yes": 7, "no": 8, "missing": 8, "children": [{"nodeid": 7, "depth": 3, "split": "f5", "split_condition": 7, "yes": 15, "no": 16, "missing": 16, "children": [{"nodeid": 15, "leaf": -0.0194715615}, {"nodeid": 16, "leaf": -0.0152565762}]}, {"nodeid": 8, "depth": 3, "split": "f6", "split_condition": 1.10916305, "yes": 17, "no": 18, "missing": 18, "children": [{"nodeid": 17, "leaf": -0.0162045769}, {"nodeid": 18, "leaf": -0.00154842227}]}]}, {"nodeid": 4, "depth": 2, "split": "f6", "split_condition": 1.07759905, "yes": 9, "no": 10, "missing": 10, "children": [{"nodeid": 9, "depth": 3, "split": "f7", "split_condition": 1.05813837, "yes": 19, "no": 20, "missing": 20, "children": [{"nodeid": 19, "leaf": -0.0117221782}, {"nodeid": 20, "leaf": -0.00455288915}]}, {"nodeid": 10, "depth": 3, "split": "f0", "split_condition": 500, "yes": 21, "no": 22, "missing": 22, "children": [{"nodeid": 21, "leaf": -0.00447522523}, {"nodeid": 22, "leaf": 0.00344243273}]}]}]}, {"nodeid": 2, "depth": 1, "split": "f6", "split_condition": 0.726172209, "yes": 5, "no": 6, "missing": 6, "children": [{"nodeid": 5, "depth": 2, "split": "f7", "split_condition": 1.30102921, "yes": 11, "no": 12, "missing": 12, "children": [{"nodeid": 11, "depth": 3, "split": "f5", "split_condition": 7, "yes": 23, "no": 24, "missing": 24, "children": [{"nodeid": 23, "leaf": -0.0187631287}, {"nodeid": 24, "leaf": -0.00617199717}]}, {"nodeid": 12, "depth": 3, "split": "f7", "split_condition": 1.38518214, "yes": 25, "no": 26, "missing": 26, "children": [{"nodeid": 25, "leaf": 0.00128614309}, {"nodeid": 26, "leaf": 0.014701277}]}]}, {"nodeid": 6, "depth": 2, "split": "f7", "split_condition": 1.1576668, "yes": 13, "no": 14, "missing": 14, "children": [{"nodeid": 13, "depth": 3, "split": "f5", "split_condition": 9, "yes": 27, "no": 28, "missing": 28, "children": [{"nodeid": 27, "leaf": -0.000202648022}, {"nodeid": 28, "leaf": 0.00724457158}]}, {"nodeid": 14, "depth": 3, "split": "f5", "split_condition": 7, "yes": 29, "no": 30, "missing": 30, "children": [{"nodeid": 29, "leaf": 0.00860195328}, {"nodeid": 30, "leaf": 0.0140219377}]}]}]}]}, {"nodeid": 0, "depth": 0, "split": "f7", "split_condition": 1.12219703, "yes": 1, "no": 2, "missing": 2, "children": [{"nodeid": 1, "depth": 1, "split": "f5", "split_condition": 9, "yes": 3, "no": 4, "missing": 4, "children": [{"nodeid": 3, "depth": 2, "split": "f0", "split_condition": 600, "yes": 7, "no": 8, "missing": 8, "children": [{"nodeid": 7, "depth": 3, "split": "f5", "split_condition": 7, "yes": 15, "no": 16, "missing": 16, "children": [{"nodeid": 15, "leaf": -0.018459864}, {"nodeid": 16, "leaf": -0.0143420845}]}, {"nodeid": 8, "depth": 3, "split": "f4", "split_condition": 395, "yes": 17, "no": 18, "missing": 18, "children": [{"nodeid": 17, "leaf": -0.0146076595}, {"nodeid": 18, "leaf": -0.00049216958}]}]}, {"nodeid": 4, "depth": 2, "split": "f7", "split_condition": 1.06989408, "yes": 9, "no": 10, "missing": 10, "children": [{"nodeid": 9, "depth": 3, "split": "f5", "split_condition": 12, "yes": 19, "no": 20, "missing": 20, "children": [{"nodeid": 19, "leaf": -0.0119452802}, {"nodeid": 20, "leaf": -0.00388549268}]}, {"nodeid": 10, "depth": 3, "split": "f0", "split_condition": 500, "yes": 21, "no": 22, "missing": 22, "children": [{"nodeid": 21, "leaf": -0.00493153138}, {"nodeid": 22, "leaf": 0.00264357589}]}]}]}, {"nodeid": 2, "depth": 1, "split": "f5", "split_condition": 7, "yes": 5, "no": 6, "missing": 6, "children": [{"nodeid": 5, "depth": 2, "split": "f7", "split_condition": 1.15373576, "yes": 11, "no": 12, "missing": 12, "children": [{"nodeid": 11, "depth": 3, "split": "f4", "split_condition": 395, "yes": 23, "no": 24, "missing": 24, "children": [{"nodeid": 23, "leaf": -0.0175877679}, {"nodeid": 24, "leaf": 0.0023201888}]}, {"nodeid": 12, "depth": 3, "split": "f7", "split_condition": 1.40558684, "yes": 25, "no": 26, "missing": 26, "children": [{"nodeid": 25, "leaf": 0.00303328666}, {"nodeid": 26, "leaf": 0.0158710796}]}]}, {"nodeid": 6, "depth": 2, "split": "f7", "split_condition": 1.14183748, "yes": 13, "no": 14, "missing": 14, "children": [{"nodeid": 13, "depth": 3, "split": "f0", "split_condition": 500, "yes": 27, "no": 28, "missing": 28, "children": [{"nodeid": 27, "leaf": 0.00682541309}, {"nodeid": 28, "leaf": -0.0047652428}]}, {"nodeid": 14, "depth": 3, "split": "f5", "split_condition": 14, "yes": 29, "no": 30, "missing": 30, "children": [{"nodeid": 29, "leaf": 0.0110157989}, {"nodeid": 30, "leaf": 0.00236946088}]}]}]}]}, {"nodeid": 0, "depth": 0, "split": "f7", "split_condition": 1.12219703, "yes": 1, "no": 2, "missing": 2, "children": [{"nodeid": 1, "depth": 1, "split": "f6", "split_condition": 1.07759905, "yes": 3, "no": 4, "missing": 4, "children": [{"nodeid": 3, "depth": 2, "split": "f6", "split_condition": 0.89789927, "yes": 7, "no": 8, "missing": 8, "children": [{"nodeid": 7, "depth": 3, "split": "f7", "split_condition": 1.07855976, "yes": 15, "no": 16, "missing": 16, "children": [{"nodeid": 15, "leaf": -0.0190859698}, {"nodeid": 16, "leaf": -0.00843647774}]}, {"nodeid": 8, "depth": 3, "split": "f4", "split_condition": 395, "yes": 17, "no": 18, "missing": 18, "children": [{"nodeid": 17, "leaf": -0.0117658963}, {"nodeid": 18, "leaf": -0.00534216641}]}]}, {"nodeid": 4, "depth": 2, "split": "f4", "split_condition": 395, "yes": 9, "no": 10, "missing": 10, "children": [{"nodeid": 9, "depth": 3, "split": "f6", "split_condition": 1.23551381, "yes": 19, "no": 20, "missing": 20, "children": [{"nodeid": 19, "leaf": -0.00636791578}, {"nodeid": 20, "leaf": 0.00201124675}]}, {"nodeid": 10, "depth": 3, "split": "f7", "split_condition": 1.1140039, "yes": 21, "no": 22, "missing": 22, "children": [{"nodeid": 21, "leaf": -0.00197902997}, {"nodeid": 22, "leaf": 0.0157369431}]}]}]}, {"nodeid": 2, "depth": 1, "split": "f6", "split_condition": 0.841730416, "yes": 5, "no": 6, "missing": 6, "children": [{"nodeid": 5, "depth": 2, "split": "f7", "split_condition": 1.23380995, "yes": 11, "no": 12, "missing": 12, "children": [{"nodeid": 11, "depth": 3, "split": "f4", "split_condition": 395, "yes": 23, "no": 24, "missing": 24, "children": [{"nodeid": 23, "leaf": -0.0208601113}, {"nodeid": 24, "leaf": -0.00590268942}]}, {"nodeid": 12, "depth": 3, "split": "f6", "split_condition": 0.600880742, "yes": 25, "no": 26, "missing": 26, "children": [{"nodeid": 25, "leaf": -0.00525070867}, {"nodeid": 26, "leaf": 0.00922533683}]}]}, {"nodeid": 6, "depth": 2, "split": "f7", "split_condition": 1.15740788, "yes": 13, "no": 14, "missing": 14, "children": [{"nodeid": 13, "depth": 3, "split": "f4", "split_condition": 395, "yes": 27, "no": 28, "missing": 28, "children": [{"nodeid": 27, "leaf": 0.00259027537}, {"nodeid": 28, "leaf": 0.00880526472}]}, {"nodeid": 14, "depth": 3, "split": "f0", "split_condition": 400, "yes": 29, "no": 30, "missing": 30, "children": [{"nodeid": 29, "leaf": 0.00910773501}, {"nodeid": 30, "leaf": 0.0130776754}]}]}]}]}, {"nodeid": 0, "depth": 0, "split": "f7", "split_condition": 1.12219703, "yes": 1, "no": 2, "missing": 2, "children": [{"nodeid": 1, "depth": 1, "split": "f5", "split_condition": 9, "yes": 3, "no": 4, "missing": 4, "children": [{"nodeid": 3, "depth": 2, "split": "f0", "split_condition": 600, "yes": 7, "no": 8, "missing": 8, "children": [{"nodeid": 7, "depth": 3, "split": "f5", "split_condition": 7, "yes": 15, "no": 16, "missing": 16, "children": [{"nodeid": 15, "leaf": -0.0176959075}, {"nodeid": 16, "leaf": -0.0132112447}]}, {"nodeid": 8, "depth": 3, "split": "f4", "split_condition": 395, "yes": 17, "no": 18, "missing": 18, "children": [{"nodeid": 17, "leaf": -0.0130845187}, {"nodeid": 18, "leaf": 0.00168808538}]}]}, {"nodeid": 4, "depth": 2, "split": "f6", "split_condition": 1.07331133, "yes": 9, "no": 10, "missing": 10, "children": [{"nodeid": 9, "depth": 3, "split": "f7", "split_condition": 1.05813837, "yes": 19, "no": 20, "missing": 20, "children": [{"nodeid": 19, "leaf": -0.0103842551}, {"nodeid": 20, "leaf": -0.00458033895}]}, {"nodeid": 10, "depth": 3, "split": "f4", "split_condition": 395, "yes": 21, "no": 22, "missing": 22, "children": [{"nodeid": 21, "leaf": -0.00236139889}, {"nodeid": 22, "leaf": 0.00619262643}]}]}]}, {"nodeid": 2, "depth": 1, "split": "f6", "split_condition": 0.841730416, "yes": 5, "no": 6, "missing": 6, "children": [{"nodeid": 5, "depth": 2, "split": "f7", "split_condition": 1.23380995, "yes": 11, "no": 12, "missing": 12, "children": [{"nodeid": 11, "depth": 3, "split": "f5", "split_condition": 9, "yes": 23, "no": 24, "missing": 24, "children": [{"nodeid": 23, "leaf": -0.0157150272}, {"nodeid": 24, "leaf": 0.0195480846}]}, {"nodeid": 12, "depth": 3, "split": "f6", "split_condition": 0.600880742, "yes": 25, "no": 26, "missing": 26, "children": [{"nodeid": 25, "leaf": -0.00439737411}, {"nodeid": 26, "leaf": 0.00934527256}]}]}, {"nodeid": 6, "depth": 2, "split": "f7", "split_condition": 1.14700699, "yes": 13, "no": 14, "missing": 14, "children": [{"nodeid": 13, "depth": 3, "split": "f4", "split_condition": 395, "yes": 27, "no": 28, "missing": 28, "children": [{"nodeid": 27, "leaf": -0.000381513702}, {"nodeid": 28, "leaf": 0.00774842873}]}, {"nodeid": 14, "depth": 3, "split": "f5", "split_condition": 14, "yes": 29, "no": 30, "missing": 30, "children": [{"nodeid": 29, "leaf": 0.0099341264}, {"nodeid": 30, "leaf": 0.00121898344}]}]}]}]}, {"nodeid": 0, "depth": 0, "split": "f7", "split_condition": 1.1227349, "yes": 1, "no": 2, "missing": 2, "children": [{"nodeid": 1, "depth": 1, "split": "f5", "split_condition": 9, "yes": 3, "no": 4, "missing": 4, "children": [{"nodeid": 3, "depth": 2, "split": "f0", "split_condition": 600, "yes": 7, "no": 8, "missing": 8, "children": [{"nodeid": 7, "depth": 3, "split": "f7", "split_condition": 1.11698604, "yes": 15, "no": 16, "missing": 16, "children": [{"nodeid": 15, "leaf": -0.0136558665}, {"nodeid": 16, "leaf": -0.0219145156}]}, {"nodeid": 8, "depth": 3, "split": "f6", "split_condition": 1.11123705, "yes": 17, "no": 18, "missing": 18, "children": [{"nodeid": 17, "leaf": -0.0128849763}, {"nodeid": 18, "leaf": 0.00137265632}]}]}, {"nodeid": 4, "depth": 2, "split": "f6", "split_condition": 1.07759905, "yes": 9, "no": 10, "missing": 10, "children": [{"nodeid": 9, "depth": 3, "split": "f7", "split_condition": 1.11563408, "yes": 19, "no": 20, "missing": 20, "children": [{"nodeid": 19, "leaf": -0.00623599393}, {"nodeid": 20, "leaf": -0.0192778036}]}, {"nodeid": 10, "depth": 3, "split": "f6", "split_condition": 1.25963318, "yes": 21, "no": 22, "missing": 22, "children": [{"nodeid": 21, "leaf": -0.00116093992}, {"nodeid": 22, "leaf": 0.00802746695}]}]}]}, {"nodeid": 2, "depth": 1, "split": "f6", "split_condition": 0.716816545, "yes": 5, "no": 6, "missing": 6, "children": [{"nodeid": 5, "depth": 2, "split": "f7", "split_condition": 1.33335638, "yes": 11, "no": 12, "missing": 12, "children": [{"nodeid": 11, "depth": 3, "split": "f0", "split_condition": 500, "yes": 23, "no": 24, "missing": 24, "children": [{"nodeid": 23, "leaf": -0.0160036981}, {"nodeid": 24, "leaf": -0.00422812765}]}, {"nodeid": 12, "depth": 3, "split": "f7", "split_condition": 1.38518214, "yes": 25, "no": 26, "missing": 26, "children": [{"nodeid": 25, "leaf": 0.00347591611}, {"nodeid": 26, "leaf": 0.0126545047}]}]}, {"nodeid": 6, "depth": 2, "split": "f7", "split_condition": 1.15740788, "yes": 13, "no": 14, "missing": 14, "children": [{"nodeid": 13, "depth": 3, "split": "f6", "split_condition": 1.04102433, "yes": 27, "no": 28, "missing": 28, "children": [{"nodeid": 27, "leaf": -0.00830737688}, {"nodeid": 28, "leaf": 0.00473235315}]}, {"nodeid": 14, "depth": 3, "split": "f5", "split_condition": 7, "yes": 29, "no": 30, "missing": 30, "children": [{"nodeid": 29, "leaf": 0.00684746727}, {"nodeid": 30, "leaf": 0.0116716074}]}]}]}]}, {"nodeid": 0, "depth": 0, "split": "f7", "split_condition": 1.12219703, "yes": 1, "no": 2, "missing": 2, "children": [{"nodeid": 1, "depth": 1, "split": "f5", "split_condition": 9, "yes": 3, "no": 4, "missing": 4, "children": [{"nodeid": 3, "depth": 2, "split": "f6", "split_condition": 0.930074334, "yes": 7, "no": 8, "missing": 8, "children": [{"nodeid": 7, "depth": 3, "split": "f4", "split_condition": 395, "yes": 15, "no": 16, "missing": 16, "children": [{"nodeid": 15, "leaf": -0.0196575709}, {"nodeid": 16, "leaf": -0.0148311574}]}, {"nodeid": 8, "depth": 3, "split": "f0", "split_condition": 600, "yes": 17, "no": 18, "missing": 18, "children": [{"nodeid": 17, "leaf": -0.0120456722}, {"nodeid": 18, "leaf": -0.00513312779}]}]}, {"nodeid": 4, "depth": 2, "split": "f6", "split_condition": 1.07759905, "yes": 9, "no": 10, "missing": 10, "children": [{"nodeid": 9, "depth": 3, "split": "f7", "split_condition": 1.05813837, "yes": 19, "no": 20, "missing": 20, "children": [{"nodeid": 19, "leaf": -0.00942324009}, {"nodeid": 20, "leaf": -0.00379280164}]}, {"nodeid": 10, "depth": 3, "split": "f0", "split_condition": 500, "yes": 21, "no": 22, "missing": 22, "children": [{"nodeid": 21, "leaf": -0.00373715698}, {"nodeid": 22, "leaf": 0.0038375014}]}]}]}, {"nodeid": 2, "depth": 1, "split": "f6", "split_condition": 0.775436401, "yes": 5, "no": 6, "missing": 6, "children": [{"nodeid": 5, "depth": 2, "split": "f7", "split_condition": 1.30102921, "yes": 11, "no": 12, "missing": 12, "children": [{"nodeid": 11, "depth": 3, "split": "f4", "split_condition": 395, "yes": 23, "no": 24, "missing": 24, "children": [{"nodeid": 23, "leaf": -0.0164967086}, {"nodeid": 24, "leaf": -0.00324696931}]}, {"nodeid": 12, "depth": 3, "split": "f7", "split_condition": 1.40558684, "yes": 25, "no": 26, "missing": 26, "children": [{"nodeid": 25, "leaf": 0.00381986657}, {"nodeid": 26, "leaf": 0.0140864421}]}]}, {"nodeid": 6, "depth": 2, "split": "f7", "split_condition": 1.15740788, "yes": 13, "no": 14, "missing": 14, "children": [{"nodeid": 13, "depth": 3, "split": "f5", "split_condition": 9, "yes": 27, "no": 28, "missing": 28, "children": [{"nodeid": 27, "leaf": -0.00075674901}, {"nodeid": 28, "leaf": 0.0063137929}]}, {"nodeid": 14, "depth": 3, "split": "f0", "split_condition": 400, "yes": 29, "no": 30, "missing": 30, "children": [{"nodeid": 29, "leaf": 0.00651726872}, {"nodeid": 30, "leaf": 0.0117282839}]}]}]}]}, {"nodeid": 0, "depth": 0, "split": "f7", "split_condition": 1.12178934, "yes": 1, "no": 2, "missing": 2, "children": [{"nodeid": 1, "depth": 1, "split": "f5", "split_condition": 9, "yes": 3, "no": 4, "missing": 4, "children": [{"nodeid": 3, "depth": 2, "split": "f0", "split_condition": 600, "yes": 7, "no": 8, "missing": 8, "children": [{"nodeid": 7, "depth": 3, "split": "f7", "split_condition": 1.03913772, "yes": 15, "no": 16, "missing": 16, "children": [{"nodeid": 15, "leaf": -0.0192270167}, {"nodeid": 16, "leaf": -0.0120354909}]}, {"nodeid": 8, "depth": 3, "split": "f7", "split_condition": 1.09928751, "yes": 17, "no": 18, "missing": 18, "children": [{"nodeid": 17, "leaf": -0.0115264282}, {"nodeid": 18, "leaf": 0.00247143279}]}]}, {"nodeid": 4, "depth": 2, "split": "f0", "split_condition": 500, "yes": 9, "no": 10, "missing": 10, "children": [{"nodeid": 9, "depth": 3, "split": "f4", "split_condition": 324, "yes": 19, "no": 20, "missing": 20, "children": [{"nodeid": 19, "leaf": -0.00708779087}, {"nodeid": 20, "leaf": -0.00356643251}]}, {"nodeid": 10, "depth": 3, "split": "f7", "split_condition": 1.06989408, "yes": 21, "no": 22, "missing": 22, "children": [{"nodeid": 21, "leaf": -0.00344067556}, {"nodeid": 22, "leaf": 0.00210028025}]}]}]}, {"nodeid": 2, "depth": 1, "split": "f5", "split_condition": 7, "yes": 5, "no": 6, "missing": 6, "children": [{"nodeid": 5, "depth": 2, "split": "f7", "split_condition": 1.13233483, "yes": 11, "no": 12, "missing": 12, "children": [{"nodeid": 11, "depth": 3, "split": "f0", "split_condition": 600, "yes": 23, "no": 24, "missing": 24, "children": [{"nodeid": 23, "leaf": -0.0221828651}, {"nodeid": 24, "leaf": -0.0128135039}]}, {"nodeid": 12, "depth": 3, "split": "f7", "split_condition": 1.25027514, "yes": 25, "no": 26, "missing": 26, "children": [{"nodeid": 25, "leaf": -0.000581325497}, {"nodeid": 26, "leaf": 0.00597732374}]}]}, {"nodeid": 6, "depth": 2, "split": "f7", "split_condition": 1.14183748, "yes": 13, "no": 14, "missing": 14, "children": [{"nodeid": 13, "depth": 3, "split": "f0", "split_condition": 500, "yes": 27, "no": 28, "missing": 28, "children": [{"nodeid": 27, "leaf": 0.00577767193}, {"nodeid": 28, "leaf": -0.00516293896}]}, {"nodeid": 14, "depth": 3, "split": "f4", "split_condition": 395, "yes": 29, "no": 30, "missing": 30, "children": [{"nodeid": 29, "leaf": 0.00723579293}, {"nodeid": 30, "leaf": 0.0138854934}]}]}]}]}, {"nodeid": 0, "depth": 0, "split": "f7", "split_condition": 1.11563408, "yes": 1, "no": 2, "missing": 2, "children": [{"nodeid": 1, "depth": 1, "split": "f5", "split_condition": 12, "yes": 3, "no": 4, "missing": 4, "children": [{"nodeid": 3, "depth": 2, "split": "f0", "split_condition": 600, "yes": 7, "no": 8, "missing": 8, "children": [{"nodeid": 7, "depth": 3, "split": "f7", "split_condition": 1.11519349, "yes": 15, "no": 16, "missing": 16, "children": [{"nodeid": 15, "leaf": -0.0103256172}, {"nodeid": 16, "leaf": 0.0147766918}]}, {"nodeid": 8, "depth": 3, "split": "f6", "split_condition": 1.09570837, "yes": 17, "no": 18, "missing": 18, "children": [{"nodeid": 17, "leaf": -0.00941413455}, {"nodeid": 18, "leaf": 0.00113313354}]}]}, {"nodeid": 4, "depth": 2, "split": "f6", "split_condition": 1.15334749, "yes": 9, "no": 10, "missing": 10, "children": [{"nodeid": 9, "depth": 3, "split": "f4", "split_condition": 324, "yes": 19, "no": 20, "missing": 20, "children": [{"nodeid": 19, "leaf": -0.0131553663}, {"nodeid": 20, "leaf": -0.00191248918}]}, {"nodeid": 10, "depth": 3, "split": "f7", "split_condition": 1.04360199, "yes": 21, "no": 22, "missing": 22, "children": [{"nodeid": 21, "leaf": 0.0176229049}, {"nodeid": 22, "leaf": 0.00247605005}]}]}]}, {"nodeid": 2, "depth": 1, "split": "f6", "split_condition": 0.726172209, "yes": 5, "no": 6, "missing": 6, "children": [{"nodeid": 5, "depth": 2, "split": "f7", "split_condition": 1.31285894, "yes": 11, "no": 12, "missing": 12, "children": [{"nodeid": 11, "depth": 3, "split": "f5", "split_condition": 7, "yes": 23, "no": 24, "missing": 24, "children": [{"nodeid": 23, "leaf": -0.0161500368}, {"nodeid": 24, "leaf": -0.00441447878}]}, {"nodeid": 12, "depth": 3, "split": "f6", "split_condition": 0.600880742, "yes": 25, "no": 26, "missing": 26, "children": [{"nodeid": 25, "leaf": -0.00111537403}, {"nodeid": 26, "leaf": 0.010484444}]}]}, {"nodeid": 6, "depth": 2, "split": "f7", "split_condition": 1.14238441, "yes": 13, "no": 14, "missing": 14, "children": [{"nodeid": 13, "depth": 3, "split": "f4", "split_condition": 395, "yes": 27, "no": 28, "missing": 28, "children": [{"nodeid": 27, "leaf": -0.0027656327}, {"nodeid": 28, "leaf": 0.00600765413}]}, {"nodeid": 14, "depth": 3, "split": "f0", "split_condition": 330, "yes": 29, "no": 30, "missing": 30, "children": [{"nodeid": 29, "leaf": 0.00333404844}, {"nodeid": 30, "leaf": 0.00847107265}]}]}]}]}, {"nodeid": 0, "depth": 0, "split": "f6", "split_condition": 1.03494024, "yes": 1, "no": 2, "missing": 2, "children": [{"nodeid": 1, "depth": 1, "split": "f5", "split_condition": 14, "yes": 3, "no": 4, "missing": 4, "children": [{"nodeid": 3, "depth": 2, "split": "f6", "split_condition": 0.600880742, "yes": 7, "no": 8, "missing": 8, "children": [{"nodeid": 7, "depth": 3, "split": "f0", "split_condition": 500, "yes": 15, "no": 16, "missing": 16, "children": [{"nodeid": 15, "leaf": -0.0123991026}, {"nodeid": 16, "leaf": -0.00495773274}]}, {"nodeid": 8, "depth": 3, "split": "f4", "split_condition": 395, "yes": 17, "no": 18, "missing": 18, "children": [{"nodeid": 17, "leaf": -0.00425853161}, {"nodeid": 18, "leaf": -0.000645997643}]}]}, {"nodeid": 4, "depth": 2, "split": "f4", "split_condition": 395, "yes": 9, "no": 10, "missing": 10, "children": [{"nodeid": 9, "depth": 3, "split": "f6", "split_condition": 0.997515917, "yes": 19, "no": 20, "missing": 20, "children": [{"nodeid": 19, "leaf": -0.0193688758}, {"nodeid": 20, "leaf": -0.00727350218}]}, {"nodeid": 10, "depth": 3, "split": "f6", "split_condition": 1.03057992, "yes": 21, "no": 22, "missing": 22, "children": [{"nodeid": 21, "leaf": -0.00593219837}, {"nodeid": 22, "leaf": -0.0202910006}]}]}]}, {"nodeid": 2, "depth": 1, "split": "f6", "split_condition": 1.24762678, "yes": 5, "no": 6, "missing": 6, "children": [{"nodeid": 5, "depth": 2, "split": "f4", "split_condition": 324, "yes": 11, "no": 12, "missing": 12, "children": [{"nodeid": 11, "depth": 3, "split": "f0", "split_condition": 600, "yes": 23, "no": 24, "missing": 24, "children": [{"nodeid": 23, "leaf": -0.00628827279}, {"nodeid": 24, "leaf": -0.012965736}]}, {"nodeid": 12, "depth": 3, "split": "f4", "split_condition": 395, "yes": 25, "no": 26, "missing": 26, "children": [{"nodeid": 25, "leaf": 0.000812248618}, {"nodeid": 26, "leaf": 0.00486754021}]}]}, {"nodeid": 6, "depth": 2, "split": "f5", "split_condition": 14, "yes": 13, "no": 14, "missing": 14, "children": [{"nodeid": 13, "depth": 3, "split": "f6", "split_condition": 1.25415301, "yes": 27, "no": 28, "missing": 28, "children": [{"nodeid": 27, "leaf": -0.0105683086}, {"nodeid": 28, "leaf": 0.00428054435}]}, {"nodeid": 14, "depth": 3, "split": "f6", "split_condition": 1.25963318, "yes": 29, "no": 30, "missing": 30, "children": [{"nodeid": 29, "leaf": 0.011727686}, {"nodeid": 30, "leaf": 0.0202520713}]}]}]}]}, {"nodeid": 0, "depth": 0, "split": "f7", "split_condition": 1.11646223, "yes": 1, "no": 2, "missing": 2, "children": [{"nodeid": 1, "depth": 1, "split": "f5", "split_condition": 12, "yes": 3, "no": 4, "missing": 4, "children": [{"nodeid": 3, "depth": 2, "split": "f7", "split_condition": 1.11519349, "yes": 7, "no": 8, "missing": 8, "children": [{"nodeid": 7, "depth": 3, "split": "f7", "split_condition": 1.07479143, "yes": 15, "no": 16, "missing": 16, "children": [{"nodeid": 15, "leaf": -0.0108480053}, {"nodeid": 16, "leaf": -0.00664810184}]}, {"nodeid": 8, "depth": 3, "split": "f5", "split_condition": 7, "yes": 17, "no": 18, "missing": 18, "children": [{"nodeid": 17, "leaf": -0.0180829447}, {"nodeid": 18, "leaf": 0.0111105945}]}]}, {"nodeid": 4, "depth": 2, "split": "f6", "split_condition": 1.25963318, "yes": 9, "no": 10, "missing": 10, "children": [{"nodeid": 9, "depth": 3, "split": "f7", "split_condition": 1.10614538, "yes": 19, "no": 20, "missing": 20, "children": [{"nodeid": 19, "leaf": -0.000523467897}, {"nodeid": 20, "leaf": -0.0132552329}]}, {"nodeid": 10, "depth": 3, "split": "f5", "split_condition": 14, "yes": 21, "no": 22, "missing": 22, "children": [{"nodeid": 21, "leaf": 0.00262996298}, {"nodeid": 22, "leaf": 0.0202636104}]}]}]}, {"nodeid": 2, "depth": 1, "split": "f6", "split_condition": 0.847415626, "yes": 5, "no": 6, "missing": 6, "children": [{"nodeid": 5, "depth": 2, "split": "f7", "split_condition": 1.23380995, "yes": 11, "no": 12, "missing": 12, "children": [{"nodeid": 11, "depth": 3, "split": "f5", "split_condition": 9, "yes": 23, "no": 24, "missing": 24, "children": [{"nodeid": 23, "leaf": -0.0139164077}, {"nodeid": 24, "leaf": 0.0181738604}]}, {"nodeid": 12, "depth": 3, "split": "f7", "split_condition": 1.31285894, "yes": 25, "no": 26, "missing": 26, "children": [{"nodeid": 25, "leaf": -0.00104764814}, {"nodeid": 26, "leaf": 0.0093603367}]}]}, {"nodeid": 6, "depth": 2, "split": "f7", "split_condition": 1.16583681, "yes": 13, "no": 14, "missing": 14, "children": [{"nodeid": 13, "depth": 3, "split": "f6", "split_condition": 1.05247688, "yes": 27, "no": 28, "missing": 28, "children": [{"nodeid": 27, "leaf": -0.00327952509}, {"nodeid": 28, "leaf": 0.00417364109}]}, {"nodeid": 14, "depth": 3, "split": "f5", "split_condition": 9, "yes": 29, "no": 30, "missing": 30, "children": [{"nodeid": 29, "leaf": 0.00838564429}, {"nodeid": 30, "leaf": 0.0173406694}]}]}]}]}, {"nodeid": 0, "depth": 0, "split": "f6", "split_condition": 1.24561131, "yes": 1, "no": 2, "missing": 2, "children": [{"nodeid": 1, "depth": 1, "split": "f4", "split_condition": 324, "yes": 3, "no": 4, "missing": 4, "children": [{"nodeid": 3, "depth": 2, "split": "f5", "split_condition": 12, "yes": 7, "no": 8, "missing": 8, "children": [{"nodeid": 7, "depth": 3, "split": "f6", "split_condition": 0.847415626, "yes": 15, "no": 16, "missing": 16, "children": [{"nodeid": 15, "leaf": -0.00759494537}, {"nodeid": 16, "leaf": -0.00326095871}]}, {"nodeid": 8, "depth": 3, "split": "f6", "split_condition": 1.22401345, "yes": 17, "no": 18, "missing": 18, "children": [{"nodeid": 17, "leaf": -0.0129359532}, {"nodeid": 18, "leaf": -0.00525635388}]}]}, {"nodeid": 4, "depth": 2, "split": "f6", "split_condition": 1.05362225, "yes": 9, "no": 10, "missing": 10, "children": [{"nodeid": 9, "depth": 3, "split": "f4", "split_condition": 395, "yes": 19, "no": 20, "missing": 20, "children": [{"nodeid": 19, "leaf": -0.00548813073}, {"nodeid": 20, "leaf": -0.00195681187}]}, {"nodeid": 10, "depth": 3, "split": "f4", "split_condition": 395, "yes": 21, "no": 22, "missing": 22, "children": [{"nodeid": 21, "leaf": 0.000595676771}, {"nodeid": 22, "leaf": 0.00606521778}]}]}]}, {"nodeid": 2, "depth": 1, "split": "f5", "split_condition": 14, "yes": 5, "no": 6, "missing": 6, "children": [{"nodeid": 5, "depth": 2, "split": "f6", "split_condition": 1.26613343, "yes": 11, "no": 12, "missing": 12, "children": [{"nodeid": 11, "depth": 3, "split": "f6", "split_condition": 1.24762678, "yes": 23, "no": 24, "missing": 24, "children": [{"nodeid": 23, "leaf": 0.0118127307}, {"nodeid": 24, "leaf": -0.00270816032}]}, {"nodeid": 12, "depth": 3, "split": "f5", "split_condition": 9, "yes": 25, "no": 26, "missing": 26, "children": [{"nodeid": 25, "leaf": 0.00244964124}, {"nodeid": 26, "leaf": 0.00759936823}]}]}, {"nodeid": 6, "depth": 2, "split": "f6", "split_condition": 1.24762678, "yes": 13, "no": 14, "missing": 14, "children": [{"nodeid": 13, "depth": 3, "split": "f0", "split_condition": 500, "yes": 27, "no": 28, "missing": 28, "children": [{"nodeid": 27, "leaf": 0.00259831524}, {"nodeid": 28, "leaf": -0.0242162384}]}, {"nodeid": 14, "depth": 3, "split": "f6", "split_condition": 1.25963318, "yes": 29, "no": 30, "missing": 30, "children": [{"nodeid": 29, "leaf": 0.0112679377}, {"nodeid": 30, "leaf": 0.0170385893}]}]}]}]}, {"nodeid": 0, "depth": 0, "split": "f7", "split_condition": 1.11646223, "yes": 1, "no": 2, "missing": 2, "children": [{"nodeid": 1, "depth": 1, "split": "f6", "split_condition": 1.02407825, "yes": 3, "no": 4, "missing": 4, "children": [{"nodeid": 3, "depth": 2, "split": "f7", "split_condition": 1.05893385, "yes": 7, "no": 8, "missing": 8, "children": [{"nodeid": 7, "depth": 3, "split": "f6", "split_condition": 0.940649688, "yes": 15, "no": 16, "missing": 16, "children": [{"nodeid": 15, "leaf": -0.0155341392}, {"nodeid": 16, "leaf": -0.00815803371}]}, {"nodeid": 8, "depth": 3, "split": "f4", "split_condition": 395, "yes": 17, "no": 18, "missing": 18, "children": [{"nodeid": 17, "leaf": -0.00895096175}, {"nodeid": 18, "leaf": -0.000747485843}]}]}, {"nodeid": 4, "depth": 2, "split": "f7", "split_condition": 1.04360199, "yes": 9, "no": 10, "missing": 10, "children": [{"nodeid": 9, "depth": 3, "split": "f6", "split_condition": 1.16682959, "yes": 19, "no": 20, "missing": 20, "children": [{"nodeid": 19, "leaf": 0.00245847623}, {"nodeid": 20, "leaf": 0.0159772672}]}, {"nodeid": 10, "depth": 3, "split": "f0", "split_condition": 600, "yes": 21, "no": 22, "missing": 22, "children": [{"nodeid": 21, "leaf": -0.00506144762}, {"nodeid": 22, "leaf": 0.00132511905}]}]}]}, {"nodeid": 2, "depth": 1, "split": "f6", "split_condition": 0.600880742, "yes": 5, "no": 6, "missing": 6, "children": [{"nodeid": 5, "depth": 2, "split": "f7", "split_condition": 1.38518214, "yes": 11, "no": 12, "missing": 12, "children": [{"nodeid": 11, "depth": 3, "split": "f7", "split_condition": 1.30102921, "yes": 23, "no": 24, "missing": 24, "children": [{"nodeid": 23, "leaf": -0.0178210046}, {"nodeid": 24, "leaf": -0.00749991694}]}, {"nodeid": 12, "depth": 3, "split": "f0", "split_condition": 400, "yes": 25, "no": 26, "missing": 26, "children": [{"nodeid": 25, "leaf": -0.000579507556}, {"nodeid": 26, "leaf": 0.0103182513}]}]}, {"nodeid": 6, "depth": 2, "split": "f7", "split_condition": 1.15740788, "yes": 13, "no": 14, "missing": 14, "children": [{"nodeid": 13, "depth": 3, "split": "f6", "split_condition": 1.04102433, "yes": 27, "no": 28, "missing": 28, "children": [{"nodeid": 27, "leaf": -0.0103916712}, {"nodeid": 28, "leaf": 0.00350437872}]}, {"nodeid": 14, "depth": 3, "split": "f4", "split_condition": 395, "yes": 29, "no": 30, "missing": 30, "children": [{"nodeid": 29, "leaf": 0.00585166179}, {"nodeid": 30, "leaf": 0.0118258893}]}]}]}]}, {"nodeid": 0, "depth": 0, "split": "f7", "split_condition": 1.11646223, "yes": 1, "no": 2, "missing": 2, "children": [{"nodeid": 1, "depth": 1, "split": "f6", "split_condition": 0.878728926, "yes": 3, "no": 4, "missing": 4, "children": [{"nodeid": 3, "depth": 2, "split": "f7", "split_condition": 1.08072841, "yes": 7, "no": 8, "missing": 8, "children": [{"nodeid": 7, "depth": 3, "split": "f6", "split_condition": 0.841730416, "yes": 15, "no": 16, "missing": 16, "children": [{"nodeid": 15, "leaf": -0.0193293747}, {"nodeid": 16, "leaf": -0.0116258999}]}, {"nodeid": 8, "depth": 3, "split": "f6", "split_condition": 0.811654389, "yes": 17, "no": 18, "missing": 18, "children": [{"nodeid": 17, "leaf": -0.00870639924}, {"nodeid": 18, "leaf": 0.00399973849}]}]}, {"nodeid": 4, "depth": 2, "split": "f6", "split_condition": 1.25963318, "yes": 9, "no": 10, "missing": 10, "children": [{"nodeid": 9, "depth": 3, "split": "f4", "split_condition": 324, "yes": 19, "no": 20, "missing": 20, "children": [{"nodeid": 19, "leaf": -0.00734859705}, {"nodeid": 20, "leaf": -0.00251766085}]}, {"nodeid": 10, "depth": 3, "split": "f6", "split_condition": 1.26333666, "yes": 21, "no": 22, "missing": 22, "children": [{"nodeid": 21, "leaf": 0.0108709447}, {"nodeid": 22, "leaf": 0.000339943741}]}]}]}, {"nodeid": 2, "depth": 1, "split": "f6", "split_condition": 0.600880742, "yes": 5, "no": 6, "missing": 6, "children": [{"nodeid": 5, "depth": 2, "split": "f7", "split_condition": 1.33335638, "yes": 11, "no": 12, "missing": 12, "children": [{"nodeid": 11, "depth": 3, "split": "f7", "split_condition": 1.30102921, "yes": 23, "no": 24, "missing": 24, "children": [{"nodeid": 23, "leaf": -0.0182263982}, {"nodeid": 24, "leaf": -0.00880759209}]}, {"nodeid": 12, "depth": 3, "split": "f7", "split_condition": 1.4651289, "yes": 25, "no": 26, "missing": 26, "children": [{"nodeid": 25, "leaf": -0.00211932044}, {"nodeid": 26, "leaf": 0.013378555}]}]}, {"nodeid": 6, "depth": 2, "split": "f7", "split_condition": 1.15740788, "yes": 13, "no": 14, "missing": 14, "children": [{"nodeid": 13, "depth": 3, "split": "f6", "split_condition": 1.04102433, "yes": 27, "no": 28, "missing": 28, "children": [{"nodeid": 27, "leaf": -0.00913136918}, {"nodeid": 28, "leaf": 0.00274566188}]}, {"nodeid": 14, "depth": 3, "split": "f6", "split_condition": 0.985386789, "yes": 29, "no": 30, "missing": 30, "children": [{"nodeid": 29, "leaf": 0.00373390317}, {"nodeid": 30, "leaf": 0.00869345758}]}]}]}]}, {"nodeid": 0, "depth": 0, "split": "f7", "split_condition": 1.12219703, "yes": 1, "no": 2, "missing": 2, "children": [{"nodeid": 1, "depth": 1, "split": "f5", "split_condition": 9, "yes": 3, "no": 4, "missing": 4, "children": [{"nodeid": 3, "depth": 2, "split": "f1", "split_condition": 220, "yes": 7, "no": 8, "missing": 8, "children": [{"nodeid": 7, "depth": 3, "split": "f6", "split_condition": 0.93586266, "yes": 15, "no": 16, "missing": 16, "children": [{"nodeid": 15, "leaf": -0.0137239872}, {"nodeid": 16, "leaf": -0.00959417876}]}, {"nodeid": 8, "depth": 3, "split": "f4", "split_condition": 395, "yes": 17, "no": 18, "missing": 18, "children": [{"nodeid": 17, "leaf": -0.0108694723}, {"nodeid": 18, "leaf": 0.00138272089}]}]}, {"nodeid": 4, "depth": 2, "split": "f6", "split_condition": 1.06763458, "yes": 9, "no": 10, "missing": 10, "children": [{"nodeid": 9, "depth": 3, "split": "f7", "split_condition": 1.06462014, "yes": 19, "no": 20, "missing": 20, "children": [{"nodeid": 19, "leaf": -0.0072993855}, {"nodeid": 20, "leaf": -0.00135990442}]}, {"nodeid": 10, "depth": 3, "split": "f7", "split_condition": 1.04819059, "yes": 21, "no": 22, "missing": 22, "children": [{"nodeid": 21, "leaf": 0.0083041396}, {"nodeid": 22, "leaf": -0.000796118402}]}]}]}, {"nodeid": 2, "depth": 1, "split": "f5", "split_condition": 7, "yes": 5, "no": 6, "missing": 6, "children": [{"nodeid": 5, "depth": 2, "split": "f7", "split_condition": 1.15373576, "yes": 11, "no": 12, "missing": 12, "children": [{"nodeid": 11, "depth": 3, "split": "f4", "split_condition": 395, "yes": 23, "no": 24, "missing": 24, "children": [{"nodeid": 23, "leaf": -0.017770201}, {"nodeid": 24, "leaf": 0.000537865388}]}, {"nodeid": 12, "depth": 3, "split": "f6", "split_condition": 1.0029856, "yes": 25, "no": 26, "missing": 26, "children": [{"nodeid": 25, "leaf": -0.00185482763}, {"nodeid": 26, "leaf": 0.00663274899}]}]}, {"nodeid": 6, "depth": 2, "split": "f7", "split_condition": 1.16583681, "yes": 13, "no": 14, "missing": 14, "children": [{"nodeid": 13, "depth": 3, "split": "f6", "split_condition": 1.24762678, "yes": 27, "no": 28, "missing": 28, "children": [{"nodeid": 27, "leaf": 0.00175628462}, {"nodeid": 28, "leaf": 0.00794921163}]}, {"nodeid": 14, "depth": 3, "split": "f5", "split_condition": 9, "yes": 29, "no": 30, "missing": 30, "children": [{"nodeid": 29, "leaf": 0.00769358641}, {"nodeid": 30, "leaf": 0.0171665158}]}]}]}]}, {"nodeid": 0, "depth": 0, "split": "f7", "split_condition": 1.12178934, "yes": 1, "no": 2, "missing": 2, "children": [{"nodeid": 1, "depth": 1, "split": "f5", "split_condition": 9, "yes": 3, "no": 4, "missing": 4, "children": [{"nodeid": 3, "depth": 2, "split": "f0", "split_condition": 600, "yes": 7, "no": 8, "missing": 8, "children": [{"nodeid": 7, "depth": 3, "split": "f7", "split_condition": 1.11519349, "yes": 15, "no": 16, "missing": 16, "children": [{"nodeid": 15, "leaf": -0.00942360144}, {"nodeid": 16, "leaf": -0.0169871729}]}, {"nodeid": 8, "depth": 3, "split": "f6", "split_condition": 1.11123705, "yes": 17, "no": 18, "missing": 18, "children": [{"nodeid": 17, "leaf": -0.0109562492}, {"nodeid": 18, "leaf": 0.00351847382}]}]}, {"nodeid": 4, "depth": 2, "split": "f6", "split_condition": 1.09421837, "yes": 9, "no": 10, "missing": 10, "children": [{"nodeid": 9, "depth": 3, "split": "f7", "split_condition": 1.05080199, "yes": 19, "no": 20, "missing": 20, "children": [{"nodeid": 19, "leaf": -0.0067389356}, {"nodeid": 20, "leaf": -0.00267298799}]}, {"nodeid": 10, "depth": 3, "split": "f0", "split_condition": 500, "yes": 21, "no": 22, "missing": 22, "children": [{"nodeid": 21, "leaf": -0.00204508938}, {"nodeid": 22, "leaf": 0.00365545205}]}]}]}, {"nodeid": 2, "depth": 1, "split": "f5", "split_condition": 7, "yes": 5, "no": 6, "missing": 6, "children": [{"nodeid": 5, "depth": 2, "split": "f7", "split_condition": 1.13233483, "yes": 11, "no": 12, "missing": 12, "children": [{"nodeid": 11, "leaf": -0.0198083743}, {"nodeid": 12, "depth": 3, "split": "f7", "split_condition": 1.40558684, "yes": 23, "no": 24, "missing": 24, "children": [{"nodeid": 23, "leaf": -0.000556816696}, {"nodeid": 24, "leaf": 0.0128885331}]}]}, {"nodeid": 6, "depth": 2, "split": "f7", "split_condition": 1.16583681, "yes": 13, "no": 14, "missing": 14, "children": [{"nodeid": 13, "depth": 3, "split": "f6", "split_condition": 1.04295039, "yes": 25, "no": 26, "missing": 26, "children": [{"nodeid": 25, "leaf": -0.0046483255}, {"nodeid": 26, "leaf": 0.00439443532}]}, {"nodeid": 14, "depth": 3, "split": "f5", "split_condition": 9, "yes": 27, "no": 28, "missing": 28, "children": [{"nodeid": 27, "leaf": 0.00743630156}, {"nodeid": 28, "leaf": 0.0155420294}]}]}]}]}, {"nodeid": 0, "depth": 0, "split": "f6", "split_condition": 1.05362225, "yes": 1, "no": 2, "missing": 2, "children": [{"nodeid": 1, "depth": 1, "split": "f4", "split_condition": 395, "yes": 3, "no": 4, "missing": 4, "children": [{"nodeid": 3, "depth": 2, "split": "f5", "split_condition": 12, "yes": 7, "no": 8, "missing": 8, "children": [{"nodeid": 7, "depth": 3, "split": "f5", "split_condition": 9, "yes": 15, "no": 16, "missing": 16, "children": [{"nodeid": 15, "leaf": -0.00480062841}, {"nodeid": 16, "leaf": 0.00154131174}]}, {"nodeid": 8, "depth": 3, "split": "f0", "split_condition": 500, "yes": 17, "no": 18, "missing": 18, "children": [{"nodeid": 17, "leaf": -0.00571966916}, {"nodeid": 18, "leaf": -0.0140315518}]}]}, {"nodeid": 4, "depth": 2, "split": "f6", "split_condition": 0.963594079, "yes": 9, "no": 10, "missing": 10, "children": [{"nodeid": 9, "depth": 3, "split": "f6", "split_condition": 0.924745023, "yes": 19, "no": 20, "missing": 20, "children": [{"nodeid": 19, "leaf": -0.00130094227}, {"nodeid": 20, "leaf": 0.0047372221}]}, {"nodeid": 10, "depth": 3, "split": "f6", "split_condition": 1.02407825, "yes": 21, "no": 22, "missing": 22, "children": [{"nodeid": 21, "leaf": -0.00605951529}, {"nodeid": 22, "leaf": -0.000980361248}]}]}]}, {"nodeid": 2, "depth": 1, "split": "f4", "split_condition": 395, "yes": 5, "no": 6, "missing": 6, "children": [{"nodeid": 5, "depth": 2, "split": "f6", "split_condition": 1.1426959, "yes": 11, "no": 12, "missing": 12, "children": [{"nodeid": 11, "depth": 3, "split": "f5", "split_condition": 9, "yes": 23, "no": 24, "missing": 24, "children": [{"nodeid": 23, "leaf": -0.00278787781}, {"nodeid": 24, "leaf": -0.00777652487}]}, {"nodeid": 12, "depth": 3, "split": "f6", "split_condition": 1.24310005, "yes": 25, "no": 26, "missing": 26, "children": [{"nodeid": 25, "leaf": -0.000244481431}, {"nodeid": 26, "leaf": 0.00468101585}]}]}, {"nodeid": 6, "depth": 2, "split": "f6", "split_condition": 1.10916305, "yes": 13, "no": 14, "missing": 14, "children": [{"nodeid": 13, "depth": 3, "split": "f5", "split_condition": 14, "yes": 27, "no": 28, "missing": 28, "children": [{"nodeid": 27, "leaf": 0.00438341079}, {"nodeid": 28, "leaf": 0.0142189432}]}, {"nodeid": 14, "depth": 3, "split": "f0", "split_condition": 600, "yes": 29, "no": 30, "missing": 30, "children": [{"nodeid": 29, "leaf": 0.00770061184}, {"nodeid": 30, "leaf": 0.0141070066}]}]}]}]}, {"nodeid": 0, "depth": 0, "split": "f7", "split_condition": 1.14183748, "yes": 1, "no": 2, "missing": 2, "children": [{"nodeid": 1, "depth": 1, "split": "f5", "split_condition": 12, "yes": 3, "no": 4, "missing": 4, "children": [{"nodeid": 3, "depth": 2, "split": "f4", "split_condition": 395, "yes": 7, "no": 8, "missing": 8, "children": [{"nodeid": 7, "depth": 3, "split": "f7", "split_condition": 1.10476136, "yes": 15, "no": 16, "missing": 16, "children": [{"nodeid": 15, "leaf": -0.00854982529}, {"nodeid": 16, "leaf": -0.0139896218}]}, {"nodeid": 8, "depth": 3, "split": "f7", "split_condition": 1.11150229, "yes": 17, "no": 18, "missing": 18, "children": [{"nodeid": 17, "leaf": -0.00568760652}, {"nodeid": 18, "leaf": 0.00794862118}]}]}, {"nodeid": 4, "depth": 2, "split": "f6", "split_condition": 1.24762678, "yes": 9, "no": 10, "missing": 10, "children": [{"nodeid": 9, "depth": 3, "split": "f4", "split_condition": 324, "yes": 19, "no": 20, "missing": 20, "children": [{"nodeid": 19, "leaf": -0.0106586032}, {"nodeid": 20, "leaf": 0.000670330133}]}, {"nodeid": 10, "depth": 3, "split": "f7", "split_condition": 1.1255039, "yes": 21, "no": 22, "missing": 22, "children": [{"nodeid": 21, "leaf": 0.00970993936}, {"nodeid": 22, "leaf": -0.0138698267}]}]}]}, {"nodeid": 2, "depth": 1, "split": "f5", "split_condition": 7, "yes": 5, "no": 6, "missing": 6, "children": [{"nodeid": 5, "depth": 2, "split": "f6", "split_condition": 1.0029856, "yes": 11, "no": 12, "missing": 12, "children": [{"nodeid": 11, "depth": 3, "split": "f7", "split_condition": 1.24110126, "yes": 23, "no": 24, "missing": 24, "children": [{"nodeid": 23, "leaf": -0.0140603604}, {"nodeid": 24, "leaf": 0.00309754582}]}, {"nodeid": 12, "depth": 3, "split": "f7", "split_condition": 1.15080118, "yes": 25, "no": 26, "missing": 26, "children": [{"nodeid": 25, "leaf": -0.00946092233}, {"nodeid": 26, "leaf": 0.00611740677}]}]}, {"nodeid": 6, "depth": 2, "split": "f7", "split_condition": 1.20956337, "yes": 13, "no": 14, "missing": 14, "children": [{"nodeid": 13, "depth": 3, "split": "f6", "split_condition": 0.775436401, "yes": 27, "no": 28, "missing": 28, "children": [{"nodeid": 27, "leaf": -0.00802439451}, {"nodeid": 28, "leaf": 0.00591241568}]}, {"nodeid": 14, "depth": 3, "split": "f6", "split_condition": 0.93586266, "yes": 29, "no": 30, "missing": 30, "children": [{"nodeid": 29, "leaf": 0.00980901904}, {"nodeid": 30, "leaf": 0.0171689242}]}]}]}]}, {"nodeid": 0, "depth": 0, "split": "f6", "split_condition": 1.04861546, "yes": 1, "no": 2, "missing": 2, "children": [{"nodeid": 1, "depth": 1, "split": "f4", "split_condition": 395, "yes": 3, "no": 4, "missing": 4, "children": [{"nodeid": 3, "depth": 2, "split": "f6", "split_condition": 0.557329655, "yes": 7, "no": 8, "missing": 8, "children": [{"nodeid": 7, "leaf": -0.0188604016}, {"nodeid": 8, "depth": 3, "split": "f5", "split_condition": 14, "yes": 15, "no": 16, "missing": 16, "children": [{"nodeid": 15, "leaf": -0.00361928204}, {"nodeid": 16, "leaf": -0.0112326965}]}]}, {"nodeid": 4, "depth": 2, "split": "f5", "split_condition": 12, "yes": 9, "no": 10, "missing": 10, "children": [{"nodeid": 9, "depth": 3, "split": "f6", "split_condition": 0.600880742, "yes": 17, "no": 18, "missing": 18, "children": [{"nodeid": 17, "leaf": -0.00559033407}, {"nodeid": 18, "leaf": 0.000777433452}]}, {"nodeid": 10, "depth": 3, "split": "f0", "split_condition": 500, "yes": 19, "no": 20, "missing": 20, "children": [{"nodeid": 19, "leaf": -0.00105051685}, {"nodeid": 20, "leaf": -0.00879705604}]}]}]}, {"nodeid": 2, "depth": 1, "split": "f4", "split_condition": 395, "yes": 5, "no": 6, "missing": 6, "children": [{"nodeid": 5, "depth": 2, "split": "f6", "split_condition": 1.1426959, "yes": 11, "no": 12, "missing": 12, "children": [{"nodeid": 11, "depth": 3, "split": "f5", "split_condition": 9, "yes": 21, "no": 22, "missing": 22, "children": [{"nodeid": 21, "leaf": -0.0022888321}, {"nodeid": 22, "leaf": -0.00705146743}]}, {"nodeid": 12, "depth": 3, "split": "f5", "split_condition": 12, "yes": 23, "no": 24, "missing": 24, "children": [{"nodeid": 23, "leaf": -0.000456402398}, {"nodeid": 24, "leaf": 0.00450735539}]}]}, {"nodeid": 6, "depth": 2, "split": "f6", "split_condition": 1.09915137, "yes": 13, "no": 14, "missing": 14, "children": [{"nodeid": 13, "depth": 3, "split": "f5", "split_condition": 14, "yes": 25, "no": 26, "missing": 26, "children": [{"nodeid": 25, "leaf": 0.00157753192}, {"nodeid": 26, "leaf": 0.0110429442}]}, {"nodeid": 14, "depth": 3, "split": "f0", "split_condition": 600, "yes": 27, "no": 28, "missing": 28, "children": [{"nodeid": 27, "leaf": 0.00619923463}, {"nodeid": 28, "leaf": 0.0121890903}]}]}]}]}, {"nodeid": 0, "depth": 0, "split": "f7", "split_condition": 1.13754106, "yes": 1, "no": 2, "missing": 2, "children": [{"nodeid": 1, "depth": 1, "split": "f6", "split_condition": 1.04953516, "yes": 3, "no": 4, "missing": 4, "children": [{"nodeid": 3, "depth": 2, "split": "f7", "split_condition": 1.11593509, "yes": 7, "no": 8, "missing": 8, "children": [{"nodeid": 7, "depth": 3, "split": "f7", "split_condition": 1.06689727, "yes": 15, "no": 16, "missing": 16, "children": [{"nodeid": 15, "leaf": -0.0081525445}, {"nodeid": 16, "leaf": -0.000197850793}]}, {"nodeid": 8, "depth": 3, "split": "f6", "split_condition": 1.0087384, "yes": 17, "no": 18, "missing": 18, "children": [{"nodeid": 17, "leaf": -0.0052452432}, {"nodeid": 18, "leaf": -0.0174594279}]}]}, {"nodeid": 4, "depth": 2, "split": "f4", "split_condition": 395, "yes": 9, "no": 10, "missing": 10, "children": [{"nodeid": 9, "depth": 3, "split": "f7", "split_condition": 1.13054156, "yes": 19, "no": 20, "missing": 20, "children": [{"nodeid": 19, "leaf": -0.00164215919}, {"nodeid": 20, "leaf": -0.017576389}]}, {"nodeid": 10, "depth": 3, "split": "f7", "split_condition": 1.11519349, "yes": 21, "no": 22, "missing": 22, "children": [{"nodeid": 21, "leaf": -0.00130698062}, {"nodeid": 22, "leaf": 0.00707365898}]}]}]}, {"nodeid": 2, "depth": 1, "split": "f6", "split_condition": 0.680413425, "yes": 5, "no": 6, "missing": 6, "children": [{"nodeid": 5, "depth": 2, "split": "f7", "split_condition": 1.33335638, "yes": 11, "no": 12, "missing": 12, "children": [{"nodeid": 11, "depth": 3, "split": "f4", "split_condition": 395, "yes": 23, "no": 24, "missing": 24, "children": [{"nodeid": 23, "leaf": -0.0164675228}, {"nodeid": 24, "leaf": -0.00420261919}]}, {"nodeid": 12, "depth": 3, "split": "f7", "split_condition": 1.43376637, "yes": 25, "no": 26, "missing": 26, "children": [{"nodeid": 25, "leaf": 0.0025829426}, {"nodeid": 26, "leaf": 0.0127630103}]}]}, {"nodeid": 6, "depth": 2, "split": "f4", "split_condition": 395, "yes": 13, "no": 14, "missing": 14, "children": [{"nodeid": 13, "depth": 3, "split": "f7", "split_condition": 1.14238441, "yes": 27, "no": 28, "missing": 28, "children": [{"nodeid": 27, "leaf": -0.0100974217}, {"nodeid": 28, "leaf": 0.0041289255}]}, {"nodeid": 14, "depth": 3, "split": "f7", "split_condition": 1.25027514, "yes": 29, "no": 30, "missing": 30, "children": [{"nodeid": 29, "leaf": 0.00885275938}, {"nodeid": 30, "leaf": 0.0190134253}]}]}]}]}, {"nodeid": 0, "depth": 0, "split": "f7", "split_condition": 1.13754106, "yes": 1, "no": 2, "missing": 2, "children": [{"nodeid": 1, "depth": 1, "split": "f6", "split_condition": 1.04953516, "yes": 3, "no": 4, "missing": 4, "children": [{"nodeid": 3, "depth": 2, "split": "f7", "split_condition": 1.11519349, "yes": 7, "no": 8, "missing": 8, "children": [{"nodeid": 7, "depth": 3, "split": "f7", "split_condition": 1.06689727, "yes": 15, "no": 16, "missing": 16, "children": [{"nodeid": 15, "leaf": -0.00796604808}, {"nodeid": 16, "leaf": 0.000250037585}]}, {"nodeid": 8, "depth": 3, "split": "f5", "split_condition": 12, "yes": 17, "no": 18, "missing": 18, "children": [{"nodeid": 17, "leaf": -0.00279242941}, {"nodeid": 18, "leaf": -0.0208227374}]}]}, {"nodeid": 4, "depth": 2, "split": "f5", "split_condition": 12, "yes": 9, "no": 10, "missing": 10, "children": [{"nodeid": 9, "depth": 3, "split": "f4", "split_condition": 395, "yes": 19, "no": 20, "missing": 20, "children": [{"nodeid": 19, "leaf": -0.00965152681}, {"nodeid": 20, "leaf": 0.00357323629}]}, {"nodeid": 10, "depth": 3, "split": "f7", "split_condition": 1.1318624, "yes": 21, "no": 22, "missing": 22, "children": [{"nodeid": 21, "leaf": 0.00269664987}, {"nodeid": 22, "leaf": -0.0252470616}]}]}]}, {"nodeid": 2, "depth": 1, "split": "f4", "split_condition": 395, "yes": 5, "no": 6, "missing": 6, "children": [{"nodeid": 5, "depth": 2, "split": "f7", "split_condition": 1.14238441, "yes": 11, "no": 12, "missing": 12, "children": [{"nodeid": 11, "depth": 3, "split": "f4", "split_condition": 324, "yes": 23, "no": 24, "missing": 24, "children": [{"nodeid": 23, "leaf": -0.00435198983}, {"nodeid": 24, "leaf": -0.0168796834}]}, {"nodeid": 12, "depth": 3, "split": "f6", "split_condition": 0.99394393, "yes": 25, "no": 26, "missing": 26, "children": [{"nodeid": 25, "leaf": -0.00184119144}, {"nodeid": 26, "leaf": 0.00495599722}]}]}, {"nodeid": 6, "depth": 2, "split": "f6", "split_condition": 0.600880742, "yes": 13, "no": 14, "missing": 14, "children": [{"nodeid": 13, "depth": 3, "split": "f7", "split_condition": 1.30102921, "yes": 27, "no": 28, "missing": 28, "children": [{"nodeid": 27, "leaf": -0.0133341076}, {"nodeid": 28, "leaf": 0.00714446977}]}, {"nodeid": 14, "depth": 3, "split": "f5", "split_condition": 7, "yes": 29, "no": 30, "missing": 30, "children": [{"nodeid": 29, "leaf": 0.00654571736}, {"nodeid": 30, "leaf": 0.0120431399}]}]}]}]}, {"nodeid": 0, "depth": 0, "split": "f7", "split_condition": 1.13754106, "yes": 1, "no": 2, "missing": 2, "children": [{"nodeid": 1, "depth": 1, "split": "f6", "split_condition": 1.04953516, "yes": 3, "no": 4, "missing": 4, "children": [{"nodeid": 3, "depth": 2, "split": "f7", "split_condition": 1.11593509, "yes": 7, "no": 8, "missing": 8, "children": [{"nodeid": 7, "depth": 3, "split": "f7", "split_condition": 1.0627799, "yes": 15, "no": 16, "missing": 16, "children": [{"nodeid": 15, "leaf": -0.0074280547}, {"nodeid": 16, "leaf": -0.00072379125}]}, {"nodeid": 8, "depth": 3, "split": "f6", "split_condition": 1.0087384, "yes": 17, "no": 18, "missing": 18, "children": [{"nodeid": 17, "leaf": -0.00424625492}, {"nodeid": 18, "leaf": -0.0172077827}]}]}, {"nodeid": 4, "depth": 2, "split": "f4", "split_condition": 395, "yes": 9, "no": 10, "missing": 10, "children": [{"nodeid": 9, "depth": 3, "split": "f7", "split_condition": 1.0608145, "yes": 19, "no": 20, "missing": 20, "children": [{"nodeid": 19, "leaf": 0.00427785236}, {"nodeid": 20, "leaf": -0.00375294988}]}, {"nodeid": 10, "depth": 3, "split": "f7", "split_condition": 1.1140039, "yes": 21, "no": 22, "missing": 22, "children": [{"nodeid": 21, "leaf": -0.00239743688}, {"nodeid": 22, "leaf": 0.00679044565}]}]}]}, {"nodeid": 2, "depth": 1, "split": "f6", "split_condition": 0.600880742, "yes": 5, "no": 6, "missing": 6, "children": [{"nodeid": 5, "depth": 2, "split": "f7", "split_condition": 1.33335638, "yes": 11, "no": 12, "missing": 12, "children": [{"nodeid": 11, "depth": 3, "split": "f0", "split_condition": 600, "yes": 23, "no": 24, "missing": 24, "children": [{"nodeid": 23, "leaf": -0.0160236396}, {"nodeid": 24, "leaf": -0.00475736754}]}, {"nodeid": 12, "depth": 3, "split": "f7", "split_condition": 1.4651289, "yes": 25, "no": 26, "missing": 26, "children": [{"nodeid": 25, "leaf": -0.00209041964}, {"nodeid": 26, "leaf": 0.0131865116}]}]}, {"nodeid": 6, "depth": 2, "split": "f4", "split_condition": 395, "yes": 13, "no": 14, "missing": 14, "children": [{"nodeid": 13, "depth": 3, "split": "f7", "split_condition": 1.14238441, "yes": 27, "no": 28, "missing": 28, "children": [{"nodeid": 27, "leaf": -0.00919530727}, {"nodeid": 28, "leaf": 0.003185421}]}, {"nodeid": 14, "depth": 3, "split": "f7", "split_condition": 1.20956337, "yes": 29, "no": 30, "missing": 30, "children": [{"nodeid": 29, "leaf": 0.00762778474}, {"nodeid": 30, "leaf": 0.0143110482}]}]}]}]}, {"nodeid": 0, "depth": 0, "split": "f7", "split_condition": 1.12219703, "yes": 1, "no": 2, "missing": 2, "children": [{"nodeid": 1, "depth": 1, "split": "f5", "split_condition": 9, "yes": 3, "no": 4, "missing": 4, "children": [{"nodeid": 3, "depth": 2, "split": "f0", "split_condition": 600, "yes": 7, "no": 8, "missing": 8, "children": [{"nodeid": 7, "depth": 3, "split": "f7", "split_condition": 1.11698604, "yes": 15, "no": 16, "missing": 16, "children": [{"nodeid": 15, "leaf": -0.00793145411}, {"nodeid": 16, "leaf": -0.016615605}]}, {"nodeid": 8, "depth": 3, "split": "f7", "split_condition": 1.09928751, "yes": 17, "no": 18, "missing": 18, "children": [{"nodeid": 17, "leaf": -0.00802877452}, {"nodeid": 18, "leaf": 0.00223594462}]}]}, {"nodeid": 4, "depth": 2, "split": "f0", "split_condition": 500, "yes": 9, "no": 10, "missing": 10, "children": [{"nodeid": 9, "depth": 3, "split": "f4", "split_condition": 324, "yes": 19, "no": 20, "missing": 20, "children": [{"nodeid": 19, "leaf": -0.00408988167}, {"nodeid": 20, "leaf": -0.00110987073}]}, {"nodeid": 10, "depth": 3, "split": "f5", "split_condition": 12, "yes": 21, "no": 22, "missing": 22, "children": [{"nodeid": 21, "leaf": -0.00193222601}, {"nodeid": 22, "leaf": 0.00188055227}]}]}]}, {"nodeid": 2, "depth": 1, "split": "f5", "split_condition": 9, "yes": 5, "no": 6, "missing": 6, "children": [{"nodeid": 5, "depth": 2, "split": "f7", "split_condition": 1.13134396, "yes": 11, "no": 12, "missing": 12, "children": [{"nodeid": 11, "depth": 3, "split": "f0", "split_condition": 600, "yes": 23, "no": 24, "missing": 24, "children": [{"nodeid": 23, "leaf": -0.0211539771}, {"nodeid": 24, "leaf": -0.00895861816}]}, {"nodeid": 12, "depth": 3, "split": "f7", "split_condition": 1.21454084, "yes": 25, "no": 26, "missing": 26, "children": [{"nodeid": 25, "leaf": -0.0002967084}, {"nodeid": 26, "leaf": 0.00595483417}]}]}, {"nodeid": 6, "depth": 2, "split": "f7", "split_condition": 1.17821145, "yes": 13, "no": 14, "missing": 14, "children": [{"nodeid": 13, "depth": 3, "split": "f0", "split_condition": 330, "yes": 27, "no": 28, "missing": 28, "children": [{"nodeid": 27, "leaf": -0.000213181818}, {"nodeid": 28, "leaf": 0.00641989848}]}, {"nodeid": 14, "depth": 3, "split": "f7", "split_condition": 1.1832149, "yes": 29, "no": 30, "missing": 30, "children": [{"nodeid": 29, "leaf": 0.0144147994}, {"nodeid": 30, "leaf": 0.0234313775}]}]}]}]}, {"nodeid": 0, "depth": 0, "split": "f6", "split_condition": 1.24561131, "yes": 1, "no": 2, "missing": 2, "children": [{"nodeid": 1, "depth": 1, "split": "f4", "split_condition": 324, "yes": 3, "no": 4, "missing": 4, "children": [{"nodeid": 3, "depth": 2, "split": "f5", "split_condition": 12, "yes": 7, "no": 8, "missing": 8, "children": [{"nodeid": 7, "depth": 3, "split": "f6", "split_condition": 0.866774499, "yes": 15, "no": 16, "missing": 16, "children": [{"nodeid": 15, "leaf": -0.00634460244}, {"nodeid": 16, "leaf": -0.00204722467}]}, {"nodeid": 8, "depth": 3, "split": "f0", "split_condition": 500, "yes": 17, "no": 18, "missing": 18, "children": [{"nodeid": 17, "leaf": -0.00643224595}, {"nodeid": 18, "leaf": -0.0149029149}]}]}, {"nodeid": 4, "depth": 2, "split": "f6", "split_condition": 1.05362225, "yes": 9, "no": 10, "missing": 10, "children": [{"nodeid": 9, "depth": 3, "split": "f4", "split_condition": 395, "yes": 19, "no": 20, "missing": 20, "children": [{"nodeid": 19, "leaf": -0.00387630868}, {"nodeid": 20, "leaf": -0.000869923853}]}, {"nodeid": 10, "depth": 3, "split": "f4", "split_condition": 395, "yes": 21, "no": 22, "missing": 22, "children": [{"nodeid": 21, "leaf": 0.000475373265}, {"nodeid": 22, "leaf": 0.00419592811}]}]}]}, {"nodeid": 2, "depth": 1, "split": "f5", "split_condition": 14, "yes": 5, "no": 6, "missing": 6, "children": [{"nodeid": 5, "depth": 2, "split": "f6", "split_condition": 1.26531553, "yes": 11, "no": 12, "missing": 12, "children": [{"nodeid": 11, "depth": 3, "split": "f6", "split_condition": 1.24762678, "yes": 23, "no": 24, "missing": 24, "children": [{"nodeid": 23, "leaf": 0.0117616439}, {"nodeid": 24, "leaf": -0.00415866403}]}, {"nodeid": 12, "depth": 3, "split": "f5", "split_condition": 9, "yes": 25, "no": 26, "missing": 26, "children": [{"nodeid": 25, "leaf": 0.0010176684}, {"nodeid": 26, "leaf": 0.00577906566}]}]}, {"nodeid": 6, "depth": 2, "split": "f6", "split_condition": 1.24762678, "yes": 13, "no": 14, "missing": 14, "children": [{"nodeid": 13, "depth": 3, "split": "f0", "split_condition": 500, "yes": 27, "no": 28, "missing": 28, "children": [{"nodeid": 27, "leaf": 0.00308006816}, {"nodeid": 28, "leaf": -0.0234542545}]}, {"nodeid": 14, "depth": 3, "split": "f6", "split_condition": 1.25963318, "yes": 29, "no": 30, "missing": 30, "children": [{"nodeid": 29, "leaf": 0.00874528382}, {"nodeid": 30, "leaf": 0.0145287579}]}]}]}]}, {"nodeid": 0, "depth": 0, "split": "f7", "split_condition": 1.12219703, "yes": 1, "no": 2, "missing": 2, "children": [{"nodeid": 1, "depth": 1, "split": "f5", "split_condition": 9, "yes": 3, "no": 4, "missing": 4, "children": [{"nodeid": 3, "depth": 2, "split": "f6", "split_condition": 0.866774499, "yes": 7, "no": 8, "missing": 8, "children": [{"nodeid": 7, "depth": 3, "split": "f5", "split_condition": 7, "yes": 15, "no": 16, "missing": 16, "children": [{"nodeid": 15, "leaf": -0.0151548777}, {"nodeid": 16, "leaf": -0.0108911982}]}, {"nodeid": 8, "depth": 3, "split": "f5", "split_condition": 7, "yes": 17, "no": 18, "missing": 18, "children": [{"nodeid": 17, "leaf": -0.00903621968}, {"nodeid": 18, "leaf": -0.00542352255}]}]}, {"nodeid": 4, "depth": 2, "split": "f6", "split_condition": 1.27781785, "yes": 9, "no": 10, "missing": 10, "children": [{"nodeid": 9, "depth": 3, "split": "f4", "split_condition": 324, "yes": 19, "no": 20, "missing": 20, "children": [{"nodeid": 19, "leaf": -0.00431552762}, {"nodeid": 20, "leaf": -0.000248270779}]}, {"nodeid": 10, "depth": 3, "split": "f5", "split_condition": 12, "yes": 21, "no": 22, "missing": 22, "children": [{"nodeid": 21, "leaf": -0.00683023408}, {"nodeid": 22, "leaf": 0.0146156345}]}]}]}, {"nodeid": 2, "depth": 1, "split": "f6", "split_condition": 0.716816545, "yes": 5, "no": 6, "missing": 6, "children": [{"nodeid": 5, "depth": 2, "split": "f7", "split_condition": 1.33335638, "yes": 11, "no": 12, "missing": 12, "children": [{"nodeid": 11, "depth": 3, "split": "f5", "split_condition": 7, "yes": 23, "no": 24, "missing": 24, "children": [{"nodeid": 23, "leaf": -0.013459933}, {"nodeid": 24, "leaf": -0.00296151568}]}, {"nodeid": 12, "depth": 3, "split": "f7", "split_condition": 1.43376637, "yes": 25, "no": 26, "missing": 26, "children": [{"nodeid": 25, "leaf": 0.00265284325}, {"nodeid": 26, "leaf": 0.0125160338}]}]}, {"nodeid": 6, "depth": 2, "split": "f7", "split_condition": 1.2182014, "yes": 13, "no": 14, "missing": 14, "children": [{"nodeid": 13, "depth": 3, "split": "f5", "split_condition": 9, "yes": 27, "no": 28, "missing": 28, "children": [{"nodeid": 27, "leaf": -0.000283641741}, {"nodeid": 28, "leaf": 0.00457382156}]}, {"nodeid": 14, "depth": 3, "split": "f6", "split_condition": 0.940649688, "yes": 29, "no": 30, "missing": 30, "children": [{"nodeid": 29, "leaf": 0.00668866793}, {"nodeid": 30, "leaf": 0.0149508566}]}]}]}]}, {"nodeid": 0, "depth": 0, "split": "f7", "split_condition": 1.13797605, "yes": 1, "no": 2, "missing": 2, "children": [{"nodeid": 1, "depth": 1, "split": "f5", "split_condition": 9, "yes": 3, "no": 4, "missing": 4, "children": [{"nodeid": 3, "depth": 2, "split": "f4", "split_condition": 395, "yes": 7, "no": 8, "missing": 8, "children": [{"nodeid": 7, "depth": 3, "split": "f7", "split_condition": 1.11646223, "yes": 15, "no": 16, "missing": 16, "children": [{"nodeid": 15, "leaf": -0.00750776241}, {"nodeid": 16, "leaf": -0.0172082409}]}, {"nodeid": 8, "depth": 3, "split": "f7", "split_condition": 1.13233483, "yes": 17, "no": 18, "missing": 18, "children": [{"nodeid": 17, "leaf": -0.00596616138}, {"nodeid": 18, "leaf": 0.00671210978}]}]}, {"nodeid": 4, "depth": 2, "split": "f7", "split_condition": 1.13054156, "yes": 9, "no": 10, "missing": 10, "children": [{"nodeid": 9, "depth": 3, "split": "f7", "split_condition": 1.12219703, "yes": 19, "no": 20, "missing": 20, "children": [{"nodeid": 19, "leaf": -0.000939103949}, {"nodeid": 20, "leaf": 0.00663366914}]}, {"nodeid": 10, "depth": 3, "split": "f6", "split_condition": 1.28177643, "yes": 21, "no": 22, "missing": 22, "children": [{"nodeid": 21, "leaf": -0.0141272787}, {"nodeid": 22, "leaf": 0.0164114516}]}]}]}, {"nodeid": 2, "depth": 1, "split": "f5", "split_condition": 7, "yes": 5, "no": 6, "missing": 6, "children": [{"nodeid": 5, "depth": 2, "split": "f7", "split_condition": 1.25027514, "yes": 11, "no": 12, "missing": 12, "children": [{"nodeid": 11, "depth": 3, "split": "f6", "split_condition": 1.01782119, "yes": 23, "no": 24, "missing": 24, "children": [{"nodeid": 23, "leaf": -0.0120573519}, {"nodeid": 24, "leaf": 0.00222676969}]}, {"nodeid": 12, "depth": 3, "split": "f6", "split_condition": 0.733805835, "yes": 25, "no": 26, "missing": 26, "children": [{"nodeid": 25, "leaf": 0.000171853811}, {"nodeid": 26, "leaf": 0.0113618132}]}]}, {"nodeid": 6, "depth": 2, "split": "f4", "split_condition": 395, "yes": 13, "no": 14, "missing": 14, "children": [{"nodeid": 13, "depth": 3, "split": "f6", "split_condition": 1.25415301, "yes": 27, "no": 28, "missing": 28, "children": [{"nodeid": 27, "leaf": 0.0014103686}, {"nodeid": 28, "leaf": 0.00747668464}]}, {"nodeid": 14, "depth": 3, "split": "f6", "split_condition": 0.585674882, "yes": 29, "no": 30, "missing": 30, "children": [{"nodeid": 29, "leaf": -0.0119945016}, {"nodeid": 30, "leaf": 0.0105651561}]}]}]}]}, {"nodeid": 0, "depth": 0, "split": "f7", "split_condition": 1.14896381, "yes": 1, "no": 2, "missing": 2, "children": [{"nodeid": 1, "depth": 1, "split": "f5", "split_condition": 9, "yes": 3, "no": 4, "missing": 4, "children": [{"nodeid": 3, "depth": 2, "split": "f4", "split_condition": 395, "yes": 7, "no": 8, "missing": 8, "children": [{"nodeid": 7, "depth": 3, "split": "f7", "split_condition": 1.11519349, "yes": 15, "no": 16, "missing": 16, "children": [{"nodeid": 15, "leaf": -0.00712389266}, {"nodeid": 16, "leaf": -0.0144309029}]}, {"nodeid": 8, "depth": 3, "split": "f7", "split_condition": 1.13233483, "yes": 17, "no": 18, "missing": 18, "children": [{"nodeid": 17, "leaf": -0.00541136134}, {"nodeid": 18, "leaf": 0.00575138768}]}]}, {"nodeid": 4, "depth": 2, "split": "f6", "split_condition": 1.24762678, "yes": 9, "no": 10, "missing": 10, "children": [{"nodeid": 9, "depth": 3, "split": "f4", "split_condition": 324, "yes": 19, "no": 20, "missing": 20, "children": [{"nodeid": 19, 